<?xml version="1.0"?>
<opencv_storage>
<stage18>
  <maxWeakCount>14</maxWeakCount>
  <stageThreshold>-8.9669549465179443e-01</stageThreshold>
  <weakClassifiers>
    <_>
      <internalNodes>
        0 -1 44667 7.6161762699484825e-03</internalNodes>
      <leafValues>
        -3.9204546809196472e-01 5.6521737575531006e-01</leafValues></_>
    <_>
      <internalNodes>
        0 -1 15051 1.2555873021483421e-02</internalNodes>
      <leafValues>
        -2.5008875131607056e-01 2.6154226064682007e-01</leafValues></_>
    <_>
      <internalNodes>
        0 -1 39921 3.0347961001098156e-03</internalNodes>
      <leafValues>
        1.1831186711788177e-01 -6.4518290758132935e-01</leafValues></_>
    <_>
      <internalNodes>
        0 -1 35168 -1.0299028828740120e-02</internalNodes>
      <leafValues>
        2.7914726734161377e-01 -2.6934275031089783e-01</leafValues></_>
    <_>
      <internalNodes>
        0 -1 36275 -3.7040375173091888e-02</internalNodes>
      <leafValues>
        1.0840742290019989e-01 -7.6487410068511963e-01</leafValues></_>
    <_>
      <internalNodes>
        0 -1 3307 -3.1083080917596817e-02</internalNodes>
      <leafValues>
        6.4777827262878418e-01 -1.1493238806724548e-01</leafValues></_>
    <_>
      <internalNodes>
        0 -1 38596 -3.1883768737316132e-02</internalNodes>
      <leafValues>
        4.4525855779647827e-01 -1.2861333787441254e-01</leafValues></_>
    <_>
      <internalNodes>
        0 -1 76652 7.8983471030369401e-04</internalNodes>
      <leafValues>
        1.3346904516220093e-01 -5.2248936891555786e-01</leafValues></_>
    <_>
      <internalNodes>
        0 -1 41936 -3.8465760648250580e-02</internalNodes>
      <leafValues>
        2.5517454743385315e-01 -2.3734673857688904e-01</leafValues></_>
    <_>
      <internalNodes>
        0 -1 10136 -7.9446127638220787e-03</internalNodes>
      <leafValues>
        3.3305341005325317e-01 -1.9923976063728333e-01</leafValues></_>
    <_>
      <internalNodes>
        0 -1 60823 -6.6071664914488792e-03</internalNodes>
      <leafValues>
        3.8552048802375793e-01 -1.7766264081001282e-01</leafValues></_>
    <_>
      <internalNodes>
        0 -1 68432 -3.8694937247782946e-03</internalNodes>
      <leafValues>
        6.8557047843933105e-01 -9.4763658940792084e-02</leafValues></_>
    <_>
      <internalNodes>
        0 -1 70 -3.7293117493391037e-03</internalNodes>
      <leafValues>
        -8.4386861324310303e-01 1.0470843315124512e-01</leafValues></_>
    <_>
      <internalNodes>
        0 -1 18200 -5.7442095130681992e-02</internalNodes>
      <leafValues>
        -4.5167580246925354e-01 1.2110163271427155e-01</leafValues></_></weakClassifiers></stage18>
</opencv_storage>
