<?xml version="1.0"?>
<opencv_storage>
<stage23>
  <maxWeakCount>19</maxWeakCount>
  <stageThreshold>-9.4770848751068115e-01</stageThreshold>
  <weakClassifiers>
    <_>
      <internalNodes>
        0 -1 40975 1.9157011061906815e-02</internalNodes>
      <leafValues>
        -3.8636362552642822e-01 4.7826087474822998e-01</leafValues></_>
    <_>
      <internalNodes>
        0 -1 13690 -3.7938314490020275e-03</internalNodes>
      <leafValues>
        3.0485695600509644e-01 -1.9661723077297211e-01</leafValues></_>
    <_>
      <internalNodes>
        0 -1 12595 -1.2011693324893713e-03</internalNodes>
      <leafValues>
        -6.5373456478118896e-01 1.0818966478109360e-01</leafValues></_>
    <_>
      <internalNodes>
        0 -1 50696 -1.2871921062469482e-01</internalNodes>
      <leafValues>
        -1. 7.7399112284183502e-02</leafValues></_>
    <_>
      <internalNodes>
        0 -1 34586 -4.6333074569702148e-02</internalNodes>
      <leafValues>
        3.6783435940742493e-01 -1.4795748889446259e-01</leafValues></_>
    <_>
      <internalNodes>
        0 -1 22775 3.0227994546294212e-02</internalNodes>
      <leafValues>
        -2.0123785734176636e-01 3.6234334111213684e-01</leafValues></_>
    <_>
      <internalNodes>
        0 -1 50536 -3.8884364068508148e-02</internalNodes>
      <leafValues>
        5.1157730817794800e-01 -8.6508266627788544e-02</leafValues></_>
    <_>
      <internalNodes>
        0 -1 38438 7.1674715727567673e-03</internalNodes>
      <leafValues>
        -1.1468644440174103e-01 4.4866141676902771e-01</leafValues></_>
    <_>
      <internalNodes>
        0 -1 6384 1.9941511563956738e-03</internalNodes>
      <leafValues>
        5.2621368318796158e-02 -9.6579152345657349e-01</leafValues></_>
    <_>
      <internalNodes>
        0 -1 77295 9.4821432139724493e-04</internalNodes>
      <leafValues>
        8.0591931939125061e-02 -5.4456019401550293e-01</leafValues></_>
    <_>
      <internalNodes>
        0 -1 54323 -1.5740368515253067e-02</internalNodes>
      <leafValues>
        -7.6383358240127563e-01 5.9280838817358017e-02</leafValues></_>
    <_>
      <internalNodes>
        0 -1 48999 2.6464303955435753e-03</internalNodes>
      <leafValues>
        -1.4923860132694244e-01 3.5468930006027222e-01</leafValues></_>
    <_>
      <internalNodes>
        0 -1 57617 3.0397668015211821e-03</internalNodes>
      <leafValues>
        -1.8786533176898956e-01 3.0697169899940491e-01</leafValues></_>
    <_>
      <internalNodes>
        0 -1 75239 2.8330022469162941e-03</internalNodes>
      <leafValues>
        8.9686557650566101e-02 -5.5366706848144531e-01</leafValues></_>
    <_>
      <internalNodes>
        0 -1 20904 3.9191142423078418e-04</internalNodes>
      <leafValues>
        -1.8965989351272583e-01 2.6443743705749512e-01</leafValues></_>
    <_>
      <internalNodes>
        0 -1 10675 1.3386321067810059e-01</internalNodes>
      <leafValues>
        -7.1678891777992249e-02 7.1388220787048340e-01</leafValues></_>
    <_>
      <internalNodes>
        0 -1 54293 1.7135743051767349e-02</internalNodes>
      <leafValues>
        -2.1500027179718018e-01 2.4413125216960907e-01</leafValues></_>
    <_>
      <internalNodes>
        0 -1 62367 8.8063260773196816e-04</internalNodes>
      <leafValues>
        1.2580622732639313e-01 -4.3392327427864075e-01</leafValues></_>
    <_>
      <internalNodes>
        0 -1 12605 -2.4630757980048656e-03</internalNodes>
      <leafValues>
        -5.9597897529602051e-01 8.1747539341449738e-02</leafValues></_></weakClassifiers></stage23>
</opencv_storage>
