<?xml version="1.0"?>
<opencv_storage>
<stage15>
  <maxWeakCount>15</maxWeakCount>
  <stageThreshold>-1.0953860282897949e+00</stageThreshold>
  <weakClassifiers>
    <_>
      <internalNodes>
        0 -1 68352 -8.1360060721635818e-03</internalNodes>
      <leafValues>
        4.6031746268272400e-01 -4.0611353516578674e-01</leafValues></_>
    <_>
      <internalNodes>
        0 -1 16612 -1.2611625716090202e-02</internalNodes>
      <leafValues>
        3.1812971830368042e-01 -2.6604866981506348e-01</leafValues></_>
    <_>
      <internalNodes>
        0 -1 62603 6.3954899087548256e-03</internalNodes>
      <leafValues>
        1.3899667561054230e-01 -6.9117325544357300e-01</leafValues></_>
    <_>
      <internalNodes>
        0 -1 40211 -1.1975599452853203e-02</internalNodes>
      <leafValues>
        -5.6829291582107544e-01 1.4347167313098907e-01</leafValues></_>
    <_>
      <internalNodes>
        0 -1 6095 5.7819974608719349e-03</internalNodes>
      <leafValues>
        9.5752455294132233e-02 -7.2341263294219971e-01</leafValues></_>
    <_>
      <internalNodes>
        0 -1 51477 -1.2515480630099773e-02</internalNodes>
      <leafValues>
        4.7465440630912781e-01 -1.7077983915805817e-01</leafValues></_>
    <_>
      <internalNodes>
        0 -1 76746 -3.6786817014217377e-02</internalNodes>
      <leafValues>
        -7.1289145946502686e-01 1.3409033417701721e-01</leafValues></_>
    <_>
      <internalNodes>
        0 -1 44423 2.5515872985124588e-02</internalNodes>
      <leafValues>
        -3.0142259597778320e-01 3.0706724524497986e-01</leafValues></_>
    <_>
      <internalNodes>
        0 -1 3987 -4.2803317308425903e-02</internalNodes>
      <leafValues>
        -8.2862967252731323e-01 8.7062165141105652e-02</leafValues></_>
    <_>
      <internalNodes>
        0 -1 15449 1.1034697527065873e-03</internalNodes>
      <leafValues>
        7.9228788614273071e-02 -6.3969296216964722e-01</leafValues></_>
    <_>
      <internalNodes>
        0 -1 51916 -2.0411968231201172e-02</internalNodes>
      <leafValues>
        6.9142317771911621e-01 -1.0139020532369614e-01</leafValues></_>
    <_>
      <internalNodes>
        0 -1 56460 -6.8936735391616821e-02</internalNodes>
      <leafValues>
        1.4051425457000732e-01 -5.1500099897384644e-01</leafValues></_>
    <_>
      <internalNodes>
        0 -1 73660 -1.4527639746665955e-01</internalNodes>
      <leafValues>
        -1.1713761091232300e-01 7.0454376935958862e-01</leafValues></_>
    <_>
      <internalNodes>
        0 -1 23036 5.9293445199728012e-02</internalNodes>
      <leafValues>
        8.1533946096897125e-02 -1.</leafValues></_>
    <_>
      <internalNodes>
        0 -1 57797 8.1695932894945145e-03</internalNodes>
      <leafValues>
        -1.4866033196449280e-01 5.9156513214111328e-01</leafValues></_></weakClassifiers></stage15>
</opencv_storage>
