<?xml version="1.0"?>
<opencv_storage>
<stage14>
  <maxWeakCount>17</maxWeakCount>
  <stageThreshold>-1.1976724863052368e+00</stageThreshold>
  <weakClassifiers>
    <_>
      <internalNodes>
        0 -1 36124 -2.6693467050790787e-02</internalNodes>
      <leafValues>
        5.6250000000000000e-01 -4.1690963506698608e-01</leafValues></_>
    <_>
      <internalNodes>
        0 -1 64957 -1.9744928926229477e-02</internalNodes>
      <leafValues>
        6.3233625888824463e-01 -1.9145689904689789e-01</leafValues></_>
    <_>
      <internalNodes>
        0 -1 78099 6.2609594315290451e-03</internalNodes>
      <leafValues>
        1.8865358829498291e-01 -5.8573907613754272e-01</leafValues></_>
    <_>
      <internalNodes>
        0 -1 35670 -1.7502002418041229e-02</internalNodes>
      <leafValues>
        5.2144390344619751e-01 -1.8250823020935059e-01</leafValues></_>
    <_>
      <internalNodes>
        0 -1 53604 2.0917281508445740e-02</internalNodes>
      <leafValues>
        -1.2269875407218933e-01 5.2664476633071899e-01</leafValues></_>
    <_>
      <internalNodes>
        0 -1 61648 -6.0377875342965126e-03</internalNodes>
      <leafValues>
        4.6366864442825317e-01 -2.1215128898620605e-01</leafValues></_>
    <_>
      <internalNodes>
        0 -1 78440 6.8895118311047554e-03</internalNodes>
      <leafValues>
        1.5158344805240631e-01 -7.5181418657302856e-01</leafValues></_>
    <_>
      <internalNodes>
        0 -1 11 5.2095726132392883e-03</internalNodes>
      <leafValues>
        8.1500127911567688e-02 -7.5971794128417969e-01</leafValues></_>
    <_>
      <internalNodes>
        0 -1 44498 -7.0822718553245068e-03</internalNodes>
      <leafValues>
        7.8393942117691040e-01 -1.0991679877042770e-01</leafValues></_>
    <_>
      <internalNodes>
        0 -1 78445 -3.0665164813399315e-03</internalNodes>
      <leafValues>
        -5.1703786849975586e-01 1.6029542684555054e-01</leafValues></_>
    <_>
      <internalNodes>
        0 -1 51709 -1.7701823264360428e-02</internalNodes>
      <leafValues>
        2.4948960542678833e-01 -3.1617859005928040e-01</leafValues></_>
    <_>
      <internalNodes>
        0 -1 36554 -2.2709280252456665e-02</internalNodes>
      <leafValues>
        7.7235990762710571e-01 -9.6432738006114960e-02</leafValues></_>
    <_>
      <internalNodes>
        0 -1 54006 6.8965028040111065e-03</internalNodes>
      <leafValues>
        -1.2547275424003601e-01 5.3372997045516968e-01</leafValues></_>
    <_>
      <internalNodes>
        0 -1 18868 2.4094933178275824e-03</internalNodes>
      <leafValues>
        1.5985502302646637e-01 -5.4271292686462402e-01</leafValues></_>
    <_>
      <internalNodes>
        0 -1 78108 1.4236851129680872e-03</internalNodes>
      <leafValues>
        9.2001117765903473e-02 -7.2484272718429565e-01</leafValues></_>
    <_>
      <internalNodes>
        0 -1 44122 1.0954199358820915e-02</internalNodes>
      <leafValues>
        -1.1503425240516663e-01 7.5737911462783813e-01</leafValues></_>
    <_>
      <internalNodes>
        0 -1 49023 1.0092180222272873e-02</internalNodes>
      <leafValues>
        -1.4280134439468384e-01 5.3488713502883911e-01</leafValues></_></weakClassifiers></stage14>
</opencv_storage>
