<?xml version="1.0"?>
<opencv_storage>
<stage26>
  <maxWeakCount>20</maxWeakCount>
  <stageThreshold>-1.0537033081054688e+00</stageThreshold>
  <weakClassifiers>
    <_>
      <internalNodes>
        0 -1 10710 -6.7029394209384918e-02</internalNodes>
      <leafValues>
        5.1851850748062134e-01 -3.9942529797554016e-01</leafValues></_>
    <_>
      <internalNodes>
        0 -1 41136 -6.7044226452708244e-03</internalNodes>
      <leafValues>
        3.7629124522209167e-01 -1.8000075221061707e-01</leafValues></_>
    <_>
      <internalNodes>
        0 -1 75158 2.5689851026982069e-03</internalNodes>
      <leafValues>
        1.0854867100715637e-01 -6.4917892217636108e-01</leafValues></_>
    <_>
      <internalNodes>
        0 -1 3871 -3.0775947961956263e-03</internalNodes>
      <leafValues>
        -9.1157948970794678e-01 9.0616032481193542e-02</leafValues></_>
    <_>
      <internalNodes>
        0 -1 38738 1.8343843519687653e-02</internalNodes>
      <leafValues>
        -9.5859766006469727e-02 5.5482476949691772e-01</leafValues></_>
    <_>
      <internalNodes>
        0 -1 54605 -2.4071574211120605e-02</internalNodes>
      <leafValues>
        -6.8590211868286133e-01 6.5630443394184113e-02</leafValues></_>
    <_>
      <internalNodes>
        0 -1 35138 -6.4488751813769341e-03</internalNodes>
      <leafValues>
        1.9459344446659088e-01 -2.6848724484443665e-01</leafValues></_>
    <_>
      <internalNodes>
        0 -1 63725 -8.8635105639696121e-03</internalNodes>
      <leafValues>
        1.7652446031570435e-01 -3.0117711424827576e-01</leafValues></_>
    <_>
      <internalNodes>
        0 -1 45482 -2.2455158829689026e-01</internalNodes>
      <leafValues>
        -9.3307101726531982e-01 6.9147147238254547e-02</leafValues></_>
    <_>
      <internalNodes>
        0 -1 53547 8.0341119319200516e-03</internalNodes>
      <leafValues>
        -1.5094631910324097e-01 4.5110395550727844e-01</leafValues></_>
    <_>
      <internalNodes>
        0 -1 505 1.2640953063964844e-01</internalNodes>
      <leafValues>
        6.6375069320201874e-02 -9.6167820692062378e-01</leafValues></_>
    <_>
      <internalNodes>
        0 -1 66725 3.0122241005301476e-02</internalNodes>
      <leafValues>
        -1.2956589460372925e-01 4.4719034433364868e-01</leafValues></_>
    <_>
      <internalNodes>
        0 -1 22877 5.9055183082818985e-03</internalNodes>
      <leafValues>
        -1.5435712039470673e-01 3.3440193533897400e-01</leafValues></_>
    <_>
      <internalNodes>
        0 -1 46925 -1.9275400787591934e-02</internalNodes>
      <leafValues>
        8.1931650638580322e-02 -6.4997804164886475e-01</leafValues></_>
    <_>
      <internalNodes>
        0 -1 66030 -9.5952703850343823e-04</internalNodes>
      <leafValues>
        -4.5327398180961609e-01 1.1349394917488098e-01</leafValues></_>
    <_>
      <internalNodes>
        0 -1 21310 1.8258747877553105e-04</internalNodes>
      <leafValues>
        -1.8532238900661469e-01 3.0896562337875366e-01</leafValues></_>
    <_>
      <internalNodes>
        0 -1 6074 2.0575274247676134e-03</internalNodes>
      <leafValues>
        1.2211848050355911e-01 -4.7030997276306152e-01</leafValues></_>
    <_>
      <internalNodes>
        0 -1 33670 -6.3215233385562897e-03</internalNodes>
      <leafValues>
        4.0991079807281494e-01 -1.2710528075695038e-01</leafValues></_>
    <_>
      <internalNodes>
        0 -1 8069 -1.3805110007524490e-02</internalNodes>
      <leafValues>
        3.9165902137756348e-01 -1.4365242421627045e-01</leafValues></_>
    <_>
      <internalNodes>
        0 -1 71278 -3.9366660639643669e-03</internalNodes>
      <leafValues>
        -4.3531009554862976e-01 1.3978496193885803e-01</leafValues></_></weakClassifiers></stage26>
</opencv_storage>
