<?xml version="1.0"?>
<opencv_storage>
<stage4>
  <maxWeakCount>9</maxWeakCount>
  <stageThreshold>-1.4967972040176392e+00</stageThreshold>
  <weakClassifiers>
    <_>
      <internalNodes>
        0 -1 60845 -2.5843214243650436e-02</internalNodes>
      <leafValues>
        4.5985400676727295e-01 -5.1060360670089722e-01</leafValues></_>
    <_>
      <internalNodes>
        0 -1 1277 1.9129186868667603e-01</internalNodes>
      <leafValues>
        1.1960438638925552e-01 -8.6172246932983398e-01</leafValues></_>
    <_>
      <internalNodes>
        0 -1 77623 1.5163349453359842e-03</internalNodes>
      <leafValues>
        1.2835910916328430e-01 -8.2395219802856445e-01</leafValues></_>
    <_>
      <internalNodes>
        0 -1 35685 -1.7712494358420372e-02</internalNodes>
      <leafValues>
        7.0732164382934570e-01 -2.1953730285167694e-01</leafValues></_>
    <_>
      <internalNodes>
        0 -1 4411 5.3626289591193199e-03</internalNodes>
      <leafValues>
        2.0403213798999786e-01 -7.3782199621200562e-01</leafValues></_>
    <_>
      <internalNodes>
        0 -1 5304 1.2227175757288933e-03</internalNodes>
      <leafValues>
        1.5022276341915131e-01 -7.9923075437545776e-01</leafValues></_>
    <_>
      <internalNodes>
        0 -1 1283 -2.5460743904113770e-01</internalNodes>
      <leafValues>
        -8.4574210643768311e-01 1.5031862258911133e-01</leafValues></_>
    <_>
      <internalNodes>
        0 -1 5694 1.7458782531321049e-03</internalNodes>
      <leafValues>
        1.4530269801616669e-01 -7.9076892137527466e-01</leafValues></_>
    <_>
      <internalNodes>
        0 -1 7752 -3.6547353956848383e-03</internalNodes>
      <leafValues>
        -7.2264188528060913e-01 1.6056266427040100e-01</leafValues></_></weakClassifiers></stage4>
</opencv_storage>
