<?xml version="1.0"?>
<opencv_storage>
<stage6>
  <maxWeakCount>7</maxWeakCount>
  <stageThreshold>-8.1108713150024414e-01</stageThreshold>
  <weakClassifiers>
    <_>
      <internalNodes>
        0 -1 59830 -3.5685020685195923e-01</internalNodes>
      <leafValues>
        -6.8949770927429199e-01 1.6666667163372040e-01</leafValues></_>
    <_>
      <internalNodes>
        0 -1 5305 -1.7098070820793509e-03</internalNodes>
      <leafValues>
        -8.6698001623153687e-01 1.0500089079141617e-01</leafValues></_>
    <_>
      <internalNodes>
        0 -1 802 3.6578108556568623e-03</internalNodes>
      <leafValues>
        1.1710812151432037e-01 -9.4891095161437988e-01</leafValues></_>
    <_>
      <internalNodes>
        0 -1 34179 -2.0849572028964758e-03</internalNodes>
      <leafValues>
        -6.4529883861541748e-01 1.2759207189083099e-01</leafValues></_>
    <_>
      <internalNodes>
        0 -1 76646 -3.2950686290860176e-03</internalNodes>
      <leafValues>
        -6.3232588768005371e-01 1.7834353446960449e-01</leafValues></_>
    <_>
      <internalNodes>
        0 -1 72449 -1.0953659191727638e-02</internalNodes>
      <leafValues>
        -7.5639384984970093e-01 1.3317710161209106e-01</leafValues></_>
    <_>
      <internalNodes>
        0 -1 11526 -6.6734207794070244e-03</internalNodes>
      <leafValues>
        -5.6249266862869263e-01 1.8916977941989899e-01</leafValues></_></weakClassifiers></stage6>
</opencv_storage>
