<?xml version="1.0"?>
<opencv_storage>
<cascade>
  <stageType>BOOST</stageType>
  <featureType>HAAR</featureType>
  <height>20</height>
  <width>20</width>
  <stageParams>
    <boostType>GAB</boostType>
    <minHitRate>9.9500000476837158e-01</minHitRate>
    <maxFalseAlarm>5.0000000000000000e-01</maxFalseAlarm>
    <weightTrimRate>9.4999999999999996e-01</weightTrimRate>
    <maxDepth>1</maxDepth>
    <maxWeakCount>100</maxWeakCount></stageParams>
  <featureParams>
    <maxCatCount>0</maxCatCount>
    <featSize>1</featSize>
    <mode>BASIC</mode></featureParams>
  <stageNum>30</stageNum>
  <stages>
    <!-- stage 0 -->
    <_>
      <maxWeakCount>4</maxWeakCount>
      <stageThreshold>-1.5249539613723755e+00</stageThreshold>
      <weakClassifiers>
        <_>
          <internalNodes>
            0 -1 285 -1.5994808077812195e-01</internalNodes>
          <leafValues>
            -8.5407727956771851e-01 5.2112674713134766e-01</leafValues></_>
        <_>
          <internalNodes>
            0 -1 258 -3.8079719990491867e-02</internalNodes>
          <leafValues>
            7.9453235864639282e-01 -3.7992170453071594e-01</leafValues></_>
        <_>
          <internalNodes>
            0 -1 54 1.4526729937642813e-03</internalNodes>
          <leafValues>
            2.5469982624053955e-01 -8.7886834144592285e-01</leafValues></_>
        <_>
          <internalNodes>
            0 -1 64 -2.1854029037058353e-03</internalNodes>
          <leafValues>
            -7.8729069232940674e-01 2.7538385987281799e-01</leafValues></_></weakClassifiers></_>
    <!-- stage 1 -->
    <_>
      <maxWeakCount>6</maxWeakCount>
      <stageThreshold>-1.3934170007705688e+00</stageThreshold>
      <weakClassifiers>
        <_>
          <internalNodes>
            0 -1 147 -3.9369767904281616e-01</internalNodes>
          <leafValues>
            -8.5948479175567627e-01 3.6222910881042480e-01</leafValues></_>
        <_>
          <internalNodes>
            0 -1 38 -6.2610983848571777e-02</internalNodes>
          <leafValues>
            6.5164750814437866e-01 -3.8361242413520813e-01</leafValues></_>
        <_>
          <internalNodes>
            0 -1 89 -1.2109731324017048e-03</internalNodes>
          <leafValues>
            -8.2886290550231934e-01 2.3454965651035309e-01</leafValues></_>
        <_>
          <internalNodes>
            0 -1 351 -1.5212716534733772e-03</internalNodes>
          <leafValues>
            -7.8466194868087769e-01 2.3371659219264984e-01</leafValues></_>
        <_>
          <internalNodes>
            0 -1 48 -1.5305168926715851e-03</internalNodes>
          <leafValues>
            -7.8673988580703735e-01 1.8223425745964050e-01</leafValues></_>
        <_>
          <internalNodes>
            0 -1 50 -1.5740147791802883e-03</internalNodes>
          <leafValues>
            -8.0082029104232788e-01 2.0721651613712311e-01</leafValues></_></weakClassifiers></_>
    <!-- stage 2 -->
    <_>
      <maxWeakCount>6</maxWeakCount>
      <stageThreshold>-9.9136984348297119e-01</stageThreshold>
      <weakClassifiers>
        <_>
          <internalNodes>
            0 -1 273 -1.9714325666427612e-01</internalNodes>
          <leafValues>
            -7.6359337568283081e-01 2.2324159741401672e-01</leafValues></_>
        <_>
          <internalNodes>
            0 -1 55 1.8597510643303394e-03</internalNodes>
          <leafValues>
            1.5289677679538727e-01 -7.0717954635620117e-01</leafValues></_>
        <_>
          <internalNodes>
            0 -1 379 3.7048552185297012e-03</internalNodes>
          <leafValues>
            1.5946803987026215e-01 -8.6223644018173218e-01</leafValues></_>
        <_>
          <internalNodes>
            0 -1 378 -5.1098112016916275e-03</internalNodes>
          <leafValues>
            -8.4806406497955322e-01 2.3634606599807739e-01</leafValues></_>
        <_>
          <internalNodes>
            0 -1 103 2.2570884320884943e-03</internalNodes>
          <leafValues>
            1.1846017837524414e-01 -8.6118656396865845e-01</leafValues></_>
        <_>
          <internalNodes>
            0 -1 68 1.0599641827866435e-03</internalNodes>
          <leafValues>
            1.8946264684200287e-01 -7.4160557985305786e-01</leafValues></_></weakClassifiers></_>
    <!-- stage 3 -->
    <_>
      <maxWeakCount>7</maxWeakCount>
      <stageThreshold>-8.4839898347854614e-01</stageThreshold>
      <weakClassifiers>
        <_>
          <internalNodes>
            0 -1 181 -1.0068204998970032e-01</internalNodes>
          <leafValues>
            -9.1489362716674805e-01 -6.7961163818836212e-02</leafValues></_>
        <_>
          <internalNodes>
            0 -1 198 -1.1867308616638184e-01</internalNodes>
          <leafValues>
            6.1076855659484863e-01 -3.2521909475326538e-01</leafValues></_>
        <_>
          <internalNodes>
            0 -1 369 -2.8986283577978611e-03</internalNodes>
          <leafValues>
            -7.8141611814498901e-01 2.2301568090915680e-01</leafValues></_>
        <_>
          <internalNodes>
            0 -1 373 1.3513659359887242e-03</internalNodes>
          <leafValues>
            2.1694839000701904e-01 -6.8058878183364868e-01</leafValues></_>
        <_>
          <internalNodes>
            0 -1 138 -2.8479581698775291e-02</internalNodes>
          <leafValues>
            6.7615145444869995e-01 -2.3726944625377655e-01</leafValues></_>
        <_>
          <internalNodes>
            0 -1 81 -2.0112209022045135e-03</internalNodes>
          <leafValues>
            -8.0133545398712158e-01 1.9462814927101135e-01</leafValues></_>
        <_>
          <internalNodes>
            0 -1 77 3.3212190028280020e-03</internalNodes>
          <leafValues>
            1.5189032256603241e-01 -8.4893500804901123e-01</leafValues></_></weakClassifiers></_>
    <!-- stage 4 -->
    <_>
      <maxWeakCount>9</maxWeakCount>
      <stageThreshold>-1.4967972040176392e+00</stageThreshold>
      <weakClassifiers>
        <_>
          <internalNodes>
            0 -1 289 -2.5843214243650436e-02</internalNodes>
          <leafValues>
            4.5985400676727295e-01 -5.1060360670089722e-01</leafValues></_>
        <_>
          <internalNodes>
            0 -1 12 1.9129186868667603e-01</internalNodes>
          <leafValues>
            1.1960438638925552e-01 -8.6172246932983398e-01</leafValues></_>
        <_>
          <internalNodes>
            0 -1 367 1.5163349453359842e-03</internalNodes>
          <leafValues>
            1.2835910916328430e-01 -8.2395219802856445e-01</leafValues></_>
        <_>
          <internalNodes>
            0 -1 171 -1.7712494358420372e-02</internalNodes>
          <leafValues>
            7.0732164382934570e-01 -2.1953730285167694e-01</leafValues></_>
        <_>
          <internalNodes>
            0 -1 30 5.3626289591193199e-03</internalNodes>
          <leafValues>
            2.0403213798999786e-01 -7.3782199621200562e-01</leafValues></_>
        <_>
          <internalNodes>
            0 -1 32 1.2227175757288933e-03</internalNodes>
          <leafValues>
            1.5022276341915131e-01 -7.9923075437545776e-01</leafValues></_>
        <_>
          <internalNodes>
            0 -1 13 -2.5460743904113770e-01</internalNodes>
          <leafValues>
            -8.4574210643768311e-01 1.5031862258911133e-01</leafValues></_>
        <_>
          <internalNodes>
            0 -1 34 1.7458782531321049e-03</internalNodes>
          <leafValues>
            1.4530269801616669e-01 -7.9076892137527466e-01</leafValues></_>
        <_>
          <internalNodes>
            0 -1 58 -3.6547353956848383e-03</internalNodes>
          <leafValues>
            -7.2264188528060913e-01 1.6056266427040100e-01</leafValues></_></weakClassifiers></_>
    <!-- stage 5 -->
    <_>
      <maxWeakCount>8</maxWeakCount>
      <stageThreshold>-1.3405528068542480e+00</stageThreshold>
      <weakClassifiers>
        <_>
          <internalNodes>
            0 -1 207 -8.3782359957695007e-02</internalNodes>
          <leafValues>
            5.0413221120834351e-01 -4.9443560838699341e-01</leafValues></_>
        <_>
          <internalNodes>
            0 -1 97 -2.4243401363492012e-02</internalNodes>
          <leafValues>
            8.2547467947006226e-01 -1.8306420743465424e-01</leafValues></_>
        <_>
          <internalNodes>
            0 -1 120 -1.9021425396203995e-02</internalNodes>
          <leafValues>
            7.0417612791061401e-01 -1.7580063641071320e-01</leafValues></_>
        <_>
          <internalNodes>
            0 -1 360 2.0871572196483612e-03</internalNodes>
          <leafValues>
            1.7050796747207642e-01 -7.3544430732727051e-01</leafValues></_>
        <_>
          <internalNodes>
            0 -1 87 2.3451317101716995e-02</internalNodes>
          <leafValues>
            1.8165896832942963e-01 -7.2604805231094360e-01</leafValues></_>
        <_>
          <internalNodes>
            0 -1 83 -2.2303611040115356e-03</internalNodes>
          <leafValues>
            -7.6034802198410034e-01 1.3947795331478119e-01</leafValues></_>
        <_>
          <internalNodes>
            0 -1 8 -1.9965774845331907e-03</internalNodes>
          <leafValues>
            -6.9628077745437622e-01 1.6271516680717468e-01</leafValues></_>
        <_>
          <internalNodes>
            0 -1 292 3.4430298954248428e-02</internalNodes>
          <leafValues>
            -2.8261643648147583e-01 4.3189638853073120e-01</leafValues></_></weakClassifiers></_>
    <!-- stage 6 -->
    <_>
      <maxWeakCount>7</maxWeakCount>
      <stageThreshold>-8.1108713150024414e-01</stageThreshold>
      <weakClassifiers>
        <_>
          <internalNodes>
            0 -1 282 -3.5685020685195923e-01</internalNodes>
          <leafValues>
            -6.8949770927429199e-01 1.6666667163372040e-01</leafValues></_>
        <_>
          <internalNodes>
            0 -1 33 -1.7098070820793509e-03</internalNodes>
          <leafValues>
            -8.6698001623153687e-01 1.0500089079141617e-01</leafValues></_>
        <_>
          <internalNodes>
            0 -1 10 3.6578108556568623e-03</internalNodes>
          <leafValues>
            1.1710812151432037e-01 -9.4891095161437988e-01</leafValues></_>
        <_>
          <internalNodes>
            0 -1 158 -2.0849572028964758e-03</internalNodes>
          <leafValues>
            -6.4529883861541748e-01 1.2759207189083099e-01</leafValues></_>
        <_>
          <internalNodes>
            0 -1 358 -3.2950686290860176e-03</internalNodes>
          <leafValues>
            -6.3232588768005371e-01 1.7834353446960449e-01</leafValues></_>
        <_>
          <internalNodes>
            0 -1 340 -1.0953659191727638e-02</internalNodes>
          <leafValues>
            -7.5639384984970093e-01 1.3317710161209106e-01</leafValues></_>
        <_>
          <internalNodes>
            0 -1 76 -6.6734207794070244e-03</internalNodes>
          <leafValues>
            -5.6249266862869263e-01 1.8916977941989899e-01</leafValues></_></weakClassifiers></_>
    <!-- stage 7 -->
    <_>
      <maxWeakCount>4</maxWeakCount>
      <stageThreshold>-9.3762022256851196e-01</stageThreshold>
      <weakClassifiers>
        <_>
          <internalNodes>
            0 -1 44 -3.9434589445590973e-02</internalNodes>
          <leafValues>
            5.6756758689880371e-01 -4.8982784152030945e-01</leafValues></_>
        <_>
          <internalNodes>
            0 -1 390 -8.2087114453315735e-02</internalNodes>
          <leafValues>
            -9.6270805597305298e-01 1.7854447662830353e-01</leafValues></_>
        <_>
          <internalNodes>
            0 -1 7 -5.2553826570510864e-01</internalNodes>
          <leafValues>
            -9.8902231454849243e-01 9.8725825548171997e-02</leafValues></_>
        <_>
          <internalNodes>
            0 -1 284 -2.2057604044675827e-02</internalNodes>
          <leafValues>
            2.0905509591102600e-01 -7.2506266832351685e-01</leafValues></_></weakClassifiers></_>
    <!-- stage 8 -->
    <_>
      <maxWeakCount>6</maxWeakCount>
      <stageThreshold>-8.6840748786926270e-01</stageThreshold>
      <weakClassifiers>
        <_>
          <internalNodes>
            0 -1 229 -6.6016459465026855e-01</internalNodes>
          <leafValues>
            6.4444446563720703e-01 -5.4796749353408813e-01</leafValues></_>
        <_>
          <internalNodes>
            0 -1 198 -9.5042273402214050e-02</internalNodes>
          <leafValues>
            5.6964391469955444e-01 -3.4038951992988586e-01</leafValues></_>
        <_>
          <internalNodes>
            0 -1 387 -2.6497109793126583e-03</internalNodes>
          <leafValues>
            -9.5368468761444092e-01 1.1007885634899139e-01</leafValues></_>
        <_>
          <internalNodes>
            0 -1 200 -1.1763080954551697e-01</internalNodes>
          <leafValues>
            1.7396588623523712e-01 -7.8379362821578979e-01</leafValues></_>
        <_>
          <internalNodes>
            0 -1 108 -2.6840833015739918e-03</internalNodes>
          <leafValues>
            -8.5009223222732544e-01 1.4393828809261322e-01</leafValues></_>
        <_>
          <internalNodes>
            0 -1 139 -1.4996525831520557e-02</internalNodes>
          <leafValues>
            5.4972600936889648e-01 -2.6264330744743347e-01</leafValues></_></weakClassifiers></_>
    <!-- stage 9 -->
    <_>
      <maxWeakCount>8</maxWeakCount>
      <stageThreshold>-1.2976882457733154e+00</stageThreshold>
      <weakClassifiers>
        <_>
          <internalNodes>
            0 -1 286 -5.0331652164459229e-01</internalNodes>
          <leafValues>
            4.2446044087409973e-01 -5.0572830438613892e-01</leafValues></_>
        <_>
          <internalNodes>
            0 -1 350 -2.6537531521171331e-03</internalNodes>
          <leafValues>
            -8.4090769290924072e-01 1.0830020159482956e-01</leafValues></_>
        <_>
          <internalNodes>
            0 -1 14 1.3665126636624336e-02</internalNodes>
          <leafValues>
            1.5380606055259705e-01 -8.7114936113357544e-01</leafValues></_>
        <_>
          <internalNodes>
            0 -1 42 2.2532232105731964e-03</internalNodes>
          <leafValues>
            1.4404736459255219e-01 -7.6095366477966309e-01</leafValues></_>
        <_>
          <internalNodes>
            0 -1 2 -4.0463460609316826e-03</internalNodes>
          <leafValues>
            -6.5889960527420044e-01 1.1254975944757462e-01</leafValues></_>
        <_>
          <internalNodes>
            0 -1 374 -2.3183356970548630e-02</internalNodes>
          <leafValues>
            -8.0658173561096191e-01 1.5303377807140350e-01</leafValues></_>
        <_>
          <internalNodes>
            0 -1 370 1.3923620805144310e-02</internalNodes>
          <leafValues>
            1.4077351987361908e-01 -7.2622025012969971e-01</leafValues></_>
        <_>
          <internalNodes>
            0 -1 389 -1.2372929602861404e-02</internalNodes>
          <leafValues>
            -7.7850729227066040e-01 1.2659421563148499e-01</leafValues></_></weakClassifiers></_>
    <!-- stage 10 -->
    <_>
      <maxWeakCount>10</maxWeakCount>
      <stageThreshold>-9.7152405977249146e-01</stageThreshold>
      <weakClassifiers>
        <_>
          <internalNodes>
            0 -1 203 -2.3533519357442856e-02</internalNodes>
          <leafValues>
            6.0000002384185791e-01 -4.2189779877662659e-01</leafValues></_>
        <_>
          <internalNodes>
            0 -1 264 3.4580487757921219e-02</internalNodes>
          <leafValues>
            -3.2037127017974854e-01 3.2967001199722290e-01</leafValues></_>
        <_>
          <internalNodes>
            0 -1 388 1.2693341821432114e-02</internalNodes>
          <leafValues>
            1.5771998465061188e-01 -7.9239416122436523e-01</leafValues></_>
        <_>
          <internalNodes>
            0 -1 107 8.4448829293251038e-03</internalNodes>
          <leafValues>
            1.4756514132022858e-01 -7.1414905786514282e-01</leafValues></_>
        <_>
          <internalNodes>
            0 -1 91 -2.3985384404659271e-01</internalNodes>
          <leafValues>
            -8.8545131683349609e-01 1.1570554971694946e-01</leafValues></_>
        <_>
          <internalNodes>
            0 -1 5 2.5589042901992798e-01</internalNodes>
          <leafValues>
            7.6761379837989807e-02 -8.9065897464752197e-01</leafValues></_>
        <_>
          <internalNodes>
            0 -1 359 1.5815808437764645e-03</internalNodes>
          <leafValues>
            1.0987006127834320e-01 -8.1871277093887329e-01</leafValues></_>
        <_>
          <internalNodes>
            0 -1 26 -5.0445059314370155e-03</internalNodes>
          <leafValues>
            -7.4208617210388184e-01 1.3627389073371887e-01</leafValues></_>
        <_>
          <internalNodes>
            0 -1 368 -3.2452573068439960e-03</internalNodes>
          <leafValues>
            -7.9228276014328003e-01 1.3181404769420624e-01</leafValues></_>
        <_>
          <internalNodes>
            0 -1 382 -3.3765817061066628e-03</internalNodes>
          <leafValues>
            -8.8574737310409546e-01 7.3467873036861420e-02</leafValues></_></weakClassifiers></_>
    <!-- stage 11 -->
    <_>
      <maxWeakCount>10</maxWeakCount>
      <stageThreshold>-8.6772990226745605e-01</stageThreshold>
      <weakClassifiers>
        <_>
          <internalNodes>
            0 -1 61 -4.5336100459098816e-01</internalNodes>
          <leafValues>
            4.3283581733703613e-01 -5.0000000000000000e-01</leafValues></_>
        <_>
          <internalNodes>
            0 -1 47 1.9758134149014950e-03</internalNodes>
          <leafValues>
            1.2092936784029007e-01 -6.7028743028640747e-01</leafValues></_>
        <_>
          <internalNodes>
            0 -1 85 -3.1112011056393385e-03</internalNodes>
          <leafValues>
            -8.6923205852508545e-01 8.3529315888881683e-02</leafValues></_>
        <_>
          <internalNodes>
            0 -1 320 3.2605808228254318e-02</internalNodes>
          <leafValues>
            -2.2106145322322845e-01 4.3521398305892944e-01</leafValues></_>
        <_>
          <internalNodes>
            0 -1 75 1.8432967364788055e-02</internalNodes>
          <leafValues>
            1.1643815040588379e-01 -7.2078716754913330e-01</leafValues></_>
        <_>
          <internalNodes>
            0 -1 185 3.0375309288501740e-02</internalNodes>
          <leafValues>
            -1.2547059357166290e-01 8.2534980773925781e-01</leafValues></_>
        <_>
          <internalNodes>
            0 -1 251 -8.9766219258308411e-02</internalNodes>
          <leafValues>
            4.0992018580436707e-01 -2.4555061757564545e-01</leafValues></_>
        <_>
          <internalNodes>
            0 -1 144 -3.2296210527420044e-01</internalNodes>
          <leafValues>
            -8.5047429800033569e-01 1.3627170026302338e-01</leafValues></_>
        <_>
          <internalNodes>
            0 -1 56 -3.3006821759045124e-03</internalNodes>
          <leafValues>
            -8.5887867212295532e-01 7.5975373387336731e-02</leafValues></_>
        <_>
          <internalNodes>
            0 -1 57 -3.0923167243599892e-02</internalNodes>
          <leafValues>
            -6.6777598857879639e-01 1.1624225974082947e-01</leafValues></_></weakClassifiers></_>
    <!-- stage 12 -->
    <_>
      <maxWeakCount>8</maxWeakCount>
      <stageThreshold>-1.0324665307998657e+00</stageThreshold>
      <weakClassifiers>
        <_>
          <internalNodes>
            0 -1 295 5.5451534688472748e-02</internalNodes>
          <leafValues>
            -4.7249191999435425e-01 3.1818181276321411e-01</leafValues></_>
        <_>
          <internalNodes>
            0 -1 22 9.1489832848310471e-03</internalNodes>
          <leafValues>
            1.6983503103256226e-01 -6.4284592866897583e-01</leafValues></_>
        <_>
          <internalNodes>
            0 -1 167 -8.0462116748094559e-03</internalNodes>
          <leafValues>
            3.3206796646118164e-01 -3.2303133606910706e-01</leafValues></_>
        <_>
          <internalNodes>
            0 -1 51 3.5510347224771976e-03</internalNodes>
          <leafValues>
            2.3444849252700806e-01 -5.8344328403472900e-01</leafValues></_>
        <_>
          <internalNodes>
            0 -1 385 6.2856567092239857e-03</internalNodes>
          <leafValues>
            1.2018740922212601e-01 -7.1181547641754150e-01</leafValues></_>
        <_>
          <internalNodes>
            0 -1 371 2.4066554382443428e-02</internalNodes>
          <leafValues>
            1.4254426956176758e-01 -7.3669987916946411e-01</leafValues></_>
        <_>
          <internalNodes>
            0 -1 2 -4.0528085082769394e-03</internalNodes>
          <leafValues>
            -6.8553578853607178e-01 1.1520302295684814e-01</leafValues></_>
        <_>
          <internalNodes>
            0 -1 262 2.8949884697794914e-02</internalNodes>
          <leafValues>
            -1.3991737365722656e-01 8.2161635160446167e-01</leafValues></_></weakClassifiers></_>
    <!-- stage 13 -->
    <_>
      <maxWeakCount>12</maxWeakCount>
      <stageThreshold>-1.0048984289169312e+00</stageThreshold>
      <weakClassifiers>
        <_>
          <internalNodes>
            0 -1 209 -3.4560978412628174e-02</internalNodes>
          <leafValues>
            6.0655736923217773e-01 -4.1654571890830994e-01</leafValues></_>
        <_>
          <internalNodes>
            0 -1 18 -2.5193682312965393e-01</internalNodes>
          <leafValues>
            -9.2528951168060303e-01 6.3868477940559387e-02</leafValues></_>
        <_>
          <internalNodes>
            0 -1 159 1.3454249128699303e-02</internalNodes>
          <leafValues>
            1.8897743523120880e-01 -7.5172692537307739e-01</leafValues></_>
        <_>
          <internalNodes>
            0 -1 110 -4.9617304466664791e-03</internalNodes>
          <leafValues>
            -5.0957357883453369e-01 1.3967017829418182e-01</leafValues></_>
        <_>
          <internalNodes>
            0 -1 4 1.7609018087387085e-01</internalNodes>
          <leafValues>
            1.2526553869247437e-01 -9.4212448596954346e-01</leafValues></_>
        <_>
          <internalNodes>
            0 -1 31 -3.6694242153316736e-03</internalNodes>
          <leafValues>
            -8.0922687053680420e-01 8.1885978579521179e-02</leafValues></_>
        <_>
          <internalNodes>
            0 -1 183 5.8961227536201477e-02</internalNodes>
          <leafValues>
            -1.5972392261028290e-01 7.6412749290466309e-01</leafValues></_>
        <_>
          <internalNodes>
            0 -1 366 -1.1382391676306725e-03</internalNodes>
          <leafValues>
            -6.0001820325851440e-01 2.0224861800670624e-01</leafValues></_>
        <_>
          <internalNodes>
            0 -1 15 -1.0128051973879337e-02</internalNodes>
          <leafValues>
            3.7766909599304199e-01 -2.4313005805015564e-01</leafValues></_>
        <_>
          <internalNodes>
            0 -1 344 -3.9367317222058773e-03</internalNodes>
          <leafValues>
            -7.6759320497512817e-01 1.2797653675079346e-01</leafValues></_>
        <_>
          <internalNodes>
            0 -1 304 7.6745636761188507e-02</internalNodes>
          <leafValues>
            -1.9626662135124207e-01 5.6091320514678955e-01</leafValues></_>
        <_>
          <internalNodes>
            0 -1 127 3.7775388918817043e-03</internalNodes>
          <leafValues>
            1.5996940433979034e-01 -5.8382755517959595e-01</leafValues></_></weakClassifiers></_>
    <!-- stage 14 -->
    <_>
      <maxWeakCount>17</maxWeakCount>
      <stageThreshold>-1.1976724863052368e+00</stageThreshold>
      <weakClassifiers>
        <_>
          <internalNodes>
            0 -1 173 -2.6693467050790787e-02</internalNodes>
          <leafValues>
            5.6250000000000000e-01 -4.1690963506698608e-01</leafValues></_>
        <_>
          <internalNodes>
            0 -1 309 -1.9744928926229477e-02</internalNodes>
          <leafValues>
            6.3233625888824463e-01 -1.9145689904689789e-01</leafValues></_>
        <_>
          <internalNodes>
            0 -1 380 6.2609594315290451e-03</internalNodes>
          <leafValues>
            1.8865358829498291e-01 -5.8573907613754272e-01</leafValues></_>
        <_>
          <internalNodes>
            0 -1 169 -1.7502002418041229e-02</internalNodes>
          <leafValues>
            5.2144390344619751e-01 -1.8250823020935059e-01</leafValues></_>
        <_>
          <internalNodes>
            0 -1 261 2.0917281508445740e-02</internalNodes>
          <leafValues>
            -1.2269875407218933e-01 5.2664476633071899e-01</leafValues></_>
        <_>
          <internalNodes>
            0 -1 293 -6.0377875342965126e-03</internalNodes>
          <leafValues>
            4.6366864442825317e-01 -2.1215128898620605e-01</leafValues></_>
        <_>
          <internalNodes>
            0 -1 392 6.8895118311047554e-03</internalNodes>
          <leafValues>
            1.5158344805240631e-01 -7.5181418657302856e-01</leafValues></_>
        <_>
          <internalNodes>
            0 -1 0 5.2095726132392883e-03</internalNodes>
          <leafValues>
            8.1500127911567688e-02 -7.5971794128417969e-01</leafValues></_>
        <_>
          <internalNodes>
            0 -1 214 -7.0822718553245068e-03</internalNodes>
          <leafValues>
            7.8393942117691040e-01 -1.0991679877042770e-01</leafValues></_>
        <_>
          <internalNodes>
            0 -1 393 -3.0665164813399315e-03</internalNodes>
          <leafValues>
            -5.1703786849975586e-01 1.6029542684555054e-01</leafValues></_>
        <_>
          <internalNodes>
            0 -1 249 -1.7701823264360428e-02</internalNodes>
          <leafValues>
            2.4948960542678833e-01 -3.1617859005928040e-01</leafValues></_>
        <_>
          <internalNodes>
            0 -1 178 -2.2709280252456665e-02</internalNodes>
          <leafValues>
            7.7235990762710571e-01 -9.6432738006114960e-02</leafValues></_>
        <_>
          <internalNodes>
            0 -1 265 6.8965028040111065e-03</internalNodes>
          <leafValues>
            -1.2547275424003601e-01 5.3372997045516968e-01</leafValues></_>
        <_>
          <internalNodes>
            0 -1 101 2.4094933178275824e-03</internalNodes>
          <leafValues>
            1.5985502302646637e-01 -5.4271292686462402e-01</leafValues></_>
        <_>
          <internalNodes>
            0 -1 381 1.4236851129680872e-03</internalNodes>
          <leafValues>
            9.2001117765903473e-02 -7.2484272718429565e-01</leafValues></_>
        <_>
          <internalNodes>
            0 -1 211 1.0954199358820915e-02</internalNodes>
          <leafValues>
            -1.1503425240516663e-01 7.5737911462783813e-01</leafValues></_>
        <_>
          <internalNodes>
            0 -1 231 1.0092180222272873e-02</internalNodes>
          <leafValues>
            -1.4280134439468384e-01 5.3488713502883911e-01</leafValues></_></weakClassifiers></_>
    <!-- stage 15 -->
    <_>
      <maxWeakCount>15</maxWeakCount>
      <stageThreshold>-1.0953860282897949e+00</stageThreshold>
      <weakClassifiers>
        <_>
          <internalNodes>
            0 -1 327 -8.1360060721635818e-03</internalNodes>
          <leafValues>
            4.6031746268272400e-01 -4.0611353516578674e-01</leafValues></_>
        <_>
          <internalNodes>
            0 -1 95 -1.2611625716090202e-02</internalNodes>
          <leafValues>
            3.1812971830368042e-01 -2.6604866981506348e-01</leafValues></_>
        <_>
          <internalNodes>
            0 -1 303 6.3954899087548256e-03</internalNodes>
          <leafValues>
            1.3899667561054230e-01 -6.9117325544357300e-01</leafValues></_>
        <_>
          <internalNodes>
            0 -1 194 -1.1975599452853203e-02</internalNodes>
          <leafValues>
            -5.6829291582107544e-01 1.4347167313098907e-01</leafValues></_>
        <_>
          <internalNodes>
            0 -1 37 5.7819974608719349e-03</internalNodes>
          <leafValues>
            9.5752455294132233e-02 -7.2341263294219971e-01</leafValues></_>
        <_>
          <internalNodes>
            0 -1 247 -1.2515480630099773e-02</internalNodes>
          <leafValues>
            4.7465440630912781e-01 -1.7077983915805817e-01</leafValues></_>
        <_>
          <internalNodes>
            0 -1 362 -3.6786817014217377e-02</internalNodes>
          <leafValues>
            -7.1289145946502686e-01 1.3409033417701721e-01</leafValues></_>
        <_>
          <internalNodes>
            0 -1 213 2.5515872985124588e-02</internalNodes>
          <leafValues>
            -3.0142259597778320e-01 3.0706724524497986e-01</leafValues></_>
        <_>
          <internalNodes>
            0 -1 29 -4.2803317308425903e-02</internalNodes>
          <leafValues>
            -8.2862967252731323e-01 8.7062165141105652e-02</leafValues></_>
        <_>
          <internalNodes>
            0 -1 92 1.1034697527065873e-03</internalNodes>
          <leafValues>
            7.9228788614273071e-02 -6.3969296216964722e-01</leafValues></_>
        <_>
          <internalNodes>
            0 -1 250 -2.0411968231201172e-02</internalNodes>
          <leafValues>
            6.9142317771911621e-01 -1.0139020532369614e-01</leafValues></_>
        <_>
          <internalNodes>
            0 -1 275 -6.8936735391616821e-02</internalNodes>
          <leafValues>
            1.4051425457000732e-01 -5.1500099897384644e-01</leafValues></_>
        <_>
          <internalNodes>
            0 -1 343 -1.4527639746665955e-01</internalNodes>
          <leafValues>
            -1.1713761091232300e-01 7.0454376935958862e-01</leafValues></_>
        <_>
          <internalNodes>
            0 -1 119 5.9293445199728012e-02</internalNodes>
          <leafValues>
            8.1533946096897125e-02 -1.</leafValues></_>
        <_>
          <internalNodes>
            0 -1 279 8.1695932894945145e-03</internalNodes>
          <leafValues>
            -1.4866033196449280e-01 5.9156513214111328e-01</leafValues></_></weakClassifiers></_>
    <!-- stage 16 -->
    <_>
      <maxWeakCount>15</maxWeakCount>
      <stageThreshold>-1.0259566307067871e+00</stageThreshold>
      <weakClassifiers>
        <_>
          <internalNodes>
            0 -1 126 3.1771302223205566e-02</internalNodes>
          <leafValues>
            -4.0401145815849304e-01 6.1538463830947876e-01</leafValues></_>
        <_>
          <internalNodes>
            0 -1 35 -2.7293501421809196e-02</internalNodes>
          <leafValues>
            2.6665920019149780e-01 -3.7069806456565857e-01</leafValues></_>
        <_>
          <internalNodes>
            0 -1 345 -3.5677566193044186e-03</internalNodes>
          <leafValues>
            -5.8228415250778198e-01 1.4954040944576263e-01</leafValues></_>
        <_>
          <internalNodes>
            0 -1 53 -2.0624954253435135e-02</internalNodes>
          <leafValues>
            -8.7970721721649170e-01 1.0316660255193710e-01</leafValues></_>
        <_>
          <internalNodes>
            0 -1 290 6.5466854721307755e-03</internalNodes>
          <leafValues>
            -1.1279089003801346e-01 5.7931190729141235e-01</leafValues></_>
        <_>
          <internalNodes>
            0 -1 306 -3.5974681377410889e-02</internalNodes>
          <leafValues>
            3.4309720993041992e-01 -2.6336365938186646e-01</leafValues></_>
        <_>
          <internalNodes>
            0 -1 11 1.5739458799362183e-01</internalNodes>
          <leafValues>
            7.5245082378387451e-02 -1.</leafValues></_>
        <_>
          <internalNodes>
            0 -1 310 -5.5849179625511169e-03</internalNodes>
          <leafValues>
            3.2757017016410828e-01 -2.0088057219982147e-01</leafValues></_>
        <_>
          <internalNodes>
            0 -1 189 -9.9136158823966980e-02</internalNodes>
          <leafValues>
            -6.8760222196578979e-01 1.0954575240612030e-01</leafValues></_>
        <_>
          <internalNodes>
            0 -1 263 -1.8854420632123947e-02</internalNodes>
          <leafValues>
            5.9848105907440186e-01 -1.4455083012580872e-01</leafValues></_>
        <_>
          <internalNodes>
            0 -1 106 -7.0395302027463913e-03</internalNodes>
          <leafValues>
            -9.2692607641220093e-01 8.9143432676792145e-02</leafValues></_>
        <_>
          <internalNodes>
            0 -1 281 1.8073327373713255e-03</internalNodes>
          <leafValues>
            -1.6077099740505219e-01 4.4406455755233765e-01</leafValues></_>
        <_>
          <internalNodes>
            0 -1 376 6.8659810349345207e-03</internalNodes>
          <leafValues>
            1.1621128022670746e-01 -6.4867395162582397e-01</leafValues></_>
        <_>
          <internalNodes>
            0 -1 253 9.4879614189267159e-03</internalNodes>
          <leafValues>
            7.8862398862838745e-02 -6.5496814250946045e-01</leafValues></_>
        <_>
          <internalNodes>
            0 -1 243 -4.4891107827425003e-03</internalNodes>
          <leafValues>
            3.6766636371612549e-01 -1.7154289782047272e-01</leafValues></_></weakClassifiers></_>
    <!-- stage 17 -->
    <_>
      <maxWeakCount>20</maxWeakCount>
      <stageThreshold>-1.0077887773513794e+00</stageThreshold>
      <weakClassifiers>
        <_>
          <internalNodes>
            0 -1 233 -8.9498823508620262e-03</internalNodes>
          <leafValues>
            1.4492753148078918e-01 -4.4117647409439087e-01</leafValues></_>
        <_>
          <internalNodes>
            0 -1 130 1.7033959738910198e-03</internalNodes>
          <leafValues>
            1.0150250792503357e-01 -5.2586835622787476e-01</leafValues></_>
        <_>
          <internalNodes>
            0 -1 364 -3.4288978204131126e-03</internalNodes>
          <leafValues>
            -6.1114662885665894e-01 8.8495843112468719e-02</leafValues></_>
        <_>
          <internalNodes>
            0 -1 136 4.8749172128736973e-03</internalNodes>
          <leafValues>
            -1.3562569022178650e-01 4.0495750308036804e-01</leafValues></_>
        <_>
          <internalNodes>
            0 -1 220 -1.1214989423751831e-01</internalNodes>
          <leafValues>
            2.0811662077903748e-01 -2.9325234889984131e-01</leafValues></_>
        <_>
          <internalNodes>
            0 -1 179 -3.9746306836605072e-02</internalNodes>
          <leafValues>
            6.6792279481887817e-01 -1.4006164669990540e-01</leafValues></_>
        <_>
          <internalNodes>
            0 -1 391 -4.0520858019590378e-03</internalNodes>
          <leafValues>
            -5.3448796272277832e-01 1.4674721658229828e-01</leafValues></_>
        <_>
          <internalNodes>
            0 -1 9 -6.3971448689699173e-03</internalNodes>
          <leafValues>
            -7.1912962198257446e-01 7.0591017603874207e-02</leafValues></_>
        <_>
          <internalNodes>
            0 -1 19 -1.5665259212255478e-02</internalNodes>
          <leafValues>
            4.5280346274375916e-01 -1.6141165792942047e-01</leafValues></_>
        <_>
          <internalNodes>
            0 -1 269 6.4791440963745117e-03</internalNodes>
          <leafValues>
            -7.7021367847919464e-02 8.0562365055084229e-01</leafValues></_>
        <_>
          <internalNodes>
            0 -1 46 5.1175849512219429e-03</internalNodes>
          <leafValues>
            9.0874664485454559e-02 -7.3341274261474609e-01</leafValues></_>
        <_>
          <internalNodes>
            0 -1 223 1.7932974733412266e-03</internalNodes>
          <leafValues>
            -1.7396184802055359e-01 3.5064372420310974e-01</leafValues></_>
        <_>
          <internalNodes>
            0 -1 129 9.7794029861688614e-03</internalNodes>
          <leafValues>
            6.7809902131557465e-02 -8.7239098548889160e-01</leafValues></_>
        <_>
          <internalNodes>
            0 -1 372 -9.9781900644302368e-04</internalNodes>
          <leafValues>
            -6.0482066869735718e-01 8.1833191215991974e-02</leafValues></_>
        <_>
          <internalNodes>
            0 -1 267 3.0784890055656433e-02</internalNodes>
          <leafValues>
            -1.9169259071350098e-01 3.4652990102767944e-01</leafValues></_>
        <_>
          <internalNodes>
            0 -1 154 8.0826878547668457e-03</internalNodes>
          <leafValues>
            -1.7048487067222595e-01 4.6319702267646790e-01</leafValues></_>
        <_>
          <internalNodes>
            0 -1 67 -1.1058745905756950e-02</internalNodes>
          <leafValues>
            4.9998900294303894e-01 -1.2308375537395477e-01</leafValues></_>
        <_>
          <internalNodes>
            0 -1 240 1.5197971835732460e-02</internalNodes>
          <leafValues>
            -7.9337783157825470e-02 7.7435648441314697e-01</leafValues></_>
        <_>
          <internalNodes>
            0 -1 164 -2.5105316191911697e-02</internalNodes>
          <leafValues>
            7.1697860956192017e-01 -8.7339781224727631e-02</leafValues></_>
        <_>
          <internalNodes>
            0 -1 256 -7.0634841918945313e-02</internalNodes>
          <leafValues>
            6.0186523199081421e-01 -1.0579889267683029e-01</leafValues></_></weakClassifiers></_>
    <!-- stage 18 -->
    <_>
      <maxWeakCount>14</maxWeakCount>
      <stageThreshold>-8.9669549465179443e-01</stageThreshold>
      <weakClassifiers>
        <_>
          <internalNodes>
            0 -1 215 7.6161762699484825e-03</internalNodes>
          <leafValues>
            -3.9204546809196472e-01 5.6521737575531006e-01</leafValues></_>
        <_>
          <internalNodes>
            0 -1 90 1.2555873021483421e-02</internalNodes>
          <leafValues>
            -2.5008875131607056e-01 2.6154226064682007e-01</leafValues></_>
        <_>
          <internalNodes>
            0 -1 191 3.0347961001098156e-03</internalNodes>
          <leafValues>
            1.1831186711788177e-01 -6.4518290758132935e-01</leafValues></_>
        <_>
          <internalNodes>
            0 -1 168 -1.0299028828740120e-02</internalNodes>
          <leafValues>
            2.7914726734161377e-01 -2.6934275031089783e-01</leafValues></_>
        <_>
          <internalNodes>
            0 -1 176 -3.7040375173091888e-02</internalNodes>
          <leafValues>
            1.0840742290019989e-01 -7.6487410068511963e-01</leafValues></_>
        <_>
          <internalNodes>
            0 -1 25 -3.1083080917596817e-02</internalNodes>
          <leafValues>
            6.4777827262878418e-01 -1.1493238806724548e-01</leafValues></_>
        <_>
          <internalNodes>
            0 -1 186 -3.1883768737316132e-02</internalNodes>
          <leafValues>
            4.4525855779647827e-01 -1.2861333787441254e-01</leafValues></_>
        <_>
          <internalNodes>
            0 -1 361 7.8983471030369401e-04</internalNodes>
          <leafValues>
            1.3346904516220093e-01 -5.2248936891555786e-01</leafValues></_>
        <_>
          <internalNodes>
            0 -1 202 -3.8465760648250580e-02</internalNodes>
          <leafValues>
            2.5517454743385315e-01 -2.3734673857688904e-01</leafValues></_>
        <_>
          <internalNodes>
            0 -1 70 -7.9446127638220787e-03</internalNodes>
          <leafValues>
            3.3305341005325317e-01 -1.9923976063728333e-01</leafValues></_>
        <_>
          <internalNodes>
            0 -1 288 -6.6071664914488792e-03</internalNodes>
          <leafValues>
            3.8552048802375793e-01 -1.7766264081001282e-01</leafValues></_>
        <_>
          <internalNodes>
            0 -1 329 -3.8694937247782946e-03</internalNodes>
          <leafValues>
            6.8557047843933105e-01 -9.4763658940792084e-02</leafValues></_>
        <_>
          <internalNodes>
            0 -1 1 -3.7293117493391037e-03</internalNodes>
          <leafValues>
            -8.4386861324310303e-01 1.0470843315124512e-01</leafValues></_>
        <_>
          <internalNodes>
            0 -1 99 -5.7442095130681992e-02</internalNodes>
          <leafValues>
            -4.5167580246925354e-01 1.2110163271427155e-01</leafValues></_></weakClassifiers></_>
    <!-- stage 19 -->
    <_>
      <maxWeakCount>17</maxWeakCount>
      <stageThreshold>-9.0655648708343506e-01</stageThreshold>
      <weakClassifiers>
        <_>
          <internalNodes>
            0 -1 113 4.6188920736312866e-02</internalNodes>
          <leafValues>
            -3.8375350832939148e-01 6.6666668653488159e-01</leafValues></_>
        <_>
          <internalNodes>
            0 -1 111 2.0187832415103912e-03</internalNodes>
          <leafValues>
            2.9938500374555588e-02 -7.8846502304077148e-01</leafValues></_>
        <_>
          <internalNodes>
            0 -1 49 1.8626372329890728e-03</internalNodes>
          <leafValues>
            1.0988890379667282e-01 -7.6848012208938599e-01</leafValues></_>
        <_>
          <internalNodes>
            0 -1 124 -6.7608812823891640e-03</internalNodes>
          <leafValues>
            3.0349236726760864e-01 -1.7111441493034363e-01</leafValues></_>
        <_>
          <internalNodes>
            0 -1 142 7.0367166772484779e-03</internalNodes>
          <leafValues>
            -1.5835782885551453e-01 4.4028419256210327e-01</leafValues></_>
        <_>
          <internalNodes>
            0 -1 277 -1.2335818260908127e-02</internalNodes>
          <leafValues>
            6.0034352540969849e-01 -1.0964599996805191e-01</leafValues></_>
        <_>
          <internalNodes>
            0 -1 363 -3.3308017998933792e-02</internalNodes>
          <leafValues>
            -6.0351067781448364e-01 1.1487086117267609e-01</leafValues></_>
        <_>
          <internalNodes>
            0 -1 199 -1.7006304115056992e-02</internalNodes>
          <leafValues>
            -6.5713483095169067e-01 6.6709607839584351e-02</leafValues></_>
        <_>
          <internalNodes>
            0 -1 151 3.6903060972690582e-02</internalNodes>
          <leafValues>
            -7.7279113233089447e-02 6.4336872100830078e-01</leafValues></_>
        <_>
          <internalNodes>
            0 -1 52 8.6053665727376938e-03</internalNodes>
          <leafValues>
            8.2671351730823517e-02 -6.4403551816940308e-01</leafValues></_>
        <_>
          <internalNodes>
            0 -1 298 -1.9207460805773735e-02</internalNodes>
          <leafValues>
            4.2492014169692993e-01 -1.3841117918491364e-01</leafValues></_>
        <_>
          <internalNodes>
            0 -1 328 -1.3414388522505760e-02</internalNodes>
          <leafValues>
            5.5990487337112427e-01 -9.4770647585391998e-02</leafValues></_>
        <_>
          <internalNodes>
            0 -1 88 -2.0031593739986420e-03</internalNodes>
          <leafValues>
            -5.8209306001663208e-01 9.9394947290420532e-02</leafValues></_>
        <_>
          <internalNodes>
            0 -1 352 3.0469093471765518e-03</internalNodes>
          <leafValues>
            5.5128235369920731e-02 -8.6663627624511719e-01</leafValues></_>
        <_>
          <internalNodes>
            0 -1 66 7.4186068959534168e-03</internalNodes>
          <leafValues>
            -1.8224638700485229e-01 3.2713106274604797e-01</leafValues></_>
        <_>
          <internalNodes>
            0 -1 192 -1.4149161288514733e-03</internalNodes>
          <leafValues>
            3.2404008507728577e-01 -2.3173037171363831e-01</leafValues></_>
        <_>
          <internalNodes>
            0 -1 317 -3.1716652214527130e-02</internalNodes>
          <leafValues>
            -7.4571406841278076e-01 8.2150563597679138e-02</leafValues></_></weakClassifiers></_>
    <!-- stage 20 -->
    <_>
      <maxWeakCount>17</maxWeakCount>
      <stageThreshold>-9.6992295980453491e-01</stageThreshold>
      <weakClassifiers>
        <_>
          <internalNodes>
            0 -1 161 1.8404511734843254e-02</internalNodes>
          <leafValues>
            -4.5916515588760376e-01 1.5075377188622952e-02</leafValues></_>
        <_>
          <internalNodes>
            0 -1 135 -2.4380408227443695e-02</internalNodes>
          <leafValues>
            3.2770207524299622e-01 -2.1469786763191223e-01</leafValues></_>
        <_>
          <internalNodes>
            0 -1 252 3.3604615600779653e-04</internalNodes>
          <leafValues>
            -1.9248852133750916e-01 2.8094604611396790e-01</leafValues></_>
        <_>
          <internalNodes>
            0 -1 16 1.2240586802363396e-03</internalNodes>
          <leafValues>
            8.7191917002201080e-02 -6.7301571369171143e-01</leafValues></_>
        <_>
          <internalNodes>
            0 -1 311 2.0746425725519657e-03</internalNodes>
          <leafValues>
            -9.9067278206348419e-02 5.3636050224304199e-01</leafValues></_>
        <_>
          <internalNodes>
            0 -1 271 -2.2112523019313812e-01</internalNodes>
          <leafValues>
            -8.6864036321640015e-01 6.0696739703416824e-02</leafValues></_>
        <_>
          <internalNodes>
            0 -1 150 -1.1883590370416641e-02</internalNodes>
          <leafValues>
            4.3197065591812134e-01 -1.2795132398605347e-01</leafValues></_>
        <_>
          <internalNodes>
            0 -1 204 -1.5458853449672461e-03</internalNodes>
          <leafValues>
            3.0424532294273376e-01 -1.8508464097976685e-01</leafValues></_>
        <_>
          <internalNodes>
            0 -1 280 -1.8588433740660548e-03</internalNodes>
          <leafValues>
            3.1697401404380798e-01 -1.7793680727481842e-01</leafValues></_>
        <_>
          <internalNodes>
            0 -1 27 3.1608785502612591e-03</internalNodes>
          <leafValues>
            -1.7070330679416656e-01 2.8984478116035461e-01</leafValues></_>
        <_>
          <internalNodes>
            0 -1 228 -1.1254392564296722e-02</internalNodes>
          <leafValues>
            -8.1083911657333374e-01 7.0219665765762329e-02</leafValues></_>
        <_>
          <internalNodes>
            0 -1 59 -6.6207079216837883e-03</internalNodes>
          <leafValues>
            -7.5426566600799561e-01 5.7086396962404251e-02</leafValues></_>
        <_>
          <internalNodes>
            0 -1 299 -6.1975768767297268e-03</internalNodes>
          <leafValues>
            -5.7552045583724976e-01 7.7077366411685944e-02</leafValues></_>
        <_>
          <internalNodes>
            0 -1 235 -1.3614252209663391e-02</internalNodes>
          <leafValues>
            4.3397453427314758e-01 -1.4169165492057800e-01</leafValues></_>
        <_>
          <internalNodes>
            0 -1 355 2.6939413510262966e-03</internalNodes>
          <leafValues>
            6.6539756953716278e-02 -8.6125576496124268e-01</leafValues></_>
        <_>
          <internalNodes>
            0 -1 21 -9.1688008978962898e-03</internalNodes>
          <leafValues>
            -8.3581322431564331e-01 4.3735653162002563e-02</leafValues></_>
        <_>
          <internalNodes>
            0 -1 121 -2.3264880292117596e-03</internalNodes>
          <leafValues>
            1.8413507938385010e-01 -2.6012200117111206e-01</leafValues></_></weakClassifiers></_>
    <!-- stage 21 -->
    <_>
      <maxWeakCount>17</maxWeakCount>
      <stageThreshold>-9.6935927867889404e-01</stageThreshold>
      <weakClassifiers>
        <_>
          <internalNodes>
            0 -1 133 1.4180723577737808e-02</internalNodes>
          <leafValues>
            -4.1678938269615173e-01 4.6478873491287231e-01</leafValues></_>
        <_>
          <internalNodes>
            0 -1 137 -9.1317743062973022e-02</internalNodes>
          <leafValues>
            1.4871537685394287e-01 -3.8185194134712219e-01</leafValues></_>
        <_>
          <internalNodes>
            0 -1 115 -6.1606317758560181e-02</internalNodes>
          <leafValues>
            -3.5955011844635010e-02 7.0090007781982422e-01</leafValues></_>
        <_>
          <internalNodes>
            0 -1 58 2.9446776024997234e-03</internalNodes>
          <leafValues>
            1.2655983865261078e-01 -4.7899386286735535e-01</leafValues></_>
        <_>
          <internalNodes>
            0 -1 205 -4.4581525027751923e-02</internalNodes>
          <leafValues>
            2.1395817399024963e-01 -2.7939254045486450e-01</leafValues></_>
        <_>
          <internalNodes>
            0 -1 216 -4.4639855623245239e-03</internalNodes>
          <leafValues>
            -7.2529566287994385e-01 9.5000460743904114e-02</leafValues></_>
        <_>
          <internalNodes>
            0 -1 43 5.6618596427142620e-03</internalNodes>
          <leafValues>
            -1.6324740648269653e-01 3.8909283280372620e-01</leafValues></_>
        <_>
          <internalNodes>
            0 -1 100 1.1765272356569767e-02</internalNodes>
          <leafValues>
            1.2651363015174866e-01 -5.9932357072830200e-01</leafValues></_>
        <_>
          <internalNodes>
            0 -1 357 9.5353554934263229e-03</internalNodes>
          <leafValues>
            5.2181132137775421e-02 -6.1914187669754028e-01</leafValues></_>
        <_>
          <internalNodes>
            0 -1 308 -4.6431506052613258e-03</internalNodes>
          <leafValues>
            3.1552046537399292e-01 -1.6454598307609558e-01</leafValues></_>
        <_>
          <internalNodes>
            0 -1 291 -6.8358336575329304e-03</internalNodes>
          <leafValues>
            3.1766223907470703e-01 -1.9702671468257904e-01</leafValues></_>
        <_>
          <internalNodes>
            0 -1 301 -5.5703371763229370e-03</internalNodes>
          <leafValues>
            -8.7076389789581299e-01 6.9249883294105530e-02</leafValues></_>
        <_>
          <internalNodes>
            0 -1 201 7.0496210828423500e-03</internalNodes>
          <leafValues>
            -1.7830881476402283e-01 2.9761511087417603e-01</leafValues></_>
        <_>
          <internalNodes>
            0 -1 174 -6.9343067705631256e-02</internalNodes>
          <leafValues>
            4.0656766295433044e-01 -1.3945400714874268e-01</leafValues></_>
        <_>
          <internalNodes>
            0 -1 208 -8.1379860639572144e-03</internalNodes>
          <leafValues>
            4.9265679717063904e-01 -1.1512392759323120e-01</leafValues></_>
        <_>
          <internalNodes>
            0 -1 79 -7.9578459262847900e-03</internalNodes>
          <leafValues>
            -8.5739177465438843e-01 6.7625783383846283e-02</leafValues></_>
        <_>
          <internalNodes>
            0 -1 93 4.8594512045383453e-03</internalNodes>
          <leafValues>
            -1.5829817950725555e-01 3.8378530740737915e-01</leafValues></_></weakClassifiers></_>
    <!-- stage 22 -->
    <_>
      <maxWeakCount>19</maxWeakCount>
      <stageThreshold>-1.0232646465301514e+00</stageThreshold>
      <weakClassifiers>
        <_>
          <internalNodes>
            0 -1 24 4.4182628393173218e-02</internalNodes>
          <leafValues>
            -3.7988826632499695e-01 6.4705884456634521e-01</leafValues></_>
        <_>
          <internalNodes>
            0 -1 296 -2.3521997500211000e-03</internalNodes>
          <leafValues>
            3.0264487862586975e-01 -1.8199400603771210e-01</leafValues></_>
        <_>
          <internalNodes>
            0 -1 323 -5.2020396105945110e-03</internalNodes>
          <leafValues>
            3.9201012253761292e-01 -1.2630391120910645e-01</leafValues></_>
        <_>
          <internalNodes>
            0 -1 255 4.0248442441225052e-02</internalNodes>
          <leafValues>
            1.0836594551801682e-01 -5.4480421543121338e-01</leafValues></_>
        <_>
          <internalNodes>
            0 -1 254 -1.6833163797855377e-02</internalNodes>
          <leafValues>
            -5.9300154447555542e-01 1.2483657151460648e-01</leafValues></_>
        <_>
          <internalNodes>
            0 -1 222 -3.0459353700280190e-02</internalNodes>
          <leafValues>
            4.3372195959091187e-01 -1.7158432304859161e-01</leafValues></_>
        <_>
          <internalNodes>
            0 -1 319 4.2149234563112259e-02</internalNodes>
          <leafValues>
            -2.3044720292091370e-01 2.9092648625373840e-01</leafValues></_>
        <_>
          <internalNodes>
            0 -1 217 -2.6713027618825436e-03</internalNodes>
          <leafValues>
            -5.8364105224609375e-01 8.8287390768527985e-02</leafValues></_>
        <_>
          <internalNodes>
            0 -1 172 4.8890635371208191e-03</internalNodes>
          <leafValues>
            -1.3638505339622498e-01 3.7796264886856079e-01</leafValues></_>
        <_>
          <internalNodes>
            0 -1 145 5.1644193008542061e-03</internalNodes>
          <leafValues>
            -1.7400637269020081e-01 3.6429384350776672e-01</leafValues></_>
        <_>
          <internalNodes>
            0 -1 74 -3.1974017620086670e-02</internalNodes>
          <leafValues>
            7.9267221689224243e-01 -6.3090324401855469e-02</leafValues></_>
        <_>
          <internalNodes>
            0 -1 122 -1.0661166161298752e-02</internalNodes>
          <leafValues>
            -7.1037811040878296e-01 7.9123280942440033e-02</leafValues></_>
        <_>
          <internalNodes>
            0 -1 69 -2.6912845671176910e-02</internalNodes>
          <leafValues>
            5.0244951248168945e-01 -1.0423268377780914e-01</leafValues></_>
        <_>
          <internalNodes>
            0 -1 332 4.3691182509064674e-03</internalNodes>
          <leafValues>
            -1.2740167975425720e-01 4.6774542331695557e-01</leafValues></_>
        <_>
          <internalNodes>
            0 -1 318 1.0607418604195118e-02</internalNodes>
          <leafValues>
            1.1208717525005341e-01 -4.9724870920181274e-01</leafValues></_>
        <_>
          <internalNodes>
            0 -1 259 -2.5922995992004871e-03</internalNodes>
          <leafValues>
            3.3744737505912781e-01 -1.6476774215698242e-01</leafValues></_>
        <_>
          <internalNodes>
            0 -1 140 -6.3016079366207123e-03</internalNodes>
          <leafValues>
            2.6368299126625061e-01 -2.0723943412303925e-01</leafValues></_>
        <_>
          <internalNodes>
            0 -1 96 5.5833226069808006e-03</internalNodes>
          <leafValues>
            1.3767442107200623e-01 -3.9559400081634521e-01</leafValues></_>
        <_>
          <internalNodes>
            0 -1 146 -4.9388021230697632e-02</internalNodes>
          <leafValues>
            5.8698022365570068e-01 -1.0851354151964188e-01</leafValues></_></weakClassifiers></_>
    <!-- stage 23 -->
    <_>
      <maxWeakCount>19</maxWeakCount>
      <stageThreshold>-9.4770848751068115e-01</stageThreshold>
      <weakClassifiers>
        <_>
          <internalNodes>
            0 -1 195 1.9157011061906815e-02</internalNodes>
          <leafValues>
            -3.8636362552642822e-01 4.7826087474822998e-01</leafValues></_>
        <_>
          <internalNodes>
            0 -1 84 -3.7938314490020275e-03</internalNodes>
          <leafValues>
            3.0485695600509644e-01 -1.9661723077297211e-01</leafValues></_>
        <_>
          <internalNodes>
            0 -1 80 -1.2011693324893713e-03</internalNodes>
          <leafValues>
            -6.5373456478118896e-01 1.0818966478109360e-01</leafValues></_>
        <_>
          <internalNodes>
            0 -1 242 -1.2871921062469482e-01</internalNodes>
          <leafValues>
            -1. 7.7399112284183502e-02</leafValues></_>
        <_>
          <internalNodes>
            0 -1 163 -4.6333074569702148e-02</internalNodes>
          <leafValues>
            3.6783435940742493e-01 -1.4795748889446259e-01</leafValues></_>
        <_>
          <internalNodes>
            0 -1 116 3.0227994546294212e-02</internalNodes>
          <leafValues>
            -2.0123785734176636e-01 3.6234334111213684e-01</leafValues></_>
        <_>
          <internalNodes>
            0 -1 241 -3.8884364068508148e-02</internalNodes>
          <leafValues>
            5.1157730817794800e-01 -8.6508266627788544e-02</leafValues></_>
        <_>
          <internalNodes>
            0 -1 184 7.1674715727567673e-03</internalNodes>
          <leafValues>
            -1.1468644440174103e-01 4.4866141676902771e-01</leafValues></_>
        <_>
          <internalNodes>
            0 -1 40 1.9941511563956738e-03</internalNodes>
          <leafValues>
            5.2621368318796158e-02 -9.6579152345657349e-01</leafValues></_>
        <_>
          <internalNodes>
            0 -1 365 9.4821432139724493e-04</internalNodes>
          <leafValues>
            8.0591931939125061e-02 -5.4456019401550293e-01</leafValues></_>
        <_>
          <internalNodes>
            0 -1 268 -1.5740368515253067e-02</internalNodes>
          <leafValues>
            -7.6383358240127563e-01 5.9280838817358017e-02</leafValues></_>
        <_>
          <internalNodes>
            0 -1 230 2.6464303955435753e-03</internalNodes>
          <leafValues>
            -1.4923860132694244e-01 3.5468930006027222e-01</leafValues></_>
        <_>
          <internalNodes>
            0 -1 278 3.0397668015211821e-03</internalNodes>
          <leafValues>
            -1.8786533176898956e-01 3.0697169899940491e-01</leafValues></_>
        <_>
          <internalNodes>
            0 -1 353 2.8330022469162941e-03</internalNodes>
          <leafValues>
            8.9686557650566101e-02 -5.5366706848144531e-01</leafValues></_>
        <_>
          <internalNodes>
            0 -1 104 3.9191142423078418e-04</internalNodes>
          <leafValues>
            -1.8965989351272583e-01 2.6443743705749512e-01</leafValues></_>
        <_>
          <internalNodes>
            0 -1 71 1.3386321067810059e-01</internalNodes>
          <leafValues>
            -7.1678891777992249e-02 7.1388220787048340e-01</leafValues></_>
        <_>
          <internalNodes>
            0 -1 266 1.7135743051767349e-02</internalNodes>
          <leafValues>
            -2.1500027179718018e-01 2.4413125216960907e-01</leafValues></_>
        <_>
          <internalNodes>
            0 -1 300 8.8063260773196816e-04</internalNodes>
          <leafValues>
            1.2580622732639313e-01 -4.3392327427864075e-01</leafValues></_>
        <_>
          <internalNodes>
            0 -1 82 -2.4630757980048656e-03</internalNodes>
          <leafValues>
            -5.9597897529602051e-01 8.1747539341449738e-02</leafValues></_></weakClassifiers></_>
    <!-- stage 24 -->
    <_>
      <maxWeakCount>24</maxWeakCount>
      <stageThreshold>-1.0458217859268188e+00</stageThreshold>
      <weakClassifiers>
        <_>
          <internalNodes>
            0 -1 165 -1.2097843922674656e-02</internalNodes>
          <leafValues>
            -8.3333335816860199e-02 -4.8917749524116516e-01</leafValues></_>
        <_>
          <internalNodes>
            0 -1 63 4.6144381165504456e-02</internalNodes>
          <leafValues>
            -1.8769545853137970e-01 2.9236319661140442e-01</leafValues></_>
        <_>
          <internalNodes>
            0 -1 78 5.3560594096779823e-03</internalNodes>
          <leafValues>
            7.7787503600120544e-02 -6.6122454404830933e-01</leafValues></_>
        <_>
          <internalNodes>
            0 -1 326 -9.3869189731776714e-04</internalNodes>
          <leafValues>
            3.3467999100685120e-01 -1.5957167744636536e-01</leafValues></_>
        <_>
          <internalNodes>
            0 -1 109 1.7505649477243423e-02</internalNodes>
          <leafValues>
            5.3264845162630081e-02 -8.0424714088439941e-01</leafValues></_>
        <_>
          <internalNodes>
            0 -1 149 1.2000555545091629e-01</internalNodes>
          <leafValues>
            -9.9514827132225037e-02 6.7448461055755615e-01</leafValues></_>
        <_>
          <internalNodes>
            0 -1 237 -2.3368168622255325e-03</internalNodes>
          <leafValues>
            2.8782027959823608e-01 -1.7770722508430481e-01</leafValues></_>
        <_>
          <internalNodes>
            0 -1 148 -8.5208147764205933e-02</internalNodes>
          <leafValues>
            -4.9338915944099426e-01 8.0706089735031128e-02</leafValues></_>
        <_>
          <internalNodes>
            0 -1 65 -4.8017777502536774e-02</internalNodes>
          <leafValues>
            3.0158007144927979e-01 -1.6312101483345032e-01</leafValues></_>
        <_>
          <internalNodes>
            0 -1 325 -3.3808066509664059e-03</internalNodes>
          <leafValues>
            4.1596522927284241e-01 -1.3025525212287903e-01</leafValues></_>
        <_>
          <internalNodes>
            0 -1 315 5.3624440915882587e-03</internalNodes>
          <leafValues>
            -1.3881596922874451e-01 3.6147445440292358e-01</leafValues></_>
        <_>
          <internalNodes>
            0 -1 384 2.0198053680360317e-03</internalNodes>
          <leafValues>
            9.2579938471317291e-02 -5.5142867565155029e-01</leafValues></_>
        <_>
          <internalNodes>
            0 -1 170 -1.3880592584609985e-01</internalNodes>
          <leafValues>
            3.4240812063217163e-01 -1.6967906057834625e-01</leafValues></_>
        <_>
          <internalNodes>
            0 -1 225 -1.3740509748458862e-01</internalNodes>
          <leafValues>
            -6.2642204761505127e-01 9.4640716910362244e-02</leafValues></_>
        <_>
          <internalNodes>
            0 -1 377 -7.2381837526336312e-04</internalNodes>
          <leafValues>
            -4.7559297084808350e-01 1.0525456070899963e-01</leafValues></_>
        <_>
          <internalNodes>
            0 -1 239 -2.4320263415575027e-02</internalNodes>
          <leafValues>
            2.8847941756248474e-01 -1.7595781385898590e-01</leafValues></_>
        <_>
          <internalNodes>
            0 -1 335 -1.0083505883812904e-02</internalNodes>
          <leafValues>
            6.2636655569076538e-01 -8.7253116071224213e-02</leafValues></_>
        <_>
          <internalNodes>
            0 -1 356 2.0786416716873646e-03</internalNodes>
          <leafValues>
            -1.7289547622203827e-01 2.9773730039596558e-01</leafValues></_>
        <_>
          <internalNodes>
            0 -1 226 1.1323671787977219e-02</internalNodes>
          <leafValues>
            1.1264356970787048e-01 -5.1425647735595703e-01</leafValues></_>
        <_>
          <internalNodes>
            0 -1 227 2.6422787457704544e-02</internalNodes>
          <leafValues>
            -8.2974538207054138e-02 7.9375487565994263e-01</leafValues></_>
        <_>
          <internalNodes>
            0 -1 125 -1.4826131984591484e-02</internalNodes>
          <leafValues>
            -5.3482490777969360e-01 1.0762931406497955e-01</leafValues></_>
        <_>
          <internalNodes>
            0 -1 157 -2.6786644011735916e-03</internalNodes>
          <leafValues>
            -8.2248038053512573e-01 5.1763776689767838e-02</leafValues></_>
        <_>
          <internalNodes>
            0 -1 346 1.2676568701863289e-02</internalNodes>
          <leafValues>
            -1.4762458205223083e-01 3.8838315010070801e-01</leafValues></_>
        <_>
          <internalNodes>
            0 -1 347 -1.3289944035932422e-04</internalNodes>
          <leafValues>
            2.4146521091461182e-01 -2.7028951048851013e-01</leafValues></_></weakClassifiers></_>
    <!-- stage 25 -->
    <_>
      <maxWeakCount>21</maxWeakCount>
      <stageThreshold>-9.1481178998947144e-01</stageThreshold>
      <weakClassifiers>
        <_>
          <internalNodes>
            0 -1 143 4.1079968214035034e-02</internalNodes>
          <leafValues>
            -3.7834036350250244e-01 4.8717948794364929e-01</leafValues></_>
        <_>
          <internalNodes>
            0 -1 386 1.1804888956248760e-02</internalNodes>
          <leafValues>
            3.9648275822401047e-02 -7.5240814685821533e-01</leafValues></_>
        <_>
          <internalNodes>
            0 -1 39 -3.4560181200504303e-02</internalNodes>
          <leafValues>
            3.4494298696517944e-01 -1.6250619292259216e-01</leafValues></_>
        <_>
          <internalNodes>
            0 -1 287 8.8053394574671984e-04</internalNodes>
          <leafValues>
            -2.3107264935970306e-01 2.5270500779151917e-01</leafValues></_>
        <_>
          <internalNodes>
            0 -1 141 -2.0725492388010025e-02</internalNodes>
          <leafValues>
            3.5580721497535706e-01 -1.4463745057582855e-01</leafValues></_>
        <_>
          <internalNodes>
            0 -1 375 1.5278628095984459e-02</internalNodes>
          <leafValues>
            7.9830870032310486e-02 -5.5404388904571533e-01</leafValues></_>
        <_>
          <internalNodes>
            0 -1 307 -7.1864300407469273e-03</internalNodes>
          <leafValues>
            5.0447690486907959e-01 -1.0134594142436981e-01</leafValues></_>
        <_>
          <internalNodes>
            0 -1 131 -1.7123296856880188e-03</internalNodes>
          <leafValues>
            4.3561503291130066e-01 -1.0102332383394241e-01</leafValues></_>
        <_>
          <internalNodes>
            0 -1 10 1.8816894153133035e-03</internalNodes>
          <leafValues>
            9.6438050270080566e-02 -6.0593634843826294e-01</leafValues></_>
        <_>
          <internalNodes>
            0 -1 336 -4.7802203334867954e-03</internalNodes>
          <leafValues>
            6.0903316736221313e-01 -9.1373771429061890e-02</leafValues></_>
        <_>
          <internalNodes>
            0 -1 55 -2.8784684836864471e-03</internalNodes>
          <leafValues>
            -6.9461143016815186e-01 7.8310839831829071e-02</leafValues></_>
        <_>
          <internalNodes>
            0 -1 339 1.8064886331558228e-02</internalNodes>
          <leafValues>
            -1.5763320028781891e-01 3.3737903833389282e-01</leafValues></_>
        <_>
          <internalNodes>
            0 -1 23 -6.3128709793090820e-02</internalNodes>
          <leafValues>
            4.3689018487930298e-01 -1.2629887461662292e-01</leafValues></_>
        <_>
          <internalNodes>
            0 -1 98 -1.6890620812773705e-02</internalNodes>
          <leafValues>
            -6.7578697204589844e-01 7.9760432243347168e-02</leafValues></_>
        <_>
          <internalNodes>
            0 -1 274 -8.8351406157016754e-03</internalNodes>
          <leafValues>
            3.8859537243843079e-01 -1.4537532627582550e-01</leafValues></_>
        <_>
          <internalNodes>
            0 -1 212 -2.0172487944364548e-02</internalNodes>
          <leafValues>
            3.9109322428703308e-01 -1.3122753798961639e-01</leafValues></_>
        <_>
          <internalNodes>
            0 -1 236 -7.7144794166088104e-02</internalNodes>
          <leafValues>
            -6.5292018651962280e-01 7.7263712882995605e-02</leafValues></_>
        <_>
          <internalNodes>
            0 -1 94 -6.8973302841186523e-02</internalNodes>
          <leafValues>
            3.1970781087875366e-01 -1.7060343921184540e-01</leafValues></_>
        <_>
          <internalNodes>
            0 -1 193 -9.1645373031497002e-03</internalNodes>
          <leafValues>
            4.2137014865875244e-01 -1.3294160366058350e-01</leafValues></_>
        <_>
          <internalNodes>
            0 -1 114 9.0293195098638535e-03</internalNodes>
          <leafValues>
            1.2520664930343628e-01 -5.6868368387222290e-01</leafValues></_>
        <_>
          <internalNodes>
            0 -1 20 1.1817323975265026e-03</internalNodes>
          <leafValues>
            8.8096842169761658e-02 -5.0236189365386963e-01</leafValues></_></weakClassifiers></_>
    <!-- stage 26 -->
    <_>
      <maxWeakCount>20</maxWeakCount>
      <stageThreshold>-1.0537033081054688e+00</stageThreshold>
      <weakClassifiers>
        <_>
          <internalNodes>
            0 -1 72 -6.7029394209384918e-02</internalNodes>
          <leafValues>
            5.1851850748062134e-01 -3.9942529797554016e-01</leafValues></_>
        <_>
          <internalNodes>
            0 -1 196 -6.7044226452708244e-03</internalNodes>
          <leafValues>
            3.7629124522209167e-01 -1.8000075221061707e-01</leafValues></_>
        <_>
          <internalNodes>
            0 -1 349 2.5689851026982069e-03</internalNodes>
          <leafValues>
            1.0854867100715637e-01 -6.4917892217636108e-01</leafValues></_>
        <_>
          <internalNodes>
            0 -1 28 -3.0775947961956263e-03</internalNodes>
          <leafValues>
            -9.1157948970794678e-01 9.0616032481193542e-02</leafValues></_>
        <_>
          <internalNodes>
            0 -1 187 1.8343843519687653e-02</internalNodes>
          <leafValues>
            -9.5859766006469727e-02 5.5482476949691772e-01</leafValues></_>
        <_>
          <internalNodes>
            0 -1 270 -2.4071574211120605e-02</internalNodes>
          <leafValues>
            -6.8590211868286133e-01 6.5630443394184113e-02</leafValues></_>
        <_>
          <internalNodes>
            0 -1 166 -6.4488751813769341e-03</internalNodes>
          <leafValues>
            1.9459344446659088e-01 -2.6848724484443665e-01</leafValues></_>
        <_>
          <internalNodes>
            0 -1 305 -8.8635105639696121e-03</internalNodes>
          <leafValues>
            1.7652446031570435e-01 -3.0117711424827576e-01</leafValues></_>
        <_>
          <internalNodes>
            0 -1 218 -2.2455158829689026e-01</internalNodes>
          <leafValues>
            -9.3307101726531982e-01 6.9147147238254547e-02</leafValues></_>
        <_>
          <internalNodes>
            0 -1 260 8.0341119319200516e-03</internalNodes>
          <leafValues>
            -1.5094631910324097e-01 4.5110395550727844e-01</leafValues></_>
        <_>
          <internalNodes>
            0 -1 3 1.2640953063964844e-01</internalNodes>
          <leafValues>
            6.6375069320201874e-02 -9.6167820692062378e-01</leafValues></_>
        <_>
          <internalNodes>
            0 -1 316 3.0122241005301476e-02</internalNodes>
          <leafValues>
            -1.2956589460372925e-01 4.4719034433364868e-01</leafValues></_>
        <_>
          <internalNodes>
            0 -1 117 5.9055183082818985e-03</internalNodes>
          <leafValues>
            -1.5435712039470673e-01 3.3440193533897400e-01</leafValues></_>
        <_>
          <internalNodes>
            0 -1 224 -1.9275400787591934e-02</internalNodes>
          <leafValues>
            8.1931650638580322e-02 -6.4997804164886475e-01</leafValues></_>
        <_>
          <internalNodes>
            0 -1 313 -9.5952703850343823e-04</internalNodes>
          <leafValues>
            -4.5327398180961609e-01 1.1349394917488098e-01</leafValues></_>
        <_>
          <internalNodes>
            0 -1 105 1.8258747877553105e-04</internalNodes>
          <leafValues>
            -1.8532238900661469e-01 3.0896562337875366e-01</leafValues></_>
        <_>
          <internalNodes>
            0 -1 36 2.0575274247676134e-03</internalNodes>
          <leafValues>
            1.2211848050355911e-01 -4.7030997276306152e-01</leafValues></_>
        <_>
          <internalNodes>
            0 -1 156 -6.3215233385562897e-03</internalNodes>
          <leafValues>
            4.0991079807281494e-01 -1.2710528075695038e-01</leafValues></_>
        <_>
          <internalNodes>
            0 -1 62 -1.3805110007524490e-02</internalNodes>
          <leafValues>
            3.9165902137756348e-01 -1.4365242421627045e-01</leafValues></_>
        <_>
          <internalNodes>
            0 -1 338 -3.9366660639643669e-03</internalNodes>
          <leafValues>
            -4.3531009554862976e-01 1.3978496193885803e-01</leafValues></_></weakClassifiers></_>
    <!-- stage 27 -->
    <_>
      <maxWeakCount>23</maxWeakCount>
      <stageThreshold>-1.0680379867553711e+00</stageThreshold>
      <weakClassifiers>
        <_>
          <internalNodes>
            0 -1 221 5.7619296014308929e-02</internalNodes>
          <leafValues>
            -3.7087911367416382e-01 9.0909093618392944e-01</leafValues></_>
        <_>
          <internalNodes>
            0 -1 197 8.2063525915145874e-02</internalNodes>
          <leafValues>
            -1.5800695121288300e-01 3.6537480354309082e-01</leafValues></_>
        <_>
          <internalNodes>
            0 -1 17 1.4242056757211685e-02</internalNodes>
          <leafValues>
            -7.1864679455757141e-02 6.9604516029357910e-01</leafValues></_>
        <_>
          <internalNodes>
            0 -1 244 -8.5477657616138458e-02</internalNodes>
          <leafValues>
            1.3332715630531311e-01 -3.9646145701408386e-01</leafValues></_>
        <_>
          <internalNodes>
            0 -1 302 -1.1770550161600113e-02</internalNodes>
          <leafValues>
            -1.0134167969226837e-01 5.3282386064529419e-01</leafValues></_>
        <_>
          <internalNodes>
            0 -1 128 -7.5657962588593364e-04</internalNodes>
          <leafValues>
            -3.5124099254608154e-01 1.3592252135276794e-01</leafValues></_>
        <_>
          <internalNodes>
            0 -1 283 4.6696091885678470e-04</internalNodes>
          <leafValues>
            -1.8766765296459198e-01 2.8900885581970215e-01</leafValues></_>
        <_>
          <internalNodes>
            0 -1 354 5.6432303972542286e-03</internalNodes>
          <leafValues>
            -1.3124912977218628e-01 3.4887659549713135e-01</leafValues></_>
        <_>
          <internalNodes>
            0 -1 312 -7.6116267591714859e-03</internalNodes>
          <leafValues>
            2.7405810356140137e-01 -1.9417363405227661e-01</leafValues></_>
        <_>
          <internalNodes>
            0 -1 45 -4.2740032076835632e-03</internalNodes>
          <leafValues>
            -8.6737585067749023e-01 5.0061240792274475e-02</leafValues></_>
        <_>
          <internalNodes>
            0 -1 234 8.2668755203485489e-04</internalNodes>
          <leafValues>
            -2.0167274773120880e-01 2.8640669584274292e-01</leafValues></_>
        <_>
          <internalNodes>
            0 -1 102 -1.4416084159165621e-03</internalNodes>
          <leafValues>
            -4.9655756354331970e-01 1.2607103586196899e-01</leafValues></_>
        <_>
          <internalNodes>
            0 -1 324 -1.6540940850973129e-03</internalNodes>
          <leafValues>
            2.4560987949371338e-01 -2.0424002408981323e-01</leafValues></_>
        <_>
          <internalNodes>
            0 -1 153 1.1458748579025269e-01</internalNodes>
          <leafValues>
            6.4192250370979309e-02 -9.3683755397796631e-01</leafValues></_>
        <_>
          <internalNodes>
            0 -1 210 4.7786556184291840e-02</internalNodes>
          <leafValues>
            6.1203323304653168e-02 -5.7589977979660034e-01</leafValues></_>
        <_>
          <internalNodes>
            0 -1 60 -8.3952322602272034e-03</internalNodes>
          <leafValues>
            3.4933128952980042e-01 -1.4562419056892395e-01</leafValues></_>
        <_>
          <internalNodes>
            0 -1 333 -8.8576570851728320e-04</internalNodes>
          <leafValues>
            3.3609956502914429e-01 -1.5788337588310242e-01</leafValues></_>
        <_>
          <internalNodes>
            0 -1 383 1.6783734317868948e-03</internalNodes>
          <leafValues>
            5.8747045695781708e-02 -8.6678200960159302e-01</leafValues></_>
        <_>
          <internalNodes>
            0 -1 322 2.7346841990947723e-02</internalNodes>
          <leafValues>
            -1.1080399900674820e-01 5.2995872497558594e-01</leafValues></_>
        <_>
          <internalNodes>
            0 -1 334 2.6730322279036045e-03</internalNodes>
          <leafValues>
            -2.1659487485885620e-01 2.3320537805557251e-01</leafValues></_>
        <_>
          <internalNodes>
            0 -1 341 -1.3655603397637606e-03</internalNodes>
          <leafValues>
            3.4026762843132019e-01 -1.9355739653110504e-01</leafValues></_>
        <_>
          <internalNodes>
            0 -1 188 2.4553734809160233e-02</internalNodes>
          <leafValues>
            -1.1509629338979721e-01 5.0993406772613525e-01</leafValues></_>
        <_>
          <internalNodes>
            0 -1 248 1.5138849266804755e-04</internalNodes>
          <leafValues>
            -2.2842381894588470e-01 2.7859044075012207e-01</leafValues></_></weakClassifiers></_>
    <!-- stage 28 -->
    <_>
      <maxWeakCount>19</maxWeakCount>
      <stageThreshold>-1.0414686203002930e+00</stageThreshold>
      <weakClassifiers>
        <_>
          <internalNodes>
            0 -1 73 -2.1615326404571533e-02</internalNodes>
          <leafValues>
            4.5762711763381958e-01 -4.0086829662322998e-01</leafValues></_>
        <_>
          <internalNodes>
            0 -1 180 5.3310673683881760e-04</internalNodes>
          <leafValues>
            -2.8267103433609009e-01 2.4644258618354797e-01</leafValues></_>
        <_>
          <internalNodes>
            0 -1 348 -3.6506545729935169e-03</internalNodes>
          <leafValues>
            -6.2519550323486328e-01 1.2808808684349060e-01</leafValues></_>
        <_>
          <internalNodes>
            0 -1 132 -1.4117577672004700e-01</internalNodes>
          <leafValues>
            2.2395907342433929e-01 -2.4664101004600525e-01</leafValues></_>
        <_>
          <internalNodes>
            0 -1 160 -1.2899547815322876e-02</internalNodes>
          <leafValues>
            -1.6780087351799011e-01 4.3075630068778992e-01</leafValues></_>
        <_>
          <internalNodes>
            0 -1 232 -6.2307734042406082e-03</internalNodes>
          <leafValues>
            3.9084270596504211e-01 -1.3750338554382324e-01</leafValues></_>
        <_>
          <internalNodes>
            0 -1 41 1.5835907543078065e-03</internalNodes>
          <leafValues>
            1.0466782003641129e-01 -5.0985795259475708e-01</leafValues></_>
        <_>
          <internalNodes>
            0 -1 86 -3.7594320019707084e-04</internalNodes>
          <leafValues>
            3.5004371404647827e-01 -1.7021679878234863e-01</leafValues></_>
        <_>
          <internalNodes>
            0 -1 123 -4.0706838481128216e-03</internalNodes>
          <leafValues>
            -5.9957355260848999e-01 7.2336159646511078e-02</leafValues></_>
        <_>
          <internalNodes>
            0 -1 175 -1.0361135937273502e-03</internalNodes>
          <leafValues>
            3.5582411289215088e-01 -1.8089449405670166e-01</leafValues></_>
        <_>
          <internalNodes>
            0 -1 238 -1.1987746693193913e-03</internalNodes>
          <leafValues>
            5.2229183912277222e-01 -1.1442112922668457e-01</leafValues></_>
        <_>
          <internalNodes>
            0 -1 118 1.0610181838274002e-02</internalNodes>
          <leafValues>
            -1.4063945412635803e-01 4.2263761162757874e-01</leafValues></_>
        <_>
          <internalNodes>
            0 -1 321 4.7463495284318924e-03</internalNodes>
          <leafValues>
            1.6752681136131287e-01 -3.7301728129386902e-01</leafValues></_>
        <_>
          <internalNodes>
            0 -1 206 -1.5516136772930622e-04</internalNodes>
          <leafValues>
            2.7074608206748962e-01 -2.3804344236850739e-01</leafValues></_>
        <_>
          <internalNodes>
            0 -1 294 -1.9741866737604141e-02</internalNodes>
          <leafValues>
            6.0140669345855713e-01 -1.1441618204116821e-01</leafValues></_>
        <_>
          <internalNodes>
            0 -1 219 4.8867384903132915e-03</internalNodes>
          <leafValues>
            -1.3777621090412140e-01 4.4716215133666992e-01</leafValues></_>
        <_>
          <internalNodes>
            0 -1 152 -1.7651660367846489e-02</internalNodes>
          <leafValues>
            -5.8503520488739014e-01 1.1805620789527893e-01</leafValues></_>
        <_>
          <internalNodes>
            0 -1 276 -1.0114768519997597e-02</internalNodes>
          <leafValues>
            3.8230592012405396e-01 -1.6635927557945251e-01</leafValues></_>
        <_>
          <internalNodes>
            0 -1 297 -5.0337137654423714e-03</internalNodes>
          <leafValues>
            4.8850730061531067e-01 -1.1328177899122238e-01</leafValues></_></weakClassifiers></_>
    <!-- stage 29 -->
    <_>
      <maxWeakCount>19</maxWeakCount>
      <stageThreshold>-9.5650327205657959e-01</stageThreshold>
      <weakClassifiers>
        <_>
          <internalNodes>
            0 -1 245 1.5607256442308426e-02</internalNodes>
          <leafValues>
            -3.8268157839775085e-01 7.0588237047195435e-01</leafValues></_>
        <_>
          <internalNodes>
            0 -1 272 5.2764061838388443e-03</internalNodes>
          <leafValues>
            -1.1908563971519470e-01 6.2260943651199341e-01</leafValues></_>
        <_>
          <internalNodes>
            0 -1 281 -4.2133070528507233e-03</internalNodes>
          <leafValues>
            6.7067694664001465e-01 -7.0241309702396393e-02</leafValues></_>
        <_>
          <internalNodes>
            0 -1 330 -8.1240441650152206e-03</internalNodes>
          <leafValues>
            -8.6430269479751587e-01 8.7883166968822479e-02</leafValues></_>
        <_>
          <internalNodes>
            0 -1 162 -1.1740846931934357e-01</internalNodes>
          <leafValues>
            -8.0014216899871826e-01 7.4772186577320099e-02</leafValues></_>
        <_>
          <internalNodes>
            0 -1 134 2.8605908155441284e-02</internalNodes>
          <leafValues>
            -1.4101754128932953e-01 3.9382043480873108e-01</leafValues></_>
        <_>
          <internalNodes>
            0 -1 246 -5.9522839728742838e-04</internalNodes>
          <leafValues>
            3.6089041829109192e-01 -1.8544986844062805e-01</leafValues></_>
        <_>
          <internalNodes>
            0 -1 190 -8.9610349386930466e-03</internalNodes>
          <leafValues>
            3.8083624839782715e-01 -1.3982364535331726e-01</leafValues></_>
        <_>
          <internalNodes>
            0 -1 331 -1.3469145633280277e-03</internalNodes>
          <leafValues>
            -3.3456930518150330e-01 1.6773116588592529e-01</leafValues></_>
        <_>
          <internalNodes>
            0 -1 155 1.1062540113925934e-02</internalNodes>
          <leafValues>
            -1.8997056782245636e-01 2.8261610865592957e-01</leafValues></_>
        <_>
          <internalNodes>
            0 -1 182 -5.0662677735090256e-02</internalNodes>
          <leafValues>
            -4.5185101032257080e-01 1.4286643266677856e-01</leafValues></_>
        <_>
          <internalNodes>
            0 -1 6 1.6481263935565948e-01</internalNodes>
          <leafValues>
            1.1634340137243271e-01 -4.9723476171493530e-01</leafValues></_>
        <_>
          <internalNodes>
            0 -1 314 -5.6855105794966221e-03</internalNodes>
          <leafValues>
            -5.7607436180114746e-01 1.0496649146080017e-01</leafValues></_>
        <_>
          <internalNodes>
            0 -1 257 -2.9572877101600170e-03</internalNodes>
          <leafValues>
            -5.5529654026031494e-01 1.0396616160869598e-01</leafValues></_>
        <_>
          <internalNodes>
            0 -1 337 -4.4628857722273096e-05</internalNodes>
          <leafValues>
            -2.9589027166366577e-01 2.0715381205081940e-01</leafValues></_>
        <_>
          <internalNodes>
            0 -1 112 -7.8227615449577570e-04</internalNodes>
          <leafValues>
            2.7262589335441589e-01 -2.0432275533676147e-01</leafValues></_>
        <_>
          <internalNodes>
            0 -1 342 -9.8613798618316650e-03</internalNodes>
          <leafValues>
            -1.0084059089422226e-01 5.9160786867141724e-01</leafValues></_>
        <_>
          <internalNodes>
            0 -1 220 -1.1120012402534485e-01</internalNodes>
          <leafValues>
            1.8536442518234253e-01 -3.5119470953941345e-01</leafValues></_>
        <_>
          <internalNodes>
            0 -1 177 -1.6892626881599426e-01</internalNodes>
          <leafValues>
            -5.3934681415557861e-01 1.2273312360048294e-01</leafValues></_></weakClassifiers></_></stages>
  <features>
    <_>
      <rects>
        <_>
          0 0 1 6 -1.</_>
        <_>
          0 3 1 3 2.</_></rects>
      <tilted>0</tilted></_>
    <_>
      <rects>
        <_>
          0 0 4 2 -1.</_>
        <_>
          0 0 2 1 2.</_>
        <_>
          2 1 2 1 2.</_></rects>
      <tilted>0</tilted></_>
    <_>
      <rects>
        <_>
          0 0 4 3 -1.</_>
        <_>
          2 0 2 3 2.</_></rects>
      <tilted>0</tilted></_>
    <_>
      <rects>
        <_>
          0 0 9 10 -1.</_>
        <_>
          0 5 9 5 2.</_></rects>
      <tilted>0</tilted></_>
    <_>
      <rects>
        <_>
          0 0 20 6 -1.</_>
        <_>
          10 0 10 6 2.</_></rects>
      <tilted>0</tilted></_>
    <_>
      <rects>
        <_>
          0 0 20 17 -1.</_>
        <_>
          10 0 10 17 2.</_></rects>
      <tilted>0</tilted></_>
    <_>
      <rects>
        <_>
          0 0 20 19 -1.</_>
        <_>
          10 0 10 19 2.</_></rects>
      <tilted>0</tilted></_>
    <_>
      <rects>
        <_>
          0 0 19 20 -1.</_>
        <_>
          0 10 19 10 2.</_></rects>
      <tilted>0</tilted></_>
    <_>
      <rects>
        <_>
          0 1 2 3 -1.</_>
        <_>
          1 1 1 3 2.</_></rects>
      <tilted>0</tilted></_>
    <_>
      <rects>
        <_>
          0 1 1 6 -1.</_>
        <_>
          0 4 1 3 2.</_></rects>
      <tilted>0</tilted></_>
    <_>
      <rects>
        <_>
          0 1 4 1 -1.</_>
        <_>
          2 1 2 1 2.</_></rects>
      <tilted>0</tilted></_>
    <_>
      <rects>
        <_>
          0 1 14 8 -1.</_>
        <_>
          7 1 7 8 2.</_></rects>
      <tilted>0</tilted></_>
    <_>
      <rects>
        <_>
          0 1 20 13 -1.</_>
        <_>
          10 1 10 13 2.</_></rects>
      <tilted>0</tilted></_>
    <_>
      <rects>
        <_>
          0 1 20 19 -1.</_>
        <_>
          10 1 10 19 2.</_></rects>
      <tilted>0</tilted></_>
    <_>
      <rects>
        <_>
          0 2 1 14 -1.</_>
        <_>
          0 9 1 7 2.</_></rects>
      <tilted>0</tilted></_>
    <_>
      <rects>
        <_>
          0 2 16 2 -1.</_>
        <_>
          0 3 16 1 2.</_></rects>
      <tilted>0</tilted></_>
    <_>
      <rects>
        <_>
          0 3 2 1 -1.</_>
        <_>
          1 3 1 1 2.</_></rects>
      <tilted>0</tilted></_>
    <_>
      <rects>
        <_>
          0 3 4 6 -1.</_>
        <_>
          0 3 2 3 2.</_>
        <_>
          2 6 2 3 2.</_></rects>
      <tilted>0</tilted></_>
    <_>
      <rects>
        <_>
          0 3 20 17 -1.</_>
        <_>
          10 3 10 17 2.</_></rects>
      <tilted>0</tilted></_>
    <_>
      <rects>
        <_>
          0 3 13 2 -1.</_>
        <_>
          0 4 13 1 2.</_></rects>
      <tilted>0</tilted></_>
    <_>
      <rects>
        <_>
          0 4 2 2 -1.</_>
        <_>
          1 4 1 2 2.</_></rects>
      <tilted>0</tilted></_>
    <_>
      <rects>
        <_>
          0 4 1 8 -1.</_>
        <_>
          0 8 1 4 2.</_></rects>
      <tilted>0</tilted></_>
    <_>
      <rects>
        <_>
          0 4 1 16 -1.</_>
        <_>
          0 12 1 8 2.</_></rects>
      <tilted>0</tilted></_>
    <_>
      <rects>
        <_>
          0 4 8 10 -1.</_>
        <_>
          0 9 8 5 2.</_></rects>
      <tilted>0</tilted></_>
    <_>
      <rects>
        <_>
          0 4 15 2 -1.</_>
        <_>
          0 5 15 1 2.</_></rects>
      <tilted>0</tilted></_>
    <_>
      <rects>
        <_>
          0 4 20 2 -1.</_>
        <_>
          0 5 20 1 2.</_></rects>
      <tilted>0</tilted></_>
    <_>
      <rects>
        <_>
          0 5 2 9 -1.</_>
        <_>
          1 5 1 9 2.</_></rects>
      <tilted>0</tilted></_>
    <_>
      <rects>
        <_>
          0 5 12 2 -1.</_>
        <_>
          0 6 12 1 2.</_></rects>
      <tilted>0</tilted></_>
    <_>
      <rects>
        <_>
          0 6 1 2 -1.</_>
        <_>
          0 7 1 1 2.</_></rects>
      <tilted>0</tilted></_>
    <_>
      <rects>
        <_>
          0 6 3 12 -1.</_>
        <_>
          0 12 3 6 2.</_></rects>
      <tilted>0</tilted></_>
    <_>
      <rects>
        <_>
          0 7 2 12 -1.</_>
        <_>
          0 7 1 6 2.</_>
        <_>
          1 13 1 6 2.</_></rects>
      <tilted>0</tilted></_>
    <_>
      <rects>
        <_>
          0 8 2 2 -1.</_>
        <_>
          0 9 2 1 2.</_></rects>
      <tilted>0</tilted></_>
    <_>
      <rects>
        <_>
          0 9 2 1 -1.</_>
        <_>
          1 9 1 1 2.</_></rects>
      <tilted>0</tilted></_>
    <_>
      <rects>
        <_>
          0 9 1 2 -1.</_>
        <_>
          0 10 1 1 2.</_></rects>
      <tilted>0</tilted></_>
    <_>
      <rects>
        <_>
          0 10 2 2 -1.</_>
        <_>
          0 10 1 1 2.</_>
        <_>
          1 11 1 1 2.</_></rects>
      <tilted>0</tilted></_>
    <_>
      <rects>
        <_>
          0 10 12 6 -1.</_>
        <_>
          6 10 6 6 2.</_></rects>
      <tilted>0</tilted></_>
    <_>
      <rects>
        <_>
          0 11 2 6 -1.</_>
        <_>
          0 11 1 3 2.</_>
        <_>
          1 14 1 3 2.</_></rects>
      <tilted>0</tilted></_>
    <_>
      <rects>
        <_>
          0 11 2 4 -1.</_>
        <_>
          0 13 2 2 2.</_></rects>
      <tilted>0</tilted></_>
    <_>
      <rects>
        <_>
          0 11 12 5 -1.</_>
        <_>
          6 11 6 5 2.</_></rects>
      <tilted>0</tilted></_>
    <_>
      <rects>
        <_>
          0 11 16 4 -1.</_>
        <_>
          8 11 8 4 2.</_></rects>
      <tilted>0</tilted></_>
    <_>
      <rects>
        <_>
          0 12 2 1 -1.</_>
        <_>
          1 12 1 1 2.</_></rects>
      <tilted>0</tilted></_>
    <_>
      <rects>
        <_>
          0 12 2 4 -1.</_>
        <_>
          0 12 1 2 2.</_>
        <_>
          1 14 1 2 2.</_></rects>
      <tilted>0</tilted></_>
    <_>
      <rects>
        <_>
          0 12 4 1 -1.</_>
        <_>
          2 12 2 1 2.</_></rects>
      <tilted>0</tilted></_>
    <_>
      <rects>
        <_>
          0 12 8 3 -1.</_>
        <_>
          4 12 4 3 2.</_></rects>
      <tilted>0</tilted></_>
    <_>
      <rects>
        <_>
          0 12 12 2 -1.</_>
        <_>
          6 12 6 2 2.</_></rects>
      <tilted>0</tilted></_>
    <_>
      <rects>
        <_>
          0 13 2 2 -1.</_>
        <_>
          0 14 2 1 2.</_></rects>
      <tilted>0</tilted></_>
    <_>
      <rects>
        <_>
          0 14 4 2 -1.</_>
        <_>
          0 15 4 1 2.</_></rects>
      <tilted>0</tilted></_>
    <_>
      <rects>
        <_>
          0 15 1 4 -1.</_>
        <_>
          0 17 1 2 2.</_></rects>
      <tilted>0</tilted></_>
    <_>
      <rects>
        <_>
          0 17 2 2 -1.</_>
        <_>
          0 17 1 1 2.</_>
        <_>
          1 18 1 1 2.</_></rects>
      <tilted>0</tilted></_>
    <_>
      <rects>
        <_>
          0 18 1 2 -1.</_>
        <_>
          0 19 1 1 2.</_></rects>
      <tilted>0</tilted></_>
    <_>
      <rects>
        <_>
          0 18 2 2 -1.</_>
        <_>
          0 18 1 1 2.</_>
        <_>
          1 19 1 1 2.</_></rects>
      <tilted>0</tilted></_>
    <_>
      <rects>
        <_>
          0 18 4 2 -1.</_>
        <_>
          2 18 2 2 2.</_></rects>
      <tilted>0</tilted></_>
    <_>
      <rects>
        <_>
          0 19 10 1 -1.</_>
        <_>
          5 19 5 1 2.</_></rects>
      <tilted>0</tilted></_>
    <_>
      <rects>
        <_>
          0 19 14 1 -1.</_>
        <_>
          7 19 7 1 2.</_></rects>
      <tilted>0</tilted></_>
    <_>
      <rects>
        <_>
          1 0 2 2 -1.</_>
        <_>
          1 0 1 1 2.</_>
        <_>
          2 1 1 1 2.</_></rects>
      <tilted>0</tilted></_>
    <_>
      <rects>
        <_>
          1 0 4 1 -1.</_>
        <_>
          3 0 2 1 2.</_></rects>
      <tilted>0</tilted></_>
    <_>
      <rects>
        <_>
          1 0 4 2 -1.</_>
        <_>
          1 0 2 1 2.</_>
        <_>
          3 1 2 1 2.</_></rects>
      <tilted>0</tilted></_>
    <_>
      <rects>
        <_>
          1 0 2 20 -1.</_>
        <_>
          1 10 2 10 2.</_></rects>
      <tilted>0</tilted></_>
    <_>
      <rects>
        <_>
          1 0 6 1 -1.</_>
        <_>
          4 0 3 1 2.</_></rects>
      <tilted>0</tilted></_>
    <_>
      <rects>
        <_>
          1 0 8 1 -1.</_>
        <_>
          5 0 4 1 2.</_></rects>
      <tilted>0</tilted></_>
    <_>
      <rects>
        <_>
          1 0 12 4 -1.</_>
        <_>
          1 0 6 2 2.</_>
        <_>
          7 2 6 2 2.</_></rects>
      <tilted>0</tilted></_>
    <_>
      <rects>
        <_>
          1 0 6 9 -1.</_>
        <_>
          1 3 6 3 2.</_></rects>
      <tilted>0</tilted></_>
    <_>
      <rects>
        <_>
          1 0 16 4 -1.</_>
        <_>
          1 0 8 2 2.</_>
        <_>
          9 2 8 2 2.</_></rects>
      <tilted>0</tilted></_>
    <_>
      <rects>
        <_>
          1 0 18 10 -1.</_>
        <_>
          10 0 9 10 2.</_></rects>
      <tilted>0</tilted></_>
    <_>
      <rects>
        <_>
          1 1 2 2 -1.</_>
        <_>
          2 1 1 2 2.</_></rects>
      <tilted>0</tilted></_>
    <_>
      <rects>
        <_>
          1 1 14 10 -1.</_>
        <_>
          1 1 7 5 2.</_>
        <_>
          8 6 7 5 2.</_></rects>
      <tilted>0</tilted></_>
    <_>
      <rects>
        <_>
          1 2 14 4 -1.</_>
        <_>
          1 2 7 2 2.</_>
        <_>
          8 4 7 2 2.</_></rects>
      <tilted>0</tilted></_>
    <_>
      <rects>
        <_>
          1 2 18 2 -1.</_>
        <_>
          1 2 9 1 2.</_>
        <_>
          10 3 9 1 2.</_></rects>
      <tilted>0</tilted></_>
    <_>
      <rects>
        <_>
          1 3 2 1 -1.</_>
        <_>
          2 3 1 1 2.</_></rects>
      <tilted>0</tilted></_>
    <_>
      <rects>
        <_>
          1 3 14 2 -1.</_>
        <_>
          1 4 14 1 2.</_></rects>
      <tilted>0</tilted></_>
    <_>
      <rects>
        <_>
          1 3 17 2 -1.</_>
        <_>
          1 4 17 1 2.</_></rects>
      <tilted>0</tilted></_>
    <_>
      <rects>
        <_>
          1 4 15 8 -1.</_>
        <_>
          1 8 15 4 2.</_></rects>
      <tilted>0</tilted></_>
    <_>
      <rects>
        <_>
          1 4 18 4 -1.</_>
        <_>
          1 6 18 2 2.</_></rects>
      <tilted>0</tilted></_>
    <_>
      <rects>
        <_>
          1 5 12 2 -1.</_>
        <_>
          1 6 12 1 2.</_></rects>
      <tilted>0</tilted></_>
    <_>
      <rects>
        <_>
          1 5 17 2 -1.</_>
        <_>
          1 6 17 1 2.</_></rects>
      <tilted>0</tilted></_>
    <_>
      <rects>
        <_>
          1 6 10 2 -1.</_>
        <_>
          6 6 5 2 2.</_></rects>
      <tilted>0</tilted></_>
    <_>
      <rects>
        <_>
          1 6 14 1 -1.</_>
        <_>
          8 6 7 1 2.</_></rects>
      <tilted>0</tilted></_>
    <_>
      <rects>
        <_>
          1 8 2 4 -1.</_>
        <_>
          2 8 1 4 2.</_></rects>
      <tilted>0</tilted></_>
    <_>
      <rects>
        <_>
          1 8 2 8 -1.</_>
        <_>
          2 8 1 8 2.</_></rects>
      <tilted>0</tilted></_>
    <_>
      <rects>
        <_>
          1 8 2 4 -1.</_>
        <_>
          1 10 2 2 2.</_></rects>
      <tilted>0</tilted></_>
    <_>
      <rects>
        <_>
          1 9 2 1 -1.</_>
        <_>
          2 9 1 1 2.</_></rects>
      <tilted>0</tilted></_>
    <_>
      <rects>
        <_>
          1 9 2 2 -1.</_>
        <_>
          2 9 1 2 2.</_></rects>
      <tilted>0</tilted></_>
    <_>
      <rects>
        <_>
          1 9 2 3 -1.</_>
        <_>
          2 9 1 3 2.</_></rects>
      <tilted>0</tilted></_>
    <_>
      <rects>
        <_>
          1 11 2 2 -1.</_>
        <_>
          2 11 1 2 2.</_></rects>
      <tilted>0</tilted></_>
    <_>
      <rects>
        <_>
          1 12 8 2 -1.</_>
        <_>
          1 12 4 1 2.</_>
        <_>
          5 13 4 1 2.</_></rects>
      <tilted>0</tilted></_>
    <_>
      <rects>
        <_>
          1 16 2 4 -1.</_>
        <_>
          1 16 1 2 2.</_>
        <_>
          2 18 1 2 2.</_></rects>
      <tilted>0</tilted></_>
    <_>
      <rects>
        <_>
          1 18 4 2 -1.</_>
        <_>
          1 18 2 1 2.</_>
        <_>
          3 19 2 1 2.</_></rects>
      <tilted>0</tilted></_>
    <_>
      <rects>
        <_>
          1 18 16 2 -1.</_>
        <_>
          9 18 8 2 2.</_></rects>
      <tilted>0</tilted></_>
    <_>
      <rects>
        <_>
          1 19 4 1 -1.</_>
        <_>
          3 19 2 1 2.</_></rects>
      <tilted>0</tilted></_>
    <_>
      <rects>
        <_>
          2 0 2 1 -1.</_>
        <_>
          3 0 1 1 2.</_></rects>
      <tilted>0</tilted></_>
    <_>
      <rects>
        <_>
          2 0 10 5 -1.</_>
        <_>
          7 0 5 5 2.</_></rects>
      <tilted>0</tilted></_>
    <_>
      <rects>
        <_>
          2 0 16 20 -1.</_>
        <_>
          10 0 8 20 2.</_></rects>
      <tilted>0</tilted></_>
    <_>
      <rects>
        <_>
          2 1 2 2 -1.</_>
        <_>
          2 1 1 1 2.</_>
        <_>
          3 2 1 1 2.</_></rects>
      <tilted>0</tilted></_>
    <_>
      <rects>
        <_>
          2 2 10 2 -1.</_>
        <_>
          2 2 5 1 2.</_>
        <_>
          7 3 5 1 2.</_></rects>
      <tilted>0</tilted></_>
    <_>
      <rects>
        <_>
          2 2 16 18 -1.</_>
        <_>
          2 2 8 9 2.</_>
        <_>
          10 11 8 9 2.</_></rects>
      <tilted>0</tilted></_>
    <_>
      <rects>
        <_>
          2 2 13 2 -1.</_>
        <_>
          2 3 13 1 2.</_></rects>
      <tilted>0</tilted></_>
    <_>
      <rects>
        <_>
          2 3 6 4 -1.</_>
        <_>
          5 3 3 4 2.</_></rects>
      <tilted>0</tilted></_>
    <_>
      <rects>
        <_>
          2 3 14 2 -1.</_>
        <_>
          2 4 14 1 2.</_></rects>
      <tilted>0</tilted></_>
    <_>
      <rects>
        <_>
          2 5 10 2 -1.</_>
        <_>
          7 5 5 2 2.</_></rects>
      <tilted>0</tilted></_>
    <_>
      <rects>
        <_>
          2 5 18 11 -1.</_>
        <_>
          11 5 9 11 2.</_></rects>
      <tilted>0</tilted></_>
    <_>
      <rects>
        <_>
          2 6 8 2 -1.</_>
        <_>
          6 6 4 2 2.</_></rects>
      <tilted>0</tilted></_>
    <_>
      <rects>
        <_>
          2 7 6 1 -1.</_>
        <_>
          5 7 3 1 2.</_></rects>
      <tilted>0</tilted></_>
    <_>
      <rects>
        <_>
          2 8 2 2 -1.</_>
        <_>
          2 8 1 1 2.</_>
        <_>
          3 9 1 1 2.</_></rects>
      <tilted>0</tilted></_>
    <_>
      <rects>
        <_>
          2 10 2 2 -1.</_>
        <_>
          3 10 1 2 2.</_></rects>
      <tilted>0</tilted></_>
    <_>
      <rects>
        <_>
          2 13 2 2 -1.</_>
        <_>
