<?xml version="1.0"?>
<opencv_storage>
<cascade>
  <stageType>BOOST</stageType>
  <featureType>HAAR</featureType>
  <height>20</height>
  <width>20</width>
  <stageParams>
    <boostType>GAB</boostType>
    <minHitRate>9.9500000476837158e-01</minHitRate>
    <maxFalseAlarm>5.0000000000000000e-01</maxFalseAlarm>
    <weightTrimRate>9.4999999999999996e-01</weightTrimRate>
    <maxDepth>1</maxDepth>
    <maxWeakCount>100</maxWeakCount></stageParams>
  <featureParams>
    <maxCatCount>0</maxCatCount>
    <featSize>1</featSize>
    <mode>BASIC</mode></featureParams>
  <stageNum>20</stageNum>
  <stages>
    <!-- stage 0 -->
    <_>
      <maxWeakCount>7</maxWeakCount>
      <stageThreshold>-1.3784379959106445e+00</stageThreshold>
      <weakClassifiers>
        <_>
          <internalNodes>
            0 -1 43 -3.4262034296989441e-01</internalNodes>
          <leafValues>
            3.8910505827516317e-03 -8.5665529966354370e-01</leafValues></_>
        <_>
          <internalNodes>
            0 -1 142 -9.0303644537925720e-02</internalNodes>
          <leafValues>
            6.8635982275009155e-01 -3.9410653710365295e-01</leafValues></_>
        <_>
          <internalNodes>
            0 -1 83 -4.7421389818191528e-01</internalNodes>
          <leafValues>
            2.0681698620319366e-01 -7.8828936815261841e-01</leafValues></_>
        <_>
          <internalNodes>
            0 -1 275 1.8050575163215399e-03</internalNodes>
          <leafValues>
            1.5449333190917969e-01 -8.5207730531692505e-01</leafValues></_>
        <_>
          <internalNodes>
            0 -1 275 -1.5928676584735513e-03</internalNodes>
          <leafValues>
            -7.4114513397216797e-01 2.0025366544723511e-01</leafValues></_>
        <_>
          <internalNodes>
            0 -1 65 1.9275662489235401e-03</internalNodes>
          <leafValues>
            1.6851285099983215e-01 -8.6149555444717407e-01</leafValues></_>
        <_>
          <internalNodes>
            0 -1 263 1.8406314775347710e-03</internalNodes>
          <leafValues>
            1.3735333085060120e-01 -8.7171798944473267e-01</leafValues></_></weakClassifiers></_>
    <!-- stage 1 -->
    <_>
      <maxWeakCount>9</maxWeakCount>
      <stageThreshold>-1.1303111314773560e+00</stageThreshold>
      <weakClassifiers>
        <_>
          <internalNodes>
            0 -1 240 7.9814992845058441e-02</internalNodes>
          <leafValues>
            -6.5891474485397339e-01 4.8223349452018738e-01</leafValues></_>
        <_>
          <internalNodes>
            0 -1 61 -6.6277399659156799e-02</internalNodes>
          <leafValues>
            8.6381477117538452e-01 -2.4306735396385193e-01</leafValues></_>
        <_>
          <internalNodes>
            0 -1 65 -1.6169694717973471e-03</internalNodes>
          <leafValues>
            -7.8298366069793701e-01 2.0842705667018890e-01</leafValues></_>
        <_>
          <internalNodes>
            0 -1 219 5.9124663472175598e-02</internalNodes>
          <leafValues>
            -1.5886048972606659e-01 8.2291030883789063e-01</leafValues></_>
        <_>
          <internalNodes>
            0 -1 169 4.9131065607070923e-02</internalNodes>
          <leafValues>
            -2.0725703239440918e-01 6.5999370813369751e-01</leafValues></_>
        <_>
          <internalNodes>
            0 -1 274 1.4134892262518406e-03</internalNodes>
          <leafValues>
            1.8378017842769623e-01 -8.0727958679199219e-01</leafValues></_>
        <_>
          <internalNodes>
            0 -1 129 -2.9127147048711777e-02</internalNodes>
          <leafValues>
            7.4620646238327026e-01 -1.8342036008834839e-01</leafValues></_>
        <_>
          <internalNodes>
            0 -1 191 -2.2495865821838379e-02</internalNodes>
          <leafValues>
            7.5357574224472046e-01 -1.5058609843254089e-01</leafValues></_>
        <_>
          <internalNodes>
            0 -1 44 -2.0725117065012455e-03</internalNodes>
          <leafValues>
            -8.5183244943618774e-01 2.0339673757553101e-01</leafValues></_></weakClassifiers></_>
    <!-- stage 2 -->
    <_>
      <maxWeakCount>7</maxWeakCount>
      <stageThreshold>-8.9899420738220215e-01</stageThreshold>
      <weakClassifiers>
        <_>
          <internalNodes>
            0 -1 239 8.1322431564331055e-02</internalNodes>
          <leafValues>
            -6.4434689283370972e-01 4.6031746268272400e-01</leafValues></_>
        <_>
          <internalNodes>
            0 -1 62 -6.1956122517585754e-02</internalNodes>
          <leafValues>
            6.6299074888229370e-01 -2.7500897645950317e-01</leafValues></_>
        <_>
          <internalNodes>
            0 -1 17 -2.1882194280624390e-01</internalNodes>
          <leafValues>
            -8.3823716640472412e-01 1.5058623254299164e-01</leafValues></_>
        <_>
          <internalNodes>
            0 -1 6 2.3748579621315002e-01</internalNodes>
          <leafValues>
            1.9809947907924652e-01 -7.3572134971618652e-01</leafValues></_>
        <_>
          <internalNodes>
            0 -1 87 4.1338179260492325e-02</internalNodes>
          <leafValues>
            -2.1489952504634857e-01 6.2178242206573486e-01</leafValues></_>
        <_>
          <internalNodes>
            0 -1 150 2.1638855338096619e-02</internalNodes>
          <leafValues>
            -2.0382314920425415e-01 5.8436560630798340e-01</leafValues></_>
        <_>
          <internalNodes>
            0 -1 41 -1.1722275521606207e-03</internalNodes>
          <leafValues>
            -6.4696651697158813e-01 2.6999393105506897e-01</leafValues></_></weakClassifiers></_>
    <!-- stage 3 -->
    <_>
      <maxWeakCount>12</maxWeakCount>
      <stageThreshold>-1.3791154623031616e+00</stageThreshold>
      <weakClassifiers>
        <_>
          <internalNodes>
            0 -1 141 -1.5514405071735382e-01</internalNodes>
          <leafValues>
            5.0310558080673218e-01 -6.1874336004257202e-01</leafValues></_>
        <_>
          <internalNodes>
            0 -1 0 2.9876763001084328e-03</internalNodes>
          <leafValues>
            5.5690180510282516e-02 -8.2659590244293213e-01</leafValues></_>
        <_>
          <internalNodes>
            0 -1 2 8.5614658892154694e-03</internalNodes>
          <leafValues>
            1.1491356790065765e-01 -7.2081774473190308e-01</leafValues></_>
        <_>
          <internalNodes>
            0 -1 25 -8.7059646844863892e-02</internalNodes>
          <leafValues>
            4.5485034584999084e-01 -2.4506664276123047e-01</leafValues></_>
        <_>
          <internalNodes>
            0 -1 18 -1.4373497106134892e-03</internalNodes>
          <leafValues>
            -7.5901550054550171e-01 2.0397628843784332e-01</leafValues></_>
        <_>
          <internalNodes>
            0 -1 225 -2.4968374520540237e-02</internalNodes>
          <leafValues>
            6.6968613862991333e-01 -2.0459473133087158e-01</leafValues></_>
        <_>
          <internalNodes>
            0 -1 230 1.5007723122835159e-02</internalNodes>
          <leafValues>
            -1.7189975082874298e-01 6.6403782367706299e-01</leafValues></_>
        <_>
          <internalNodes>
            0 -1 281 -1.0073352605104446e-02</internalNodes>
          <leafValues>
            -5.6619542837142944e-01 2.2802701592445374e-01</leafValues></_>
        <_>
          <internalNodes>
            0 -1 293 1.3461912050843239e-02</internalNodes>
          <leafValues>
            1.5156967937946320e-01 -7.7567839622497559e-01</leafValues></_>
        <_>
          <internalNodes>
            0 -1 46 2.7914685197174549e-03</internalNodes>
          <leafValues>
            1.2690018117427826e-01 -7.5316989421844482e-01</leafValues></_>
        <_>
          <internalNodes>
            0 -1 156 3.7044923752546310e-02</internalNodes>
          <leafValues>
            -1.8764802813529968e-01 7.0753592252731323e-01</leafValues></_>
        <_>
          <internalNodes>
            0 -1 13 1.9455336034297943e-02</internalNodes>
          <leafValues>
            1.4213572442531586e-01 -9.0529322624206543e-01</leafValues></_></weakClassifiers></_>
    <!-- stage 4 -->
    <_>
      <maxWeakCount>9</maxWeakCount>
      <stageThreshold>-1.4191770553588867e+00</stageThreshold>
      <weakClassifiers>
        <_>
          <internalNodes>
            0 -1 89 1.0645431280136108e-01</internalNodes>
          <leafValues>
            -6.6417908668518066e-01 1.1486486345529556e-01</leafValues></_>
        <_>
          <internalNodes>
            0 -1 269 1.8420683918520808e-03</internalNodes>
          <leafValues>
            4.5171231031417847e-02 -8.5903656482696533e-01</leafValues></_>
        <_>
          <internalNodes>
            0 -1 287 -3.1221136450767517e-03</internalNodes>
          <leafValues>
            -8.7818533182144165e-01 1.1893314123153687e-01</leafValues></_>
        <_>
          <internalNodes>
            0 -1 21 -2.0806983113288879e-02</internalNodes>
          <leafValues>
            -6.5415507555007935e-01 1.4069187641143799e-01</leafValues></_>
        <_>
          <internalNodes>
            0 -1 12 -5.0402600318193436e-03</internalNodes>
          <leafValues>
            -7.3458421230316162e-01 1.3666480779647827e-01</leafValues></_>
        <_>
          <internalNodes>
            0 -1 56 -1.4638173580169678e-01</internalNodes>
          <leafValues>
            1.1201769858598709e-01 -8.1343859434127808e-01</leafValues></_>
        <_>
          <internalNodes>
            0 -1 38 9.6425740048289299e-04</internalNodes>
          <leafValues>
            1.2032140791416168e-01 -6.9098597764968872e-01</leafValues></_>
        <_>
          <internalNodes>
            0 -1 39 -1.8330477178096771e-03</internalNodes>
          <leafValues>
            -6.1764937639236450e-01 2.0197974145412445e-01</leafValues></_>
        <_>
          <internalNodes>
            0 -1 299 -9.3867750838398933e-03</internalNodes>
          <leafValues>
            -8.8267070055007935e-01 9.3058973550796509e-02</leafValues></_></weakClassifiers></_>
    <!-- stage 5 -->
    <_>
      <maxWeakCount>10</maxWeakCount>
      <stageThreshold>-1.1949349641799927e+00</stageThreshold>
      <weakClassifiers>
        <_>
          <internalNodes>
            0 -1 226 5.0121642649173737e-02</internalNodes>
          <leafValues>
            -5.9602648019790649e-01 2.0618556439876556e-01</leafValues></_>
        <_>
          <internalNodes>
            0 -1 50 1.8742950633168221e-02</internalNodes>
          <leafValues>
            7.5188912451267242e-02 -7.9817599058151245e-01</leafValues></_>
        <_>
          <internalNodes>
            0 -1 271 8.7901465594768524e-03</internalNodes>
          <leafValues>
            1.3186785578727722e-01 -6.9643348455429077e-01</leafValues></_>
        <_>
          <internalNodes>
            0 -1 7 -4.5782291889190674e-01</internalNodes>
          <leafValues>
            -9.6619874238967896e-01 1.0236072540283203e-01</leafValues></_>
        <_>
          <internalNodes>
            0 -1 173 -3.4999556839466095e-02</internalNodes>
          <leafValues>
            5.4643154144287109e-01 -2.3309722542762756e-01</leafValues></_>
        <_>
          <internalNodes>
            0 -1 176 -6.6497087478637695e-02</internalNodes>
          <leafValues>
            -4.5652523636817932e-01 2.5462713837623596e-01</leafValues></_>
        <_>
          <internalNodes>
            0 -1 186 -8.1364223733544350e-03</internalNodes>
          <leafValues>
            4.3352666497230530e-01 -2.3515267670154572e-01</leafValues></_>
        <_>
          <internalNodes>
            0 -1 47 -1.6769211739301682e-02</internalNodes>
          <leafValues>
            -6.2678253650665283e-01 1.6430960595607758e-01</leafValues></_>
        <_>
          <internalNodes>
            0 -1 169 4.9048859626054764e-02</internalNodes>
          <leafValues>
            -1.8869479000568390e-01 5.6750166416168213e-01</leafValues></_>
        <_>
          <internalNodes>
            0 -1 279 6.4925947226583958e-03</internalNodes>
          <leafValues>
            1.6324707865715027e-01 -6.5434420108795166e-01</leafValues></_></weakClassifiers></_>
    <!-- stage 6 -->
    <_>
      <maxWeakCount>13</maxWeakCount>
      <stageThreshold>-1.2502586841583252e+00</stageThreshold>
      <weakClassifiers>
        <_>
          <internalNodes>
            0 -1 165 -1.1413443088531494e-01</internalNodes>
          <leafValues>
            1.4716981351375580e-01 -6.4550900459289551e-01</leafValues></_>
        <_>
          <internalNodes>
            0 -1 242 -1.3086264953017235e-02</internalNodes>
          <leafValues>
            6.4618277549743652e-01 -2.1728461980819702e-01</leafValues></_>
        <_>
          <internalNodes>
            0 -1 36 1.3294742442667484e-02</internalNodes>
          <leafValues>
            1.3190676271915436e-01 -7.2839474678039551e-01</leafValues></_>
        <_>
          <internalNodes>
            0 -1 40 -4.4345855712890625e-03</internalNodes>
          <leafValues>
            -6.5965986251831055e-01 1.5564952790737152e-01</leafValues></_>
        <_>
          <internalNodes>
            0 -1 153 1.2567542493343353e-02</internalNodes>
          <leafValues>
            -1.5806595981121063e-01 6.7642056941986084e-01</leafValues></_>
        <_>
          <internalNodes>
            0 -1 206 8.7230481207370758e-02</internalNodes>
          <leafValues>
            -1.7680372297763824e-01 4.8939269781112671e-01</leafValues></_>
        <_>
          <internalNodes>
            0 -1 187 1.5211356803774834e-02</internalNodes>
          <leafValues>
            -1.2817351520061493e-01 6.5942132472991943e-01</leafValues></_>
        <_>
          <internalNodes>
            0 -1 100 7.2442637756466866e-03</internalNodes>
          <leafValues>
            1.5577140450477600e-01 -6.0824912786483765e-01</leafValues></_>
        <_>
          <internalNodes>
            0 -1 210 1.6926525160670280e-02</internalNodes>
          <leafValues>
            -1.8566650152206421e-01 4.7185337543487549e-01</leafValues></_>
        <_>
          <internalNodes>
            0 -1 234 6.2442119233310223e-03</internalNodes>
          <leafValues>
            1.3497033715248108e-01 -7.4012863636016846e-01</leafValues></_>
        <_>
          <internalNodes>
            0 -1 192 -1.1283077299594879e-02</internalNodes>
          <leafValues>
            3.6032405495643616e-01 -2.4735958874225616e-01</leafValues></_>
        <_>
          <internalNodes>
            0 -1 51 5.2642575465142727e-03</internalNodes>
          <leafValues>
            1.1646987497806549e-01 -7.2354710102081299e-01</leafValues></_>
        <_>
          <internalNodes>
            0 -1 148 -2.2298827767372131e-02</internalNodes>
          <leafValues>
            4.9514108896255493e-01 -1.8616373836994171e-01</leafValues></_></weakClassifiers></_>
    <!-- stage 7 -->
    <_>
      <maxWeakCount>4</maxWeakCount>
      <stageThreshold>-1.0360023975372314e+00</stageThreshold>
      <weakClassifiers>
        <_>
          <internalNodes>
            0 -1 154 -1.6771838068962097e-01</internalNodes>
          <leafValues>
            -9.1147541999816895e-01 1.1428571492433548e-01</leafValues></_>
        <_>
          <internalNodes>
            0 -1 27 -9.3653380870819092e-02</internalNodes>
          <leafValues>
            3.5690462589263916e-01 -4.5700410008430481e-01</leafValues></_>
        <_>
          <internalNodes>
            0 -1 201 -2.1163490414619446e-01</internalNodes>
          <leafValues>
            -1. 1.5237919986248016e-01</leafValues></_>
        <_>
          <internalNodes>
            0 -1 118 -9.1203898191452026e-03</internalNodes>
          <leafValues>
            1.8009793758392334e-01 -1.</leafValues></_></weakClassifiers></_>
    <!-- stage 8 -->
    <_>
      <maxWeakCount>10</maxWeakCount>
      <stageThreshold>-1.4974699020385742e+00</stageThreshold>
      <weakClassifiers>
        <_>
          <internalNodes>
            0 -1 137 1.4443287253379822e-01</internalNodes>
          <leafValues>
            -5.6367433071136475e-01 2.8169015049934387e-01</leafValues></_>
        <_>
          <internalNodes>
            0 -1 4 -1.4723690226674080e-02</internalNodes>
          <leafValues>
            -6.2983649969100952e-01 1.3224282860755920e-01</leafValues></_>
        <_>
          <internalNodes>
            0 -1 296 -7.9565495252609253e-03</internalNodes>
          <leafValues>
            -7.6844376325607300e-01 1.3215188682079315e-01</leafValues></_>
        <_>
          <internalNodes>
            0 -1 292 -6.7088529467582703e-03</internalNodes>
          <leafValues>
            -5.8973795175552368e-01 1.8001863360404968e-01</leafValues></_>
        <_>
          <internalNodes>
            0 -1 107 2.5008874945342541e-03</internalNodes>
          <leafValues>
            2.0342171192169189e-01 -5.5877822637557983e-01</leafValues></_>
        <_>
          <internalNodes>
            0 -1 197 -7.4341371655464172e-03</internalNodes>
          <leafValues>
            -7.4775141477584839e-01 1.1529590189456940e-01</leafValues></_>
        <_>
          <internalNodes>
            0 -1 67 -4.6188570559024811e-03</internalNodes>
          <leafValues>
            -8.2690411806106567e-01 8.6214914917945862e-02</leafValues></_>
        <_>
          <internalNodes>
            0 -1 77 1.8932401435449719e-03</internalNodes>
          <leafValues>
            1.7620128393173218e-01 -5.1897531747817993e-01</leafValues></_>
        <_>
          <internalNodes>
            0 -1 272 -3.9763385429978371e-03</internalNodes>
          <leafValues>
            -6.0108786821365356e-01 1.3399320840835571e-01</leafValues></_>
        <_>
          <internalNodes>
            0 -1 283 1.0869106277823448e-02</internalNodes>
          <leafValues>
            1.2611983716487885e-01 -6.8469190597534180e-01</leafValues></_></weakClassifiers></_>
    <!-- stage 9 -->
    <_>
      <maxWeakCount>13</maxWeakCount>
      <stageThreshold>-1.1316556930541992e+00</stageThreshold>
      <weakClassifiers>
        <_>
          <internalNodes>
            0 -1 81 -6.5147094428539276e-02</internalNodes>
          <leafValues>
            3.4351146221160889e-01 -5.6243550777435303e-01</leafValues></_>
        <_>
          <internalNodes>
            0 -1 171 -2.4938412010669708e-02</internalNodes>
          <leafValues>
            -5.5411416292190552e-01 1.4133712649345398e-01</leafValues></_>
        <_>
          <internalNodes>
            0 -1 114 2.5149572640657425e-02</internalNodes>
          <leafValues>
            -1.3344104588031769e-01 7.5367528200149536e-01</leafValues></_>
        <_>
          <internalNodes>
            0 -1 174 1.3296279124915600e-02</internalNodes>
          <leafValues>
            -1.2676119804382324e-01 6.3143569231033325e-01</leafValues></_>
        <_>
          <internalNodes>
            0 -1 238 8.8879570364952087e-02</internalNodes>
          <leafValues>
            -1.9265036284923553e-01 4.5493051409721375e-01</leafValues></_>
        <_>
          <internalNodes>
            0 -1 149 -3.0017226934432983e-02</internalNodes>
          <leafValues>
            5.8403944969177246e-01 -1.4214487373828888e-01</leafValues></_>
        <_>
          <internalNodes>
            0 -1 57 7.2324033826589584e-03</internalNodes>
          <leafValues>
            2.1202909946441650e-01 -5.7687026262283325e-01</leafValues></_>
        <_>
          <internalNodes>
            0 -1 111 -3.1473036855459213e-02</internalNodes>
          <leafValues>
            7.2794520854949951e-01 -1.4825728535652161e-01</leafValues></_>
        <_>
          <internalNodes>
            0 -1 290 1.9790753722190857e-03</internalNodes>
          <leafValues>
            1.6633027791976929e-01 -5.9343558549880981e-01</leafValues></_>
        <_>
          <internalNodes>
            0 -1 205 2.2965596988797188e-02</internalNodes>
          <leafValues>
            -1.8995611369609833e-01 4.8609843850135803e-01</leafValues></_>
        <_>
          <internalNodes>
            0 -1 237 -1.4783248305320740e-02</internalNodes>
          <leafValues>
            6.9906961917877197e-01 -9.3019708991050720e-02</leafValues></_>
        <_>
          <internalNodes>
            0 -1 300 1.8293864559382200e-03</internalNodes>
          <leafValues>
            1.0226051509380341e-01 -7.9643732309341431e-01</leafValues></_>
        <_>
          <internalNodes>
            0 -1 188 3.7303350865840912e-02</internalNodes>
          <leafValues>
            -1.1484739929437637e-01 8.0745625495910645e-01</leafValues></_></weakClassifiers></_>
    <!-- stage 10 -->
    <_>
      <maxWeakCount>15</maxWeakCount>
      <stageThreshold>-1.2415678501129150e+00</stageThreshold>
      <weakClassifiers>
        <_>
          <internalNodes>
            0 -1 214 -1.7791727557778358e-02</internalNodes>
          <leafValues>
            3.9325842261314392e-01 -5.2917903661727905e-01</leafValues></_>
        <_>
          <internalNodes>
            0 -1 74 -1.5102633833885193e-01</internalNodes>
          <leafValues>
            -7.2448986768722534e-01 6.0282591730356216e-02</leafValues></_>
        <_>
          <internalNodes>
            0 -1 5 2.4151317775249481e-01</internalNodes>
          <leafValues>
            1.0319839417934418e-01 -7.6477348804473877e-01</leafValues></_>
        <_>
          <internalNodes>
            0 -1 52 -1.8281690776348114e-02</internalNodes>
          <leafValues>
            -5.9792524576187134e-01 1.1940612643957138e-01</leafValues></_>
        <_>
          <internalNodes>
            0 -1 28 -9.2753678560256958e-02</internalNodes>
          <leafValues>
            4.2687430977821350e-01 -2.1652553975582123e-01</leafValues></_>
        <_>
          <internalNodes>
            0 -1 11 -3.7906503677368164e-01</internalNodes>
          <leafValues>
            -8.8233780860900879e-01 1.2360011786222458e-01</leafValues></_>
        <_>
          <internalNodes>
            0 -1 172 -2.9394816607236862e-02</internalNodes>
          <leafValues>
            4.2696049809455872e-01 -2.1817305684089661e-01</leafValues></_>
        <_>
          <internalNodes>
            0 -1 162 -1.6200941056013107e-02</internalNodes>
          <leafValues>
            6.9440716505050659e-01 -1.0111393034458160e-01</leafValues></_>
        <_>
          <internalNodes>
            0 -1 79 -9.8857162520289421e-03</internalNodes>
          <leafValues>
            -5.9969407320022583e-01 1.2746575474739075e-01</leafValues></_>
        <_>
          <internalNodes>
            0 -1 1 3.5993619821965694e-03</internalNodes>
          <leafValues>
            1.5315775573253632e-01 -4.9540323019027710e-01</leafValues></_>
        <_>
          <internalNodes>
            0 -1 298 -4.9137836322188377e-03</internalNodes>
          <leafValues>
            -6.1022210121154785e-01 1.1535146832466125e-01</leafValues></_>
        <_>
          <internalNodes>
            0 -1 170 2.8432998806238174e-02</internalNodes>
          <leafValues>
            -1.7640037834644318e-01 4.9149700999259949e-01</leafValues></_>
        <_>
          <internalNodes>
            0 -1 20 5.9113646857440472e-03</internalNodes>
          <leafValues>
            9.0487584471702576e-02 -8.8026696443557739e-01</leafValues></_>
        <_>
          <internalNodes>
            0 -1 208 -1.9116990268230438e-02</internalNodes>
          <leafValues>
            6.5145647525787354e-01 -1.2857019901275635e-01</leafValues></_>
        <_>
          <internalNodes>
            0 -1 285 2.7124662883579731e-03</internalNodes>
          <leafValues>
            1.0341635346412659e-01 -7.9779583215713501e-01</leafValues></_></weakClassifiers></_>
    <!-- stage 11 -->
    <_>
      <maxWeakCount>18</maxWeakCount>
      <stageThreshold>-1.4011484384536743e+00</stageThreshold>
      <weakClassifiers>
        <_>
          <internalNodes>
            0 -1 232 -1.1773029342293739e-02</internalNodes>
          <leafValues>
            5.5223882198333740e-01 -5.1984512805938721e-01</leafValues></_>
        <_>
          <internalNodes>
            0 -1 71 -1.3147458434104919e-02</internalNodes>
          <leafValues>
            -8.3843886852264404e-01 1.4305283315479755e-02</leafValues></_>
        <_>
          <internalNodes>
            0 -1 24 -6.1777774244546890e-02</internalNodes>
          <leafValues>
            4.2512395977973938e-01 -2.1765334904193878e-01</leafValues></_>
        <_>
          <internalNodes>
            0 -1 159 -4.6372912824153900e-02</internalNodes>
          <leafValues>
            5.4413020610809326e-01 -1.9316877424716949e-01</leafValues></_>
        <_>
          <internalNodes>
            0 -1 294 -6.9578606635332108e-03</internalNodes>
          <leafValues>
            -8.1864327192306519e-01 1.4482678472995758e-01</leafValues></_>
        <_>
          <internalNodes>
            0 -1 112 4.7460082918405533e-02</internalNodes>
          <leafValues>
            -1.7267435789108276e-01 4.7498109936714172e-01</leafValues></_>
        <_>
          <internalNodes>
            0 -1 88 -1.7432220280170441e-02</internalNodes>
          <leafValues>
            3.8476479053497314e-01 -1.7788124084472656e-01</leafValues></_>
        <_>
          <internalNodes>
            0 -1 270 1.1918258387595415e-03</internalNodes>
          <leafValues>
            1.5005731582641602e-01 -4.1493740677833557e-01</leafValues></_>
        <_>
          <internalNodes>
            0 -1 66 3.0677742324769497e-03</internalNodes>
          <leafValues>
            1.0233993083238602e-01 -6.8279683589935303e-01</leafValues></_>
        <_>
          <internalNodes>
            0 -1 119 -4.4907849282026291e-02</internalNodes>
          <leafValues>
            2.9884266853332520e-01 -2.3423026502132416e-01</leafValues></_>
        <_>
          <internalNodes>
            0 -1 123 -1.8825542926788330e-01</internalNodes>
          <leafValues>
            1.0151666402816772e-01 -6.9470441341400146e-01</leafValues></_>
        <_>
          <internalNodes>
            0 -1 55 1.1563581228256226e-01</internalNodes>
          <leafValues>
            -1.2368669360876083e-01 6.5782529115676880e-01</leafValues></_>
        <_>
          <internalNodes>
            0 -1 147 -2.0033195614814758e-02</internalNodes>
          <leafValues>
            -3.2123696804046631e-01 2.2193248569965363e-01</leafValues></_>
        <_>
          <internalNodes>
            0 -1 105 -1.9471030682325363e-02</internalNodes>
          <leafValues>
            5.5572062730789185e-01 -1.2340598553419113e-01</leafValues></_>
        <_>
          <internalNodes>
            0 -1 240 8.0856703221797943e-02</internalNodes>
          <leafValues>
            -1.9160671532154083e-01 4.0589484572410583e-01</leafValues></_>
        <_>
          <internalNodes>
            0 -1 177 4.9601923674345016e-03</internalNodes>
          <leafValues>
            -1.1584097892045975e-01 5.6911516189575195e-01</leafValues></_>
        <_>
          <internalNodes>
            0 -1 104 -3.3113133907318115e-01</internalNodes>
          <leafValues>
            -1. 7.3747009038925171e-02</leafValues></_>
        <_>
          <internalNodes>
            0 -1 291 7.5548253953456879e-03</internalNodes>
          <leafValues>
            1.2326772511005402e-01 -4.7030746936798096e-01</leafValues></_></weakClassifiers></_>
    <!-- stage 12 -->
    <_>
      <maxWeakCount>21</maxWeakCount>
      <stageThreshold>-1.3488249778747559e+00</stageThreshold>
      <weakClassifiers>
        <_>
          <internalNodes>
            0 -1 113 -1.1684168130159378e-02</internalNodes>
          <leafValues>
            4.1420117020606995e-02 -5.4457575082778931e-01</leafValues></_>
        <_>
          <internalNodes>
            0 -1 164 3.7483334541320801e-02</internalNodes>
          <leafValues>
            2.9201839119195938e-02 -8.3000040054321289e-01</leafValues></_>
        <_>
          <internalNodes>
            0 -1 42 -9.7953602671623230e-03</internalNodes>
          <leafValues>
            -6.8965464830398560e-01 1.0056564956903458e-01</leafValues></_>
        <_>
          <internalNodes>
            0 -1 74 -1.4189106225967407e-01</internalNodes>
          <leafValues>
            -6.4506822824478149e-01 7.4600607156753540e-02</leafValues></_>
        <_>
          <internalNodes>
            0 -1 103 6.4612850546836853e-03</internalNodes>
          <leafValues>
            9.9383816123008728e-02 -5.3115379810333252e-01</leafValues></_>
        <_>
          <internalNodes>
            0 -1 227 -6.7497692070901394e-03</internalNodes>
          <leafValues>
            4.1414156556129456e-01 -1.7120246589183807e-01</leafValues></_>
        <_>
          <internalNodes>
            0 -1 136 -2.0070683211088181e-02</internalNodes>
          <leafValues>
            4.5359799265861511e-01 -1.0718213021755219e-01</leafValues></_>
        <_>
          <internalNodes>
            0 -1 110 1.9015708938241005e-02</internalNodes>
          <leafValues>
            -1.3413244485855103e-01 4.6502292156219482e-01</leafValues></_>
        <_>
          <internalNodes>
            0 -1 117 -1.1268340051174164e-02</internalNodes>
          <leafValues>
            3.7313956022262573e-01 -1.5362447500228882e-01</leafValues></_>
        <_>
          <internalNodes>
            0 -1 68 1.7059003002941608e-03</internalNodes>
          <leafValues>
            1.3316339254379272e-01 -4.3391740322113037e-01</leafValues></_>
        <_>
          <internalNodes>
            0 -1 32 -1.9312710501253605e-03</internalNodes>
          <leafValues>
            -7.2778701782226563e-01 7.4004955589771271e-02</leafValues></_>
        <_>
          <internalNodes>
            0 -1 258 1.5530290082097054e-02</internalNodes>
          <leafValues>
            -1.2858493626117706e-01 4.5629513263702393e-01</leafValues></_>
        <_>
          <internalNodes>
            0 -1 193 -1.1895510368049145e-02</internalNodes>
          <leafValues>
            3.1631171703338623e-01 -1.5550194680690765e-01</leafValues></_>
        <_>
          <internalNodes>
            0 -1 130 -1.8156493082642555e-02</internalNodes>
          <leafValues>
            4.3937626481056213e-01 -1.2480141967535019e-01</leafValues></_>
        <_>
          <internalNodes>
            0 -1 245 -1.0582974180579185e-02</internalNodes>
          <leafValues>
            5.2773636579513550e-01 -1.2182334065437317e-01</leafValues></_>
        <_>
          <internalNodes>
            0 -1 260 3.3282763324677944e-03</internalNodes>
          <leafValues>
            8.2641124725341797e-02 -6.7612880468368530e-01</leafValues></_>
        <_>
          <internalNodes>
            0 -1 23 -1.2490257620811462e-01</internalNodes>
          <leafValues>
            4.9541580677032471e-01 -1.1638206243515015e-01</leafValues></_>
        <_>
          <internalNodes>
            0 -1 37 -1.9227389711886644e-03</internalNodes>
          <leafValues>
            -4.0800943970680237e-01 1.3913410902023315e-01</leafValues></_>
        <_>
          <internalNodes>
            0 -1 49 -3.7925038486719131e-03</internalNodes>
          <leafValues>
            -6.2326711416244507e-01 8.2937076687812805e-02</leafValues></_>
        <_>
          <internalNodes>
            0 -1 144 -2.0283885300159454e-02</internalNodes>
          <leafValues>
            3.1529629230499268e-01 -1.7024672031402588e-01</leafValues></_>
        <_>
          <internalNodes>
            0 -1 85 1.2000808119773865e-01</internalNodes>
          <leafValues>
            -1.0182631015777588e-01 6.2290912866592407e-01</leafValues></_></weakClassifiers></_>
    <!-- stage 13 -->
    <_>
      <maxWeakCount>15</maxWeakCount>
      <stageThreshold>-1.1626862287521362e+00</stageThreshold>
      <weakClassifiers>
        <_>
          <internalNodes>
            0 -1 236 1.0151427984237671e-01</internalNodes>
          <leafValues>
            -6.0718560218811035e-01 2.6415094733238220e-02</leafValues></_>
        <_>
          <internalNodes>
            0 -1 99 -4.3948236852884293e-02</internalNodes>
          <leafValues>
            1.4443306624889374e-01 -5.0493925809860229e-01</leafValues></_>
        <_>
          <internalNodes>
            0 -1 84 2.0387122035026550e-01</internalNodes>
          <leafValues>
            3.7689782679080963e-02 -9.3318760395050049e-01</leafValues></_>
        <_>
          <internalNodes>
            0 -1 167 9.3929469585418701e-02</internalNodes>
          <leafValues>
            -1.0246656835079193e-01 5.5889791250228882e-01</leafValues></_>
        <_>
          <internalNodes>
            0 -1 143 -1.5987455844879150e-01</internalNodes>
          <leafValues>
            4.4992357492446899e-01 -1.2909077107906342e-01</leafValues></_>
        <_>
          <internalNodes>
            0 -1 132 7.4715726077556610e-03</internalNodes>
          <leafValues>
            -1.1533613502979279e-01 4.9528095126152039e-01</leafValues></_>
        <_>
          <internalNodes>
            0 -1 135 -1.2197700329124928e-02</internalNodes>
          <leafValues>
            5.2804332971572876e-01 -1.3876409828662872e-01</leafValues></_>
        <_>
          <internalNodes>
            0 -1 295 1.5823245048522949e-03</internalNodes>
          <leafValues>
            9.1563865542411804e-02 -6.4528942108154297e-01</leafValues></_>
        <_>
          <internalNodes>
            0 -1 124 -1.4995257370173931e-02</internalNodes>
          <leafValues>
            4.0897580981254578e-01 -1.3428756594657898e-01</leafValues></_>
        <_>
          <internalNodes>
            0 -1 108 -8.5875298827886581e-03</internalNodes>
          <leafValues>
            3.3291837573051453e-01 -1.7561005055904388e-01</leafValues></_>
        <_>
          <internalNodes>
            0 -1 33 3.8358941674232483e-03</internalNodes>
          <leafValues>
            9.9294126033782959e-02 -8.5588067770004272e-01</leafValues></_>
        <_>
          <internalNodes>
            0 -1 213 -4.5018899254500866e-03</internalNodes>
          <leafValues>
            4.7732111811637878e-01 -1.4305125176906586e-01</leafValues></_>
        <_>
          <internalNodes>
            0 -1 267 1.1913233436644077e-02</internalNodes>
          <leafValues>
            8.9810669422149658e-02 -5.9882283210754395e-01</leafValues></_>
        <_>
          <internalNodes>
            0 -1 181 -1.3725708704441786e-03</internalNodes>
          <leafValues>
            -5.5871891975402832e-01 7.9900875687599182e-02</leafValues></_>
        <_>
          <internalNodes>
            0 -1 163 -1.1257594823837280e-01</internalNodes>
          <leafValues>
            6.1105418950319290e-02 -7.9195100069046021e-01</leafValues></_></weakClassifiers></_>
    <!-- stage 14 -->
    <_>
      <maxWeakCount>25</maxWeakCount>
      <stageThreshold>-1.2677968740463257e+00</stageThreshold>
      <weakClassifiers>
        <_>
          <internalNodes>
            0 -1 252 -9.5859039574861526e-03</internalNodes>
          <leafValues>
            1.8000000715255737e-01 -5.1800000667572021e-01</leafValues></_>
        <_>
          <internalNodes>
            0 -1 184 -7.9865325242280960e-03</internalNodes>
          <leafValues>
            3.0669423937797546e-01 -2.2465300559997559e-01</leafValues></_>
        <_>
          <internalNodes>
            0 -1 15 2.6173577643930912e-03</internalNodes>
          <leafValues>
            7.6842881739139557e-02 -6.9137012958526611e-01</leafValues></_>
        <_>
          <internalNodes>
            0 -1 179 1.6217382624745369e-02</internalNodes>
          <leafValues>
            9.1592274606227875e-02 -7.2625458240509033e-01</leafValues></_>
        <_>
          <internalNodes>
            0 -1 248 1.5358887612819672e-02</internalNodes>
          <leafValues>
            -1.0430125147104263e-01 4.7937753796577454e-01</leafValues></_>
        <_>
          <internalNodes>
            0 -1 211 2.9673012904822826e-03</internalNodes>
          <leafValues>
            -1.3792498409748077e-01 3.2862231135368347e-01</leafValues></_>
        <_>
          <internalNodes>
            0 -1 288 5.7550589554011822e-03</internalNodes>
          <leafValues>
            6.9421187043190002e-02 -6.5461474657058716e-01</leafValues></_>
        <_>
          <internalNodes>
            0 -1 207 -1.1507079005241394e-02</internalNodes>
          <leafValues>
            4.1571804881095886e-01 -1.1120141297578812e-01</leafValues></_>
        <_>
          <internalNodes>
            0 -1 155 6.2585689127445221e-02</internalNodes>
          <leafValues>
            -5.6495558470487595e-02 7.2909307479858398e-01</leafValues></_>
        <_>
          <internalNodes>
            0 -1 69 8.3631342276930809e-03</internalNodes>
          <leafValues>
            7.3996685445308685e-02 -6.2013739347457886e-01</leafValues></_>
        <_>
          <internalNodes>
            0 -1 134 9.4639230519533157e-03</internalNodes>
          <leafValues>
            -1.0935056209564209e-01 4.1113805770874023e-01</leafValues></_>
        <_>
          <internalNodes>
            0 -1 101 3.9424762129783630e-02</internalNodes>
          <leafValues>
            -9.5464147627353668e-02 4.6664363145828247e-01</leafValues></_>
        <_>
          <internalNodes>
            0 -1 200 2.3307949304580688e-03</internalNodes>
          <leafValues>
            6.8889982998371124e-02 -6.7151099443435669e-01</leafValues></_>
        <_>
          <internalNodes>
            0 -1 218 -2.9328573495149612e-02</internalNodes>
          <leafValues>
            2.4696806073188782e-01 -1.8575629591941833e-01</leafValues></_>
        <_>
          <internalNodes>
            0 -1 128 -2.4993654806166887e-03</internalNodes>
          <leafValues>
            2.8148809075355530e-01 -1.6836632788181305e-01</leafValues></_>
        <_>
          <internalNodes>
            0 -1 223 1.6486484557390213e-02</internalNodes>
          <leafValues>
            -1.3030646741390228e-01 4.0035703778266907e-01</leafValues></_>
        <_>
          <internalNodes>
            0 -1 244 3.4348521381616592e-02</internalNodes>
          <leafValues>
            -2.0927937328815460e-01 2.4248476326465607e-01</leafValues></_>
        <_>
          <internalNodes>
            0 -1 97 -6.3852071762084961e-03</internalNodes>
          <leafValues>
            -5.9646344184875488e-01 8.0271996557712555e-02</leafValues></_>
        <_>
          <internalNodes>
            0 -1 277 1.4520680531859398e-02</internalNodes>
          <leafValues>
            6.5190412104129791e-02 -6.7020601034164429e-01</leafValues></_>
        <_>
          <internalNodes>
            0 -1 268 6.6792350262403488e-03</internalNodes>
          <leafValues>
            4.5225698500871658e-02 -8.4182256460189819e-01</leafValues></_>
        <_>
          <internalNodes>
            0 -1 48 -1.4445579610764980e-02</internalNodes>
          <leafValues>
            -6.8827736377716064e-01 4.8838507384061813e-02</leafValues></_>
        <_>
          <internalNodes>
            0 -1 0 3.5788095556199551e-03</internalNodes>
          <leafValues>
            4.8944618552923203e-02 -7.2603297233581543e-01</leafValues></_>
        <_>
          <internalNodes>
            0 -1 80 1.1636551469564438e-02</internalNodes>
          <leafValues>
            -1.0230994969606400e-01 4.8376178741455078e-01</leafValues></_>
        <_>
          <internalNodes>
            0 -1 175 1.6223061829805374e-02</internalNodes>
          <leafValues>
            -1.2623567879199982e-01 3.3156463503837585e-01</leafValues></_>
        <_>
          <internalNodes>
            0 -1 76 -8.8781856000423431e-02</internalNodes>
          <leafValues>
            5.2184122800827026e-01 -1.0191792249679565e-01</leafValues></_></weakClassifiers></_>
    <!-- stage 15 -->
    <_>
      <maxWeakCount>23</maxWeakCount>
      <stageThreshold>-1.0547590255737305e+00</stageThreshold>
      <weakClassifiers>
        <_>
          <internalNodes>
            0 -1 16 -7.6960548758506775e-02</internalNodes>
          <leafValues>
            -1.9280205667018890e-01 -5.9774965047836304e-01</leafValues></_>
        <_>
          <internalNodes>
            0 -1 131 9.4911284744739532e-02</internalNodes>
          <leafValues>
            2.3798132315278053e-02 -6.2679386138916016e-01</leafValues></_>
        <_>
          <internalNodes>
            0 -1 189 4.6189554035663605e-02</internalNodes>
          <leafValues>
            -5.8162797242403030e-02 6.2241923809051514e-01</leafValues></_>
        <_>
          <internalNodes>
            0 -1 247 1.1930187232792377e-02</internalNodes>
          <leafValues>
            -6.1750862747430801e-02 6.1665683984756470e-01</leafValues></_>
        <_>
          <internalNodes>
            0 -1 161 4.1139356791973114e-02</internalNodes>
          <leafValues>
            -7.2442539036273956e-02 5.7102406024932861e-01</leafValues></_>
        <_>
          <internalNodes>
            0 -1 217 1.0144570842385292e-02</internalNodes>
          <leafValues>
            6.1526738107204437e-02 -7.2902852296829224e-01</leafValues></_>
        <_>
          <internalNodes>
            0 -1 235 -3.7863459438085556e-03</internalNodes>
          <leafValues>
            -5.4898762702941895e-01 6.7343339323997498e-02</leafValues></_>
        <_>
          <internalNodes>
            0 -1 73 2.0141098648309708e-02</internalNodes>
          <leafValues>
            -1.2504267692565918e-01 3.4654402732849121e-01</leafValues></_>
        <_>
          <internalNodes>
            0 -1 122 -1.0852096602320671e-02</internalNodes>
          <leafValues>
            4.0274310111999512e-01 -9.4038121402263641e-02</leafValues></_>
        <_>
          <internalNodes>
            0 -1 126 -1.6054229438304901e-01</internalNodes>
          <leafValues>
            -7.7973663806915283e-01 5.1307063549757004e-02</leafValues></_>
        <_>
          <internalNodes>
            0 -1 228 -1.1465670540928841e-02</internalNodes>
          <leafValues>
            3.4875962138175964e-01 -1.4842273294925690e-01</leafValues></_>
        <_>
          <internalNodes>
            0 -1 35 4.0627350099384785e-03</internalNodes>
          <leafValues>
            8.3651423454284668e-02 -4.8216199874877930e-01</leafValues></_>
        <_>
          <internalNodes>
            0 -1 273 2.1121790632605553e-03</internalNodes>
          <leafValues>
            4.3551951646804810e-02 -7.8580009937286377e-01</leafValues></_>
        <_>
          <internalNodes>
            0 -1 291 -1.3809237629175186e-02</internalNodes>
          <leafValues>
            -5.2497667074203491e-01 5.7294841855764389e-02</leafValues></_>
        <_>
          <internalNodes>
            0 -1 90 1.1185784637928009e-01</internalNodes>
          <leafValues>
            4.7191023826599121e-02 -8.4958887100219727e-01</leafValues></_>
        <_>
          <internalNodes>
            0 -1 63 -1.0414193384349346e-02</internalNodes>
          <leafValues>
            -6.6808217763900757e-01 4.1486777365207672e-02</leafValues></_>
        <_>
          <internalNodes>
            0 -1 152 -1.2788381427526474e-02</internalNodes>
          <leafValues>
            4.5844420790672302e-01 -9.3536935746669769e-02</leafValues></_>
        <_>
          <internalNodes>
            0 -1 138 1.3521673157811165e-02</internalNodes>
          <leafValues>
            -9.9261775612831116e-02 3.9769282937049866e-01</leafValues></_>
        <_>
          <internalNodes>
            0 -1 224 7.5338091701269150e-03</internalNodes>
          <leafValues>
            -1.5253992378711700e-01 2.5160399079322815e-01</leafValues></_>
        <_>
          <internalNodes>
            0 -1 276 1.9592531025409698e-03</internalNodes>
          <leafValues>
            9.3247391283512115e-02 -4.2826971411705017e-01</leafValues></_>
        <_>
          <internalNodes>
            0 -1 185 -2.0819954574108124e-02</internalNodes>
          <leafValues>
            3.4550553560256958e-01 -1.2511813640594482e-01</leafValues></_>
        <_>
          <internalNodes>
            0 -1 186 1.8554342910647392e-02</internalNodes>
          <leafValues>
            -8.0624997615814209e-02 5.1410007476806641e-01</leafValues></_>
        <_>
          <internalNodes>
            0 -1 53 -1.3710582256317139e-01</internalNodes>
          <leafValues>
            2.8378501534461975e-01 -1.7352181673049927e-01</leafValues></_></weakClassifiers></_>
    <!-- stage 16 -->
    <_>
      <maxWeakCount>23</maxWeakCount>
      <stageThreshold>-1.1111921072006226e+00</stageThreshold>
      <weakClassifiers>
        <_>
          <internalNodes>
            0 -1 245 -1.0625278577208519e-02</internalNodes>
          <leafValues>
            -5.3191490471363068e-02 -5.3728067874908447e-01</leafValues></_>
        <_>
          <internalNodes>
            0 -1 9 -6.3070533797144890e-03</internalNodes>
          <leafValues>
            -5.7037544250488281e-01 3.9003700017929077e-02</leafValues></_>
        <_>
          <internalNodes>
            0 -1 166 -1.3963399454951286e-02</internalNodes>
          <leafValues>
            9.3967162072658539e-02 -4.6324667334556580e-01</leafValues></_>
        <_>
          <internalNodes>
            0 -1 158 -1.1688733845949173e-01</internalNodes>
          <leafValues>
            -2.2992464900016785e-01 1.7974902689456940e-01</leafValues></_>
        <_>
          <internalNodes>
            0 -1 116 2.1573647856712341e-02</internalNodes>
          <leafValues>
            -4.3672103434801102e-02 5.9300017356872559e-01</leafValues></_>
        <_>
          <internalNodes>
            0 -1 250 -3.2643079757690430e-03</internalNodes>
          <leafValues>
            3.3017799258232117e-01 -1.1851364374160767e-01</leafValues></_>
        <_>
          <internalNodes>
            0 -1 22 7.1998629719018936e-03</internalNodes>
          <leafValues>
            -1.1738838255405426e-01 3.6733978986740112e-01</leafValues></_>
        <_>
          <internalNodes>
            0 -1 8 2.8707825113087893e-03</internalNodes>
          <leafValues>
            7.6529391109943390e-02 -5.1219892501831055e-01</leafValues></_>
        <_>
          <internalNodes>
            0 -1 92 1.2764497660100460e-03</internalNodes>
          <leafValues>
            8.3036519587039948e-02 -4.6841081976890564e-01</leafValues></_>
        <_>
          <internalNodes>
            0 -1 10 -1.3552097976207733e-01</internalNodes>
          <leafValues>
            2.0379060506820679e-01 -2.2908565402030945e-01</leafValues></_>
        <_>
          <internalNodes>
            0 -1 78 -1.0711958166211843e-03</internalNodes>
          <leafValues>
            -3.9720079302787781e-01 1.0604284703731537e-01</leafValues></_>
        <_>
          <internalNodes>
            0 -1 45 -8.8637508451938629e-03</internalNodes>
          <leafValues>
            -4.1670647263526917e-01 1.0850858688354492e-01</leafValues></_>
        <_>
          <internalNodes>
            0 -1 102 -9.3337610363960266e-02</internalNodes>
          <leafValues>
            2.6799514889717102e-01 -1.6672103106975555e-01</leafValues></_>
        <_>
          <internalNodes>
            0 -1 203 1.5098541975021362e-02</internalNodes>
          <leafValues>
            -1.2812811136245728e-01 3.4583988785743713e-01</leafValues></_>
        <_>
          <internalNodes>
            0 -1 59 1.1126357316970825e-01</internalNodes>
          <leafValues>
            8.5128322243690491e-02 -4.8495477437973022e-01</leafValues></_>
        <_>
          <internalNodes>
            0 -1 58 -2.1677434444427490e-01</internalNodes>
          <leafValues>
            -8.1981790065765381e-01 4.1904427111148834e-02</leafValues></_>
        <_>
          <internalNodes>
            0 -1 106 -3.8551159203052521e-02</internalNodes>
          <leafValues>
            5.2923250198364258e-01 -8.9948199689388275e-02</leafValues></_>
        <_>
          <internalNodes>
            0 -1 198 -4.7154929488897324e-03</internalNodes>
          <leafValues>
            -4.3002888560295105e-01 1.0078965872526169e-01</leafValues></_>
        <_>
          <internalNodes>
            0 -1 195 -4.6552205458283424e-03</internalNodes>
          <leafValues>
            -8.6274266242980957e-01 3.8105450570583344e-02</leafValues></_>
        <_>
          <internalNodes>
            0 -1 95 -1.0157439857721329e-02</internalNodes>
          <leafValues>
            4.1658633947372437e-01 -1.0688888281583786e-01</leafValues></_>
        <_>
          <internalNodes>
            0 -1 72 -6.4773283898830414e-02</internalNodes>
          <leafValues>
            9.2939323186874390e-01 -3.8791861385107040e-02</leafValues></_>
        <_>
          <internalNodes>
            0 -1 202 4.7454565763473511e-02</internalNodes>
          <leafValues>
            -7.5175359845161438e-02 4.5883303880691528e-01</leafValues></_>
        <_>
          <internalNodes>
            0 -1 120 -6.0971389757469296e-05</internalNodes>
          <leafValues>
            1.8422642350196838e-01 -2.2511728107929230e-01</leafValues></_></weakClassifiers></_>
    <!-- stage 17 -->
    <_>
      <maxWeakCount>24</maxWeakCount>
      <stageThreshold>-1.1830027103424072e+00</stageThreshold>
      <weakClassifiers>
        <_>
          <internalNodes>
            0 -1 254 1.3838981278240681e-02</internalNodes>
          <leafValues>
            -5.1703405380249023e-01 1.5686275064945221e-01</leafValues></_>
        <_>
          <internalNodes>
            0 -1 60 -2.7187196537852287e-02</internalNodes>
          <leafValues>
            4.9517223238945007e-01 -1.2758189439773560e-01</leafValues></_>
        <_>
          <internalNodes>
            0 -1 255 -7.0320959202945232e-03</internalNodes>
          <leafValues>
            3.8035562634468079e-01 -1.2099640071392059e-01</leafValues></_>
        <_>
          <internalNodes>
            0 -1 160 1.0857425630092621e-02</internalNodes>
          <leafValues>
            -8.9857578277587891e-02 4.3106350302696228e-01</leafValues></_>
        <_>
          <internalNodes>
            0 -1 34 -4.1017699986696243e-03</internalNodes>
          <leafValues>
            -6.3416826725006104e-01 7.3762282729148865e-02</leafValues></_>
        <_>
          <internalNodes>
            0 -1 297 2.4395126383751631e-03</internalNodes>
          <leafValues>
            7.9121999442577362e-02 -7.5894045829772949e-01</leafValues></_>
        <_>
          <internalNodes>
            0 -1 251 -6.7854709923267365e-03</internalNodes>
          <leafValues>
            2.5695526599884033e-01 -1.4990019798278809e-01</leafValues></_>
        <_>
          <internalNodes>
            0 -1 64 8.4980744868516922e-03</internalNodes>
          <leafValues>
            -1.3273188471794128e-01 3.3589383959770203e-01</leafValues></_>
        <_>
          <internalNodes>
            0 -1 284 -8.2212556153535843e-03</internalNodes>
          <leafValues>
            -6.7008298635482788e-01 5.5163238197565079e-02</leafValues></_>
        <_>
          <internalNodes>
            0 -1 168 1.1983524262905121e-01</internalNodes>
          <leafValues>
            4.5559987425804138e-02 -8.6055493354797363e-01</leafValues></_>
        <_>
          <internalNodes>
            0 -1 70 -2.5565510615706444e-02</internalNodes>
          <leafValues>
            1.9925588369369507e-01 -2.0569609105587006e-01</leafValues></_>
        <_>
          <internalNodes>
            0 -1 86 -3.1176425516605377e-02</internalNodes>
          <leafValues>
            4.1227915883064270e-01 -9.8958611488342285e-02</leafValues></_>
        <_>
          <internalNodes>
            0 -1 29 -8.0551002174615860e-03</internalNodes>
          <leafValues>
            -6.2108856439590454e-01 6.7859381437301636e-02</leafValues></_>
        <_>
          <internalNodes>
            0 -1 183 -5.1650997251272202e-02</internalNodes>
          <leafValues>
            4.9474501609802246e-01 -9.9262878298759460e-02</leafValues></_>
        <_>
          <internalNodes>
            0 -1 243 3.9687594398856163e-03</internalNodes>
          <leafValues>
            -1.2545658648014069e-01 3.8633105158805847e-01</leafValues></_>
        <_>
          <internalNodes>
            0 -1 133 -2.0454626530408859e-02</internalNodes>
          <leafValues>
            3.3075079321861267e-01 -1.4186829328536987e-01</leafValues></_>
        <_>
          <internalNodes>
            0 -1 280 1.6013231361284852e-03</internalNodes>
          <leafValues>
            6.0355674475431442e-02 -5.9277492761611938e-01</leafValues></_>
        <_>
          <internalNodes>
            0 -1 262 -8.2646659575402737e-04</internalNodes>
          <leafValues>
            -2.8840467333793640e-01 1.3030667603015900e-01</leafValues></_>
        <_>
          <internalNodes>
            0 -1 196 -1.7228895798325539e-02</internalNodes>
          <leafValues>
            -5.7193672657012939e-01 7.4611566960811615e-02</leafValues></_>
        <_>
          <internalNodes>
            0 -1 180 -1.4102703332901001e-01</internalNodes>
          <leafValues>
            -6.3582915067672729e-01 5.5678039789199829e-02</leafValues></_>
        <_>
          <internalNodes>
            0 -1 282 2.2097651381045580e-03</internalNodes>
          <leafValues>
            1.1043599992990494e-01 -3.6995288729667664e-01</leafValues></_>
        <_>
          <internalNodes>
            0 -1 209 -5.1950779743492603e-03</internalNodes>
          <leafValues>
            3.3270847797393799e-01 -1.3795579969882965e-01</leafValues></_>
        <_>
          <internalNodes>
            0 -1 246 3.3285440877079964e-03</internalNodes>
          <leafValues>
            -1.1631119251251221e-01 3.7828674912452698e-01</leafValues></_>
        <_>
          <internalNodes>
            0 -1 247 -1.5522157773375511e-03</internalNodes>
          <leafValues>
            3.0366498231887817e-01 -1.6739559173583984e-01</leafValues></_></weakClassifiers></_>
    <!-- stage 18 -->
    <_>
      <maxWeakCount>26</maxWeakCount>
      <stageThreshold>-1.0014823675155640e+00</stageThreshold>
      <weakClassifiers>
        <_>
          <internalNodes>
            0 -1 249 3.8495687767863274e-03</internalNodes>
          <leafValues>
            -5.1809722185134888e-01 7.5187971815466881e-03</leafValues></_>
        <_>
          <internalNodes>
            0 -1 98 -2.6974346488714218e-02</internalNodes>
          <leafValues>
            5.9391021728515625e-01 -1.0947386920452118e-01</leafValues></_>
        <_>
          <internalNodes>
            0 -1 115 -4.9599758349359035e-03</internalNodes>
          <leafValues>
            4.0940350294113159e-01 -8.3238430321216583e-02</leafValues></_>
        <_>
          <internalNodes>
            0 -1 221 -8.2760415971279144e-03</internalNodes>
          <leafValues>
            -5.9180933237075806e-01 6.2968894839286804e-02</leafValues></_>
        <_>
          <internalNodes>
            0 -1 222 -3.3133495599031448e-02</internalNodes>
          <leafValues>
            5.6243312358856201e-01 -5.6506242603063583e-02</leafValues></_>
        <_>
          <internalNodes>
            0 -1 241 -1.8477234989404678e-02</internalNodes>
          <leafValues>
            4.3665781617164612e-01 -8.4257647395133972e-02</leafValues></_>
        <_>
          <internalNodes>
            0 -1 109 1.3386328518390656e-01</internalNodes>
          <leafValues>
            4.6482600271701813e-02 -7.8954327106475830e-01</leafValues></_>
        <_>
          <internalNodes>
            0 -1 146 1.4932947233319283e-02</internalNodes>
          <leafValues>
            -1.7747648060321808e-01 2.5555729866027832e-01</leafValues></_>
        <_>
          <internalNodes>
            0 -1 259 2.2490262985229492e-02</internalNodes>
          <leafValues>
            -9.8818652331829071e-02 3.7745067477226257e-01</leafValues></_>
        <_>
          <internalNodes>
            0 -1 190 -1.6788451001048088e-02</internalNodes>
          <leafValues>
            3.2813170552253723e-01 -1.3177233934402466e-01</leafValues></_>
        <_>
          <internalNodes>
            0 -1 286 -1.1656510177999735e-03</internalNodes>
          <leafValues>
            -5.1196926832199097e-01 6.5758571028709412e-02</leafValues></_>
        <_>
          <internalNodes>
            0 -1 215 5.3403927013278008e-03</internalNodes>
          <leafValues>
            -6.1112873256206512e-02 4.9493193626403809e-01</leafValues></_>
        <_>
          <internalNodes>
            0 -1 204 -3.1378967687487602e-03</internalNodes>
          <leafValues>
            2.3346965014934540e-01 -1.5888538956642151e-01</leafValues></_>
        <_>
          <internalNodes>
            0 -1 264 -2.9753390699625015e-03</internalNodes>
          <leafValues>
            -5.1672488451004028e-01 6.0522090643644333e-02</leafValues></_>
        <_>
          <internalNodes>
            0 -1 257 -5.7104185223579407e-02</internalNodes>
          <leafValues>
            6.6533714532852173e-01 -4.9125187098979950e-02</leafValues></_>
        <_>
          <internalNodes>
            0 -1 125 -8.9874099940061569e-03</internalNodes>
          <leafValues>
            -6.0271102190017700e-01 6.1903722584247589e-02</leafValues></_>
        <_>
          <internalNodes>
            0 -1 127 7.5778225436806679e-03</internalNodes>
          <leafValues>
            -9.3603715300559998e-02 3.8580703735351563e-01</leafValues></_>
        <_>
          <internalNodes>
            0 -1 182 -1.1200725287199020e-01</internalNodes>
          <leafValues>
            -6.7056196928024292e-01 6.7280635237693787e-02</leafValues></_>
        <_>
          <internalNodes>
            0 -1 212 -2.6563920080661774e-02</internalNodes>
          <leafValues>
            4.6918326616287231e-01 -9.7347132861614227e-02</leafValues></_>
        <_>
          <internalNodes>
            0 -1 216 -1.6762509476393461e-03</internalNodes>
          <leafValues>
            -5.7718658447265625e-01 7.2506010532379150e-02</leafValues></_>
        <_>
          <internalNodes>
            0 -1 233 5.1602376624941826e-03</internalNodes>
          <leafValues>
            -1.1432733386754990e-01 3.5989454388618469e-01</leafValues></_>
        <_>
          <internalNodes>
            0 -1 261 -5.4121194407343864e-03</internalNodes>
          <leafValues>
            3.5524061322212219e-01 -1.0896883904933929e-01</leafValues></_>
        <_>
          <internalNodes>
            0 -1 121 1.7142813652753830e-02</internalNodes>
          <leafValues>
            -6.5972566604614258e-02 6.3517683744430542e-01</leafValues></_>
        <_>
          <internalNodes>
            0 -1 294 5.2987872622907162e-03</internalNodes>
          <leafValues>
            8.7458446621894836e-02 -5.5904257297515869e-01</leafValues></_>
        <_>
          <internalNodes>
            0 -1 31 -2.7494754642248154e-02</internalNodes>
          <leafValues>
            2.5320744514465332e-01 -1.6182951629161835e-01</leafValues></_>
        <_>
          <internalNodes>
            0 -1 151 -2.4439100176095963e-02</internalNodes>
          <leafValues>
            5.8137440681457520e-01 -6.6903829574584961e-02</leafValues></_></weakClassifiers></_>
    <!-- stage 19 -->
    <_>
      <maxWeakCount>29</maxWeakCount>
      <stageThreshold>-1.0859012603759766e+00</stageThreshold>
      <weakClassifiers>
        <_>
          <internalNodes>
            0 -1 82 3.5644739866256714e-02</internalNodes>
          <leafValues>
            -5.3477764129638672e-01 -1.3901345431804657e-01</leafValues></_>
        <_>
          <internalNodes>
            0 -1 26 -3.9545763283967972e-03</internalNodes>
          <leafValues>
            -6.6042572259902954e-01 1.5838379040360451e-02</leafValues></_>
        <_>
          <internalNodes>
            0 -1 3 -7.6518118381500244e-02</internalNodes>
          <leafValues>
            1.5437668561935425e-01 -3.0589962005615234e-01</leafValues></_>
        <_>
          <internalNodes>
            0 -1 91 -1.4231333136558533e-01</internalNodes>
          <leafValues>
            -2.2131793200969696e-01 1.6819480061531067e-01</leafValues></_>
        <_>
          <internalNodes>
            0 -1 231 2.4130642414093018e-03</internalNodes>
          <leafValues>
            -1.3854235410690308e-01 2.4537469446659088e-01</leafValues></_>
        <_>
          <internalNodes>
            0 -1 54 1.1851103976368904e-02</internalNodes>
          <leafValues>
            3.8819339126348495e-02 -8.5144031047821045e-01</leafValues></_>
        <_>
          <internalNodes>
            0 -1 19 2.4706605821847916e-02</internalNodes>
          <leafValues>
            -8.7613701820373535e-02 4.5399236679077148e-01</leafValues></_>
        <_>
          <internalNodes>
            0 -1 229 9.9717099219560623e-03</internalNodes>
          <leafValues>
            -1.7777204513549805e-01 2.4278593063354492e-01</leafValues></_>
        <_>
          <internalNodes>
            0 -1 140 7.5599933043122292e-03</internalNodes>
          <leafValues>
            5.7160854339599609e-02 -5.7159435749053955e-01</leafValues></_>
        <_>
          <internalNodes>
            0 -1 178 -1.0182433761656284e-03</internalNodes>
          <leafValues>
            -2.6939395070075989e-01 1.3281227648258209e-01</leafValues></_>
        <_>
          <internalNodes>
            0 -1 139 8.8227819651365280e-03</internalNodes>
          <leafValues>
            5.5614169687032700e-02 -5.7234895229339600e-01</leafValues></_>
        <_>
          <internalNodes>
            0 -1 253 -5.0318967550992966e-03</internalNodes>
          <leafValues>
            4.3255683779716492e-01 -9.5138080418109894e-02</leafValues></_>
        <_>
          <internalNodes>
            0 -1 94 8.3003349602222443e-02</internalNodes>
          <leafValues>
            4.1443090885877609e-02 -9.5606410503387451e-01</leafValues></_>
        <_>
          <internalNodes>
            0 -1 93 4.3345216661691666e-02</internalNodes>
          <leafValues>
            -1.2962973117828369e-01 2.8654077649116516e-01</leafValues></_>
        <_>
          <internalNodes>
            0 -1 145 -4.2376521974802017e-02</internalNodes>
          <leafValues>
            7.3661059141159058e-01 -4.8829991370439529e-02</leafValues></_>
        <_>
          <internalNodes>
            0 -1 75 2.4207524955272675e-02</internalNodes>
          <leafValues>
            -1.2788261473178864e-01 3.0909594893455505e-01</leafValues></_>
        <_>
          <internalNodes>
            0 -1 96 3.8061207160353661e-03</internalNodes>
          <leafValues>
            1.1406887322664261e-01 -3.2489171624183655e-01</leafValues></_>
        <_>
          <internalNodes>
            0 -1 256 2.8573224321007729e-02</internalNodes>
          <leafValues>
            -1.1860571056604385e-01 3.4358868002891541e-01</leafValues></_>
        <_>
          <internalNodes>
            0 -1 194 -5.3382141049951315e-04</internalNodes>
          <leafValues>
            2.4387602508068085e-01 -1.7635719478130341e-01</leafValues></_>
        <_>
          <internalNodes>
            0 -1 266 1.5395893715322018e-02</internalNodes>
          <leafValues>
            -8.0025553703308105e-02 4.6079629659652710e-01</leafValues></_>
        <_>
          <internalNodes>
            0 -1 289 -3.9870846085250378e-03</internalNodes>
          <leafValues>
            -6.7270678281784058e-01 5.8156389743089676e-02</leafValues></_>
        <_>
          <internalNodes>
            0 -1 30 1.8594815628603101e-04</internalNodes>
          <leafValues>
            -1.7223422229290009e-01 2.0500002801418304e-01</leafValues></_>
        <_>
          <internalNodes>
            0 -1 220 1.4404747635126114e-03</internalNodes>
          <leafValues>
            -1.4128960669040680e-01 2.7423256635665894e-01</leafValues></_>
        <_>
          <internalNodes>
            0 -1 157 -1.1888961307704449e-02</internalNodes>
          <leafValues>
            3.9408385753631592e-01 -9.5580548048019409e-02</leafValues></_>
        <_>
          <internalNodes>
            0 -1 265 -1.7066499218344688e-02</internalNodes>
          <leafValues>
            7.4686843156814575e-01 -4.9922544509172440e-02</leafValues></_>
        <_>
          <internalNodes>
            0 -1 278 1.1736243963241577e-02</internalNodes>
          <leafValues>
            6.6477924585342407e-02 -7.2066020965576172e-01</leafValues></_>
        <_>
          <internalNodes>
            0 -1 199 1.9786792108789086e-04</internalNodes>
          <leafValues>
            -1.4922560751438141e-01 2.4631088972091675e-01</leafValues></_>
        <_>
          <internalNodes>
            0 -1 249 -7.1758953854441643e-03</internalNodes>
          <leafValues>
            6.1729127168655396e-01 -6.2675379216670990e-02</leafValues></_>
        <_>
          <internalNodes>
            0 -1 14 -5.4500233381986618e-03</internalNodes>
          <leafValues>
            -4.5949682593345642e-01 8.9449107646942139e-02</leafValues></_></weakClassifiers></_></stages>
  <features>
    <_>
      <rects>
        <_>
          0 0 2 4 -1.</_>
        <_>
          0 0 1 2 2.</_>
        <_>
          1 2 1 2 2.</_></rects>
      <tilted>0</tilted></_>
    <_>
      <rects>
        <_>
          0 0 1 8 -1.</_>
        <_>
          0 4 1 4 2.</_></rects>
      <tilted>0</tilted></_>
    <_>
      <rects>
        <_>
          0 0 1 12 -1.</_>
        <_>
          0 6 1 6 2.</_></rects>
      <tilted>0</tilted></_>
    <_>
      <rects>
        <_>
          0 0 5 3 -1.</_>
        <_>
          0 1 5 1 2.</_></rects>
      <tilted>0</tilted></_>
    <_>
      <rects>
        <_>
          0 0 12 2 -1.</_>
        <_>
          6 0 6 2 2.</_></rects>
      <tilted>0</tilted></_>
    <_>
      <rects>
        <_>
          0 0 20 18 -1.</_>
        <_>
          10 0 10 18 2.</_></rects>
      <tilted>0</tilted></_>
    <_>
      <rects>
        <_>
          0 0 20 20 -1.</_>
        <_>
          10 0 10 20 2.</_></rects>
      <tilted>0</tilted></_>
    <_>
      <rects>
        <_>
          0 0 20 20 -1.</_>
        <_>
          0 10 20 10 2.</_></rects>
      <tilted>0</tilted></_>
    <_>
      <rects>
        <_>
          0 1 2 4 -1.</_>
        <_>
          1 1 1 4 2.</_></rects>
      <tilted>0</tilted></_>
    <_>
      <rects>
        <_>
          0 1 1 8 -1.</_>
        <_>
          0 5 1 4 2.</_></rects>
      <tilted>0</tilted></_>
    <_>
      <rects>
        <_>
          0 1 2 12 -1.</_>
        <_>
          0 5 2 4 2.</_></rects>
      <tilted>0</tilted></_>
    <_>
      <rects>
        <_>
          0 1 19 18 -1.</_>
        <_>
          0 10 19 9 2.</_></rects>
      <tilted>0</tilted></_>
    <_>
      <rects>
        <_>
          0 2 1 6 -1.</_>
        <_>
          0 5 1 3 2.</_></rects>
      <tilted>0</tilted></_>
    <_>
      <rects>
        <_>
          0 2 1 18 -1.</_>
        <_>
          0 11 1 9 2.</_></rects>
      <tilted>0</tilted></_>
    <_>
      <rects>
        <_>
          0 2 2 12 -1.</_>
        <_>
          1 2 1 12 2.</_></rects>
      <tilted>0</tilted></_>
    <_>
      <rects>
        <_>
          0 2 2 2 -1.</_>
        <_>
          0 3 2 1 2.</_></rects>
      <tilted>0</tilted></_>
    <_>
      <rects>
        <_>
          0 2 8 16 -1.</_>
        <_>
          4 2 4 16 2.</_></rects>
      <tilted>0</tilted></_>
    <_>
      <rects>
        <_>
          0 2 20 18 -1.</_>
        <_>
          10 2 10 18 2.</_></rects>
      <tilted>0</tilted></_>
    <_>
      <rects>
        <_>
          0 3 2 1 -1.</_>
        <_>
          1 3 1 1 2.</_></rects>
      <tilted>0</tilted></_>
    <_>
      <rects>
        <_>
          0 3 12 4 -1.</_>
        <_>
          0 5 12 2 2.</_></rects>
      <tilted>0</tilted></_>
    <_>
      <rects>
        <_>
          0 4 1 6 -1.</_>
        <_>
          0 7 1 3 2.</_></rects>
      <tilted>0</tilted></_>
    <_>
      <rects>
        <_>
          0 4 2 16 -1.</_>
        <_>
          0 12 2 8 2.</_></rects>
      <tilted>0</tilted></_>
    <_>
      <rects>
        <_>
          0 4 8 4 -1.</_>
        <_>
          0 4 4 2 2.</_>
        <_>
          4 6 4 2 2.</_></rects>
      <tilted>0</tilted></_>
    <_>
      <rects>
        <_>
          0 4 8 13 -1.</_>
        <_>
          4 4 4 13 2.</_></rects>
      <tilted>0</tilted></_>
    <_>
      <rects>
        <_>
          0 4 10 9 -1.</_>
        <_>
          5 4 5 9 2.</_></rects>
      <tilted>0</tilted></_>
    <_>
      <rects>
        <_>
          0 4 10 13 -1.</_>
        <_>
          5 4 5 13 2.</_></rects>
      <tilted>0</tilted></_>
    <_>
      <rects>
        <_>
          0 5 1 4 -1.</_>
        <_>
          0 7 1 2 2.</_></rects>
      <tilted>0</tilted></_>
    <_>
      <rects>
        <_>
          0 5 10 11 -1.</_>
        <_>
          5 5 5 11 2.</_></rects>
      <tilted>0</tilted></_>
    <_>
      <rects>
        <_>
          0 6 10 11 -1.</_>
        <_>
          5 6 5 11 2.</_></rects>
      <tilted>0</tilted></_>
    <_>
      <rects>
        <_>
          0 8 1 10 -1.</_>
        <_>
          0 13 1 5 2.</_></rects>
      <tilted>0</tilted></_>
    <_>
      <rects>
        <_>
          0 9 2 2 -1.</_>
        <_>
          0 9 1 1 2.</_>
        <_>
          1 10 1 1 2.</_></rects>
      <tilted>0</tilted></_>
    <_>
      <rects>
        <_>
          0 9 8 3 -1.</_>
        <_>
          4 9 4 3 2.</_></rects>
      <tilted>0</tilted></_>
    <_>
      <rects>
        <_>
          0 11 1 2 -1.</_>
        <_>
          0 12 1 1 2.</_></rects>
      <tilted>0</tilted></_>
    <_>
      <rects>
        <_>
          0 11 2 4 -1.</_>
        <_>
          0 11 1 2 2.</_>
        <_>
          1 13 1 2 2.</_></rects>
      <tilted>0</tilted></_>
    <_>
      <rects>
        <_>
          0 11 2 6 -1.</_>
        <_>
          0 11 1 3 2.</_>
        <_>
          1 14 1 3 2.</_></rects>
      <tilted>0</tilted></_>
    <_>
      <rects>
        <_>
          0 11 2 9 -1.</_>
        <_>
          1 11 1 9 2.</_></rects>
      <tilted>0</tilted></_>
    <_>
      <rects>
        <_>
          0 11 2 8 -1.</_>
        <_>
          0 15 2 4 2.</_></rects>
      <tilted>0</tilted></_>
    <_>
      <rects>
        <_>
          0 12 6 2 -1.</_>
        <_>
          0 12 3 1 2.</_>
        <_>
          3 13 3 1 2.</_></rects>
      <tilted>0</tilted></_>
    <_>
      <rects>
        <_>
          0 13 2 1 -1.</_>
        <_>
          1 13 1 1 2.</_></rects>
      <tilted>0</tilted></_>
    <_>
      <rects>
        <_>
          0 13 2 2 -1.</_>
        <_>
          1 13 1 2 2.</_></rects>
      <tilted>0</tilted></_>
    <_>
      <rects>
        <_>
          0 13 1 6 -1.</_>
        <_>
          0 16 1 3 2.</_></rects>
      <tilted>0</tilted></_>
    <_>
      <rects>
        <_>
          0 14 2 2 -1.</_>
        <_>
          0 14 1 1 2.</_>
        <_>
          1 15 1 1 2.</_></rects>
      <tilted>0</tilted></_>
    <_>
      <rects>
        <_>
          0 14 4 6 -1.</_>
        <_>
          0 14 2 3 2.</_>
        <_>
          2 17 2 3 2.</_></rects>
      <tilted>0</tilted></_>
    <_>
      <rects>
        <_>
          0 14 15 5 -1.</_>
        <_>
          5 14 5 5 2.</_></rects>
      <tilted>0</tilted></_>
    <_>
      <rects>
        <_>
          0 15 2 2 -1.</_>
        <_>
          0 15 1 1 2.</_>
        <_>
          1 16 1 1 2.</_></rects>
      <tilted>0</tilted></_>
    <_>
      <rects>
        <_>
          0 15 6 5 -1.</_>
        <_>
          3 15 3 5 2.</_></rects>
      <tilted>0</tilted></_>
    <_>
      <rects>
        <_>
          0 16 2 3 -1.</_>
        <_>
          1 16 1 3 2.</_></rects>
      <tilted>0</tilted></_>
    <_>
      <rects>
        <_>
          0 16 14 4 -1.</_>
        <_>
          0 16 7 2 2.</_>
        <_>
          7 18 7 2 2.</_></rects>
      <tilted>0</tilted></_>
    <_>
      <rects>
        <_>
          0 18 10 1 -1.</_>
        <_>
          5 18 5 1 2.</_></rects>
      <tilted>0</tilted></_>
    <_>
      <rects>
        <_>
          0 19 6 1 -1.</_>
        <_>
          3 19 3 1 2.</_></rects>
      <tilted>0</tilted></_>
    <_>
      <rects>
        <_>
          0 19 18 1 -1.</_>
        <_>
          9 19 9 1 2.</_></rects>
      <tilted>0</tilted></_>
    <_>
      <rects>
        <_>
          1 0 6 1 -1.</_>
        <_>
          4 0 3 1 2.</_></rects>
      <tilted>0</tilted></_>
    <_>
      <rects>
        <_>
          1 0 14 2 -1.</_>
        <_>
          8 0 7 2 2.</_></rects>
      <tilted>0</tilted></_>
    <_>
      <rects>
        <_>
          1 0 18 10 -1.</_>
        <_>
          1 5 18 5 2.</_></rects>
      <tilted>0</tilted></_>
    <_>
      <rects>
        <_>
          1 1 1 10 -1.</_>
        <_>
          1 6 1 5 2.</_></rects>
      <tilted>0</tilted></_>
    <_>
      <rects>
        <_>
          1 1 15 8 -1.</_>
        <_>
          1 5 15 4 2.</_></rects>
      <tilted>0</tilted></_>
    <_>
      <rects>
        <_>
          1 2 7 6 -1.</_>
        <_>
          1 4 7 2 2.</_></rects>
      <tilted>0</tilted></_>
    <_>
      <rects>
        <_>
          1 3 1 14 -1.</_>
        <_>
          1 10 1 7 2.</_></rects>
      <tilted>0</tilted></_>
    <_>
      <rects>
        <_>
          1 3 18 16 -1.</_>
        <_>
          10 3 9 16 2.</_></rects>
      <tilted>0</tilted></_>
    <_>
      <rects>
        <_>
          1 6 18 8 -1.</_>
        <_>
          10 6 9 8 2.</_></rects>
      <tilted>0</tilted></_>
    <_>
      <rects>
        <_>
          1 7 6 2 -1.</_>
        <_>
          4 7 3 2 2.</_></rects>
      <tilted>0</tilted></_>
    <_>
      <rects>
        <_>
          1 8 8 5 -1.</_>
        <_>
          5 8 4 5 2.</_></rects>
      <tilted>0</tilted></_>
    <_>
      <rects>
        <_>
          1 8 8 6 -1.</_>
        <_>
          5 8 4 6 2.</_></rects>
      <tilted>0</tilted></_>
    <_>
      <rects>
        <_>
          1 13 8 2 -1.</_>
        <_>
          1 14 8 1 2.</_></rects>
      <tilted>0</tilted></_>
    <_>
      <rects>
        <_>
          1 14 10 2 -1.</_>
        <_>
          6 14 5 2 2.</_></rects>
      <tilted>0</tilted></_>
    <_>
      <rects>
        <_>
          1 16 2 2 -1.</_>
        <_>
          1 16 1 1 2.</_>
        <_>
          2 17 1 1 2.</_></rects>
      <tilted>0</tilted></_>
    <_>
      <rects>
        <_>
          1 18 2 2 -1.</_>
        <_>
          1 19 2 1 2.</_></rects>
      <tilted>0</tilted></_>
    <_>
      <rects>
        <_>
          1 18 4 2 -1.</_>
        <_>
          3 18 2 2 2.</_></rects>
      <tilted>0</tilted></_>
    <_>
      <rects>
        <_>
          1 19 4 1 -1.</_>
        <_>
          3 19 2 1 2.</_></rects>
      <tilted>0</tilted></_>
    <_>
      <rects>
        <_>
          1 19 8 1 -1.</_>
        <_>
          5 19 4 1 2.</_></rects>
      <tilted>0</tilted></_>
    <_>
      <rects>
        <_>
          2 0 6 13 -1.</_>
        <_>
          5 0 3 13 2.</_></rects>
      <tilted>0</tilted></_>
    <_>
      <rects>
        <_>
          2 0 12 1 -1.</_>
        <_>
          8 0 6 1 2.</_></rects>
      <tilted>0</tilted></_>
    <_>
      <rects>
        <_>
          2 1 6 4 -1.</_>
        <_>
          2 3 6 2 2.</_></rects>
      <tilted>0</tilted></_>
    <_>
      <rects>
        <_>
          2 1 16 4 -1.</_>
        <_>
          2 1 8 2 2.</_>
        <_>
          10 3 8 2 2.</_></rects>
      <tilted>0</tilted></_>
    <_>
      <rects>
        <_>
          2 3 18 16 -1.</_>
        <_>
          11 3 9 16 2.</_></rects>
      <tilted>0</tilted></_>
    <_>
      <rects>
        <_>
          2 4 16 6 -1.</_>
        <_>
          2 4 8 3 2.</_>
        <_>
          10 7 8 3 2.</_></rects>
      <tilted>0</tilted></_>
    <_>
      <rects>
        <_>
          2 6 9 8 -1.</_>
        <_>
          2 10 9 4 2.</_></rects>
      <tilted>0</tilted></_>
    <_>
      <rects>
        <_>
          2 16 2 3 -1.</_>
        <_>
          3 16 1 3 2.</_></rects>
      <tilted>0</tilted></_>
    <_>
      <rects>
        <_>
          2 17 2 2 -1.</_>
        <_>
          2 18 2 1 2.</_></rects>
      <tilted>0</tilted></_>
    <_>
      <rects>
        <_>
          2 19 14 1 -1.</_>
        <_>
          9 19 7 1 2.</_></rects>
      <tilted>0</tilted></_>
    <_>
      <rects>
        <_>
          3 0 5 4 -1.</_>
        <_>
          3 2 5 2 2.</_></rects>
      <tilted>0</tilted></_>
    <_>
      <rects>
        <_>
          3 1 6 14 -1.</_>
        <_>
          3 1 3 7 2.</_>
        <_>
          6 8 3 7 2.</_></rects>
      <tilted>0</tilted></_>
    <_>
      <rects>
        <_>
          3 1 3 16 -1.</_>
        <_>
          3 9 3 8 2.</_></rects>
      <tilted>0</tilted></_>
    <_>
      <rects>
        <_>
          3 1 15 9 -1.</_>
        <_>
          3 4 15 3 2.</_></rects>
      <tilted>0</tilted></_>
    <_>
      <rects>
        <_>
          3 3 10 16 -1.</_>
        <_>
          8 3 5 16 2.</_></rects>
      <tilted>0</tilted></_>
    <_>
      <rects>
        <_>
          3 3 14 12 -1.</_>
        <_>
          3 3 7 6 2.</_>
        <_>
          10 9 7 6 2.</_></rects>
      <tilted>0</tilted></_>
    <_>
      <rects>
        <_>
          3 5 14 2 -1.</_>
        <_>
          10 5 7 2 2.</_></rects>
      <tilted>0</tilted></_>
    <_>
      <rects>
        <_>
          3 7 6 9 -1.</_>
        <_>
          6 7 3 9 2.</_></rects>
      <tilted>0</tilted></_>
    <_>
      <rects>
        <_>
          3 7 14 4 -1.</_>
        <_>
          3 7 7 2 2.</_>
        <_>
          10 9 7 2 2.</_></rects>
      <tilted>0</tilted></_>
    <_>
      <rects>
        <_>
          3 8 12 12 -1.</_>
        <_>
          3 14 12 6 2.</_></rects>
      <tilted>0</tilted></_>
    <_>
      <rects>
        <_>
          3 10 10 6 -1.</_>
        <_>
          8 10 5 6 2.</_></rects>
      <tilted>0</tilted></_>
    <_>
      <rects>
        <_>
          3 12 12 2 -1.</_>
        <_>
          7 12 4 2 2.</_></rects>
      <tilted>0</tilted></_>
    <_>
      <rects>
        <_>
          3 13 1 2 -1.</_>
        <_>
          3 14 1 1 2.</_></rects>
      <tilted>0</tilted></_>
    <_>
      <rects>
        <_>
          3 14 12 6 -1.</_>
        <_>
          3 17 12 3 2.</_></rects>
      <tilted>0</tilted></_>
    <_>
      <rects>
        <_>
          3 14 16 4 -1.</_>
        <_>
          3 16 16 2 2.</_></rects>
      <tilted>0</tilted></_>
    <_>
      <rects>
        <_>
          3 15 8 4 -1.</_>
        <_>
          3 15 4 2 2.</_>
        <_>
          7 17 4 2 2.</_></rects>
      <tilted>0</tilted></_>
    <_>
      <rects>
        <_>
          3 16 3 4 -1.</_>
        <_>
          3 18 3 2 2.</_></rects>
      <tilted>0</tilted></_>
    <_>
      <rects>
        <_>
          3 17 9 2 -1.</_>
        <_>
          3 18 9 1 2.</_></rects>
      <tilted>0</tilted></_>
    <_>
      <rects>
        <_>
          4 0 2 6 -1.</_>
        <_>
          4 3 2 3 2.</_></rects>
      <tilted>0</tilted></_>
    <_>
      <rects>
        <_>
          4 0 9 1 -1.</_>
        <_>
          7 0 3 1 2.</_></rects>
      <tilted>0</tilted></_>
    <_>
      <rects>
        <_>
          4 0 10 1 -1.</_>
        <_>
          9 0 5 1 2.</_></rects>
      <tilted>0</tilted></_>
    <_>
      <rects>
        <_>
          4 0 12 6 -1.</_>
        <_>
          4 0 6 3 2.</_>
        <_>
          10 3 6 3 2.</_></rects>
      <tilted>0</tilted></_>
    <_>
      <rects>
        <_>
          4 0 6 12 -1.</_>
        <_>
          4 6 6 6 2.</_></rects>
      <tilted>0</tilted></_>
    <_>
      <rects>
        <_>
          4 1 8 1 -1.</_>
        <_>
          8 1 4 1 2.</_></rects>
      <tilted>0</tilted></_>
    <_>
      <rects>
        <_>
          4 2 14 18 -1.</_>
        <_>
          4 11 14 9 2.</_></rects>
      <tilted>0</tilted></_>
    <_>
      <rects>
        <_>
          4 10 4 8 -1.</_>
        <_>
          4 10 2 4 2.</_>
        <_>
          6 14 2 4 2.</_></rects>
      <tilted>0</tilted></_>
    <_>
      <rects>
        <_>
          4 11 4 6 -1.</_>
        <_>
          6 11 2 6 2.</_></rects>
      <tilted>0</tilted></_>
    <_>
      <rects>
        <_>
          5 0 4 1 -1.</_>
        <_>
          7 0 2 1 2.</_></rects>
      <tilted>0</tilted></_>
    <_>
      <rects>
        <_>
          5 1 4 4 -1.</_>
        <_>
          5 3 4 2 2.</_></rects>
      <tilted>0</tilted></_>
    <_>
      <rects>
        <_>
          5 3 8 13 -1.</_>
        <_>
          9 3 4 13 2.</_></rects>
      <tilted>0</tilted></_>
    <_>
      <rects>
        <_>
          5 5 4 10 -1.</_>
        <_>
          5 5 2 5 2.</_>
        <_>
          7 10 2 5 2.</_></rects>
      <tilted>0</tilted></_>
    <_>
      <rects>
        <_>
          5 6 4 10 -1.</_>
        <_>
          5 6 2 5 2.</_>
        <_>
          7 11 2 5 2.</_></rects>
      <tilted>0</tilted></_>
    <_>
      <rects>
        <_>
          5 7 14 6 -1.</_>
        <_>
          5 7 7 3 2.</_>
        <_>
          12 10 7 3 2.</_></rects>
      <tilted>0</tilted></_>
    <_>
      <rects>
        <_>
          5 10 2 7 -1.</_>
        <_>
          6 10 1 7 2.</_></rects>
      <tilted>0</tilted></_>
    <_>
      <rects>
        <_>
          5 10 4 4 -1.</_>
        <_>
          7 10 2 4 2.</_></rects>
      <tilted>0</tilted></_>
    <_>
      <rects>
        <_>
          5 12 2 2 -1.</_>
        <_>
          6 12 1 2 2.</_></rects>
      <tilted>0</tilted></_>
    <_>
      <rects>
        <_>
          5 12 4 3 -1.</_>
        <_>
          7 12 2 3 2.</_></rects>
      <tilted>0</tilted></_>
    <_>
      <rects>
        <_>
          6 0 2 20 -1.</_>
        <_>
          6 0 1 10 2.</_>
        <_>
          7 10 1 10 2.</_></rects>
      <tilted>0</tilted></_>
    <_>
      <rects>
        <_>
          6 0 2 3 -1.</_>
        <_>
          6 1 2 1 2.</_></rects>
      <tilted>0</tilted></_>
    <_>
      <rects>
        <_>
          6 0 3 12 -1.</_>
        <_>
          6 6 3 6 2.</_></rects>
      <tilted>0</tilted></_>
    <_>
      <rects>
        <_>
          6 0 10 2 -1.</_>
        <_>
          6 0 5 1 2.</_>
        <_>
          11 1 5 1 2.</_></rects>
      <tilted>0</tilted></_>
    <_>
      <rects>
        <_>
          6 0 9 2 -1.</_>
        <_>
          6 1 9 1 2.</_></rects>
      <tilted>0</tilted></_>
    <_>
      <rects>
        <_>
          6 1 10 4 -1.</_>
        <_>
          6 1 5 2 2.</_>
        <_>
          11 3 5 2 2.</_></rects>
      <tilted>0</tilted></_>
    <_>
      <rects>
        <_>
          6 1 6 9 -1.</_>
        <_>
          6 4 6 3 2.</_></rects>
      <tilted>0</tilted></_>
    <_>
      <rects>
        <_>
          6 6 2 6 -1.</_>
        <_>
          6 9 2 3 2.</_></rects>
      <tilted>0</tilted></_>
    <_>
      <rects>
        <_>
          6 6 6 2 -1.</_>
        <_>
          6 6 3 1 2.</_>
        <_>
          9 7 3 1 2.</_></rects>
      <tilted>0</tilted></_>
    <_>
      <rects>
        <_>
          6 6 12 12 -1.</_>
        <_>
          12 6 6 12 2.</_></rects>
      <tilted>0</tilted></_>
    <_>
      <rects>
        <_>
          6 6 7 2 -1.</_>
        <_>
          6 7 7 1 2.</_></rects>
      <tilted>0</tilted></_>
    <_>
      <rects>
        <_>
          6 8 2 6 -1.</_>
        <_>
          6 8 1 3 2.</_>
        <_>
          7 11 1 3 2.</_></rects>
      <tilted>0</tilted></_>
    <_>
      <rects>
        <_>
          6 8 4 8 -1.</_>
        <_>
          8 8 2 8 2.</_></rects>
      <tilted>0</tilted></_>
    <_>
      <rects>
        <_>
          6 8 4 4 -1.</_>
        <_>
          6 10 4 2 2.</_></rects>
      <tilted>0</tilted></_>
    <_>
      <rects>
        <_>
          6 8 10 8 -1.</_>
        <_>
          11 8 5 8 2.</_></rects>
      <tilted>0</tilted></_>
    <_>
      <rects>
        <_>
          6 9 2 5 -1.</_>
        <_>
          7 9 1 5 2.</_></rects>
      <tilted>0</tilted></_>
    <_>
      <rects>
        <_>
          6 9 4 10 -1.</_>
        <_>
          8 9 2 10 2.</_></rects>
      <tilted>0</tilted></_>
    <_>
      <rects>
        <_>
          6 10 2 7 -1.</_>
        <_>
          7 10 1 7 2.</_></rects>
      <tilted>0</tilted></_>
    <_>
      <rects>
        <_>
          6 10 2 8 -1.</_>
        <_>
          7 10 1 8 2.</_></rects>
      <tilted>0</tilted></_>
    <_>
      <rects>
        <_>
          6 10 4 7 -1.</_>
        <_>
          8 10 2 7 2.</_></rects>
      <tilted>0</tilted></_>
    <_>
      <rects>
        <_>
          6 10 9 10 -1.</_>
        <_>
          6 15 9 5 2.</_></rects>
      <tilted>0</tilted></_>
    <_>
      <rects>
        <_>
          6 11 4 6 -1.</_>
        <_>
          6 11 2 3 2.</_>
        <_>
          8 14 2 3 2.</_></rects>
      <tilted>0</tilted></_>
    <_>
      <rects>
        <_>
          6 19 8 1 -1.</_>
        <_>
          10 19 4 1 2.</_></rects>
      <tilted>0</tilted></_>
    <_>
      <rects>
        <_>
          7 0 8 1 -1.</_>
        <_>
          11 0 4 1 2.</_></rects>
      <tilted>0</tilted></_>
    <_>
      <rects>
        <_>
          7 0 8 12 -1.</_>
        <_>
          7 6 8 6 2.</_></rects>
      <tilted>0</tilted></_>
    <_>
      <rects>
        <_>
          7 1 7 10 -1.</_>
        <_>
          7 6 7 5 2.</_></rects>
      <tilted>0</tilted></_>
    <_>
      <rects>
        <_>
          7 1 11 10 -1.</_>
        <_>
          7 6 11 5 2.</_></rects>
      <tilted>0</tilted></_>
    <_>
      <rects>
        <_>
          7 3 4 14 -1.</_>
        <_>
          7 3 2 7 2.</_>
        <_>
          9 10 2 7 2.</_></rects>
      <tilted>0</tilted></_>
    <_>
      <rects>
        <_>
          7 4 4 8 -1.</_>
        <_>
          7 4 2 4 2.</_>
        <_>
          9 8 2 4 2.</_></rects>
      <tilted>0</tilted></_>
    <_>
      <rects>
        <_>
          7 4 4 12 -1.</_>
        <_>
          9 4 2 12 2.</_></rects>
      <tilted>0</tilted></_>
    <_>
      <rects>
        <_>
          7 5 3 1 -1.</_>
        <_>
          8 5 1 1 2.</_></rects>
      <tilted>0</tilted></_>
    <_>
      <rects>
        <_>
          7 6 4 8 -1.</_>
        <_>
          7 6 2 4 2.</_>
        <_>
          9 10 2 4 2.</_></rects>
      <tilted>0</tilted></_>
    <_>
      <rects>
        <_>
          7 6 4 10 -1.</_>
        <_>
          7 6 2 5 2.</_>
        <_>
          9 11 2 5 2.</_></rects>
      <tilted>0</tilted></_>
    <_>
      <rects>
        <_>
          7 7 4 9 -1.</_>
        <_>
          9 7 2 9 2.</_></rects>
      <tilted>0</tilted></_>
    <_>
      <rects>
        <_>
          7 7 6 2 -1.</_>
        <_>
          10 7 3 2 2.</_></rects>
      <tilted>0</tilted></_>
    <_>
      <rects>
        <_>
          7 9 2 10 -1.</_>
        <_>
          7 9 1 5 2.</_>
        <_>
          8 14 1 5 2.</_></rects>
      <tilted>0</tilted></_>
    <_>
      <rects>
        <_>
          7 9 2 9 -1.</_>
        <_>
          8 9 1 9 2.</_></rects>
      <tilted>0</tilted></_>
    <_>
      <rects>
        <_>
          7 9 2 9 -1.</_>
        <_>
          7 12 2 3 2.</_></rects>
      <tilted>0</tilted></_>
    <_>
      <rects>
        <_>
          7 9 4 10 -1.</_>
        <_>
          9 9 2 10 2.</_></rects>
      <tilted>0</tilted></_>
    <_>
      <rects>
        <_>
          7 9 6 6 -1.</_>
        <_>
          7 12 6 3 2.</_></rects>
      <tilted>0</tilted></_>
    <_>
      <rects>
        <_>
          7 10 2 9 -1.</_>
        <_>
          8 10 1 9 2.</_></rects>
      <tilted>0</tilted></_>
    <_>
      <rects>
        <_>
          7 10 7 3 -1.</_>
        <_>
          7 11 7 1 2.</_></rects>
      <tilted>0</tilted></_>
    <_>
      <rects>
        <_>
          7 10 7 10 -1.</_>
        <_>
          7 15 7 5 2.</_></rects>
      <tilted>0</tilted></_>
    <_>
      <rects>
        <_>
          7 11 2 9 -1.</_>
        <_>
          8 11 1 9 2.</_></rects>
      <tilted>0</tilted></_>
    <_>
      <rects>
        <_>
          7 11 4 6 -1.</_>
        <_>
          9 11 2 6 2.</_></rects>
      <tilted>0</tilted></_>
    <_>
      <rects>
        <_>
          7 12 4 2 -1.</_>
        <_>
          9 12 2 2 2.</_></rects>
      <tilted>0</tilted></_>
    <_>
      <rects>
        <_>
          8 0 3 12 -1.</_>
        <_>
          8 4 3 4 2.</_></rects>
      <tilted>0</tilted></_>
    <_>
      <rects>
        <_>
          8 0 12 3 -1.</_>
        <_>
          14 0 6 3 2.</_></rects>
      <tilted>0</tilted></_>
    <_>
      <rects>
        <_>
          8 0 6 14 -1.</_>
        <_>
          8 7 6 7 2.</_></rects>
      <tilted>0</tilted></_>
    <_>
      <rects>
        <_>
          8 1 3 1 -1.</_>
        <_>
          9 1 1 1 2.</_></rects>
      <tilted>0</tilted></_>
    <_>
      <rects>
        <_>
          8 1 8 10 -1.</_>
        <_>
          8 6 8 5 2.</_></rects>
      <tilted>0</tilted></_>
    <_>
      <rects>
        <_>
          8 2 4 16 -1.</_>
        <_>
          8 10 4 8 2.</_></rects>
      <tilted>0</tilted></_>
    <_>
      <rects>
        <_>
          8 2 7 8 -1.</_>
        <_>
          8 6 7 4 2.</_></rects>
      <tilted>0</tilted></_>
    <_>
      <rects>
        <_>
          8 6 12 4 -1.</_>
        <_>
          8 6 6 2 2.</_>
        <_>
          14 8 6 2 2.</_></rects>
      <tilted>0</tilted></_>
    <_>
      <rects>
        <_>
          8 7 1 3 -1.</_>
        <_>
          8 8 1 1 2.</_></rects>
      <tilted>0</tilted></_>
    <_>
      <rects>
        <_>
          8 7 4 6 -1.</_>
        <_>
          8 10 4 3 2.</_></rects>
      <tilted>0</tilted></_>
    <_>
      <rects>
        <_>
          8 7 7 6 -1.</_>
        <_>
          8 10 7 3 2.</_></rects>
      <tilted>0</tilted></_>
    <_>
      <rects>
        <_>
          8 8 2 11 -1.</_>
        <_>
          9 8 1 11 2.</_></rects>
      <tilted>0</tilted></_>
    <_>
      <rects>
        <_>
          8 8 3 6 -1.</_>
        <_>
          8 11 3 3 2.</_></rects>
      <tilted>0</tilted></_>
    <_>
      <rects>
        <_>
          8 9 1 9 -1.</_>
        <_>
          8 12 1 3 2.</_></rects>
      <tilted>0</tilted></_>
    <_>
      <rects>
        <_>
          8 11 2 2 -1.</_>
        <_>
          9 11 1 2 2.</_></rects>
      <tilted>0</tilted></_>
    <_>
      <rects>
        <_>
          8 18 4 2 -1.</_>
        <_>
          10 18 2 2 2.</_></rects>
      <tilted>0</tilted></_>
    <_>
      <rects>
        <_>
          8 19 12 1 -1.</_>
        <_>
          14 19 6 1 2.</_></rects>
      <tilted>0</tilted></_>
    <_>
      <rects>
        <_>
          9 0 4 20 -1.</_>
        <_>
          9 10 4 10 2.</_></rects>
      <tilted>0</tilted></_>
    <_>
      <rects>
        <_>
          9 1 2 1 -1.</_>
        <_>
          10 1 1 1 2.</_></rects>
      <tilted>0</tilted></_>
    <_>
      <rects>
        <_>
          9 1 8 13 -1.</_>
        <_>
          13 1 4 13 2.</_></rects>
      <tilted>0</tilted></_>
    <_>
      <rects>
        <_>
          9 3 6 12 -1.</_>
        <_>
          9 3 3 6 2.</_>
        <_>
          12 9 3 6 2.</_></rects>
      <tilted>0</tilted></_>
    <_>
      <rects>
        <_>
          9 5 2 4 -1.</_>
        <_>
          9 7 2 2 2.</_></rects>
      <tilted>0</tilted></_>
    <_>
      <rects>
        <_>
          9 5 4 10 -1.</_>
        <_>
          9 5 2 5 2.</_>
        <_>
          11 10 2 5 2.</_></rects>
      <tilted>0</tilted></_>
    <_>
      <rects>
        <_>
          9 5 3 4 -1.</_>
        <_>
          9 7 3 2 2.</_></rects>
      <tilted>0</tilted></_>
    <_>
      <rects>
        <_>
          9 7 2 10 -1.</_>
        <_>
          10 7 1 10 2.</_></rects>
      <tilted>0</tilted></_>
    <_>
      <rects>
        <_>
          9 7 4 10 -1.</_>
        <_>
          9 7 2 5 2.</_>
        <_>
          11 12 2 5 2.</_></rects>
      <tilted>0</tilted></_>
    <_>
      <rects>
        <_>
          9 7 4 11 -1.</_>
        <_>
          11 7 2 11 2.</_></rects>
      <tilted>0</tilted></_>
    <_>
      <rects>
        <_>
          9 8 4 4 -1.</_>
        <_>
          9 10 4 2 2.</_></rects>
      <tilted>0</tilted></_>
    <_>
      <rects>
        <_>
          9 9 4 6 -1.</_>
        <_>
          11 9 2 6 2.</_></rects>
      <tilted>0</tilted></_>
    <_>
      <rects>
        <_>
          9 9 4 9 -1.</_>
        <_>
          11 9 2 9 2.</_></rects>
      <tilted>0</tilted></_>
    <_>
      <rects>
        <_>
          9 10 4 6 -1.</_>
        <_>
          11 10 2 6 2.</_></rects>
      <tilted>0</tilted></_>
    <_>
      <rects>
        <_>
          9 13 1 4 -1.</_>
        <_>
          9 15 1 2 2.</_></rects>
      <tilted>0</tilted></_>
    <_>
      <rects>
        <_>
          9 16 2 2 -1.</_>
        <_>
          9 17 2 1 2.</_></rects>
      <tilted>0</tilted></_>
    <_>
      <rects>
        <_>
          9 17 8 3 -1.</_>
        <_>
          13 17 4 3 2.</_></rects>
      <tilted>0</tilted></_>
    <_>
      <rects>
        <_>
          9 19 8 1 -1.</_>
        <_>
          13 19 4 1 2.</_></rects>
      <tilted>0</tilted></_>
    <_>
      <rects>
        <_>
          10 0 4 2 -1.</_>
        <_>
          12 0 2 2 2.</_></rects>
      <tilted>0</tilted></_>
    <_>
      <rects>
        <_>
          10 3 1 2 -1.</_>
        <_>
          10 4 1 1 2.</_></rects>
      <tilted>0</tilted></_>
    <_>
      <rects>
        <_>
          10 4 2 2 -1.</_>
        <_>
          10 4 1 1 2.</_>
        <_>
          11 5 1 1 2.</_></rects>
      <tilted>0</tilted></_>
    <_>
      <rects>
        <_>
          10 4 2 6 -1.</_>
        <_>
          10 6 2 2 2.</_></rects>
      <tilted>0</tilted></_>
    <_>
      <rects>
        <_>
          10 4 8 6 -1.</_>
        <_>
          10 4 4 3 2.</_>
        <_>
          14 7 4 3 2.</_></rects>
      <tilted>0</tilted></_>
    <_>
      <rects>
        <_>
          10 4 6 6 -1.</_>
        <_>
          10 7 6 3 2.</_></rects>
      <tilted>0</tilted></_>
    <_>
      <rects>
        <_>
          10 5 1 4 -1.</_>
        <_>
          10 7 1 2 2.</_></rects>
      <tilted>0</tilted></_>
    <_>
      <rects>
        <_>
          10 5 6 6 -1.</_>
        <_>
          10 5 3 3 2.</_>
        <_>
          13 8 3 3 2.</_></rects>
      <tilted>0</tilted></_>
    <_>
      <rects>
        <_>
          10 6 10 8 -1.</_>
        <_>
          15 6 5 8 2.</_></rects>
      <tilted>0</tilted></_>
    <_>
      <rects>
        <_>
          10 7 1 6 -1.</_>
        <_>
          10 10 1 3 2.</_></rects>
      <tilted>0</tilted></_>
    <_>
      <rects>
        <_>
          10 8 2 10 -1.</_>
        <_>
          11 8 1 10 2.</_></rects>
      <tilted>0</tilted></_>
    <_>
      <rects>
        <_>
          10 9 2 10 -1.</_>
        <_>
          10 9 1 5 2.</_>
        <_>
          11 14 1 5 2.</_></rects>
      <tilted>0</tilted></_>
    <_>
      <rects>
        <_>
          10 9 4 7 -1.</_>
        <_>
          12 9 2 7 2.</_></rects>
      <tilted>0</tilted></_>
    <_>
      <rects>
        <_>
          10 10 2 4 -1.</_>
        <_>
          10 10 1 2 2.</_>
        <_>
          11 12 1 2 2.</_></rects>
      <tilted>0</tilted></_>
    <_>
      <rects>
        <_>
          10 11 4 4 -1.</_>
        <_>
          12 11 2 4 2.</_></rects>
      <tilted>0</tilted></_>
    <_>
      <rects>
        <_>
          10 12 2 2 -1.</_>
        <_>
          11 12 1 2 2.</_></rects>
      <tilted>0</tilted></_>
    <_>
      <rects>
        <_>
          10 12 4 2 -1.</_>
        <_>
          12 12 2 2 2.</_></rects>
      <tilted>0</tilted></_>
    <_>
      <rects>
        <_>
          10 13 2 2 -1.</_>
        <_>
          11 13 1 2 2.</_></rects>
      <tilted>0</tilted></_>
    <_>
      <rects>
        <_>
          10 18 2 2 -1.</_>
        <_>
          10 18 1 1 2.</_>
        <_>
          11 19 1 1 2.</_></rects>
      <tilted>0</tilted></_>
    <_>
      <rects>
        <_>
          11 0 4 3 -1.</_>
        <_>
          13 0 2 3 2.</_></rects>
      <tilted>0</tilted></_>
    <_>
      <rects>
        <_>
          11 0 6 8 -1.</_>
        <_>
          11 4 6 4 2.</_></rects>
      <tilted>0</tilted></_>
    <_>
      <rects>
        <_>
          11 1 6 14 -1.</_>
        <_>
          11 1 3 7 2.</_>
        <_>
          14 8 3 7 2.</_></rects>
      <tilted>0</tilted></_>
    <_>
      <rects>
        <_>
          11 2 2 4 -1.</_>
        <_>
          11 2 1 2 2.</_>
        <_>
          12 4 1 2 2.</_></rects>
      <tilted>0</tilted></_>
    <_>
      <rects>
        <_>
          11 2 6 1 -1.</_>
        <_>
          14 2 3 1 2.</_></rects>
      <tilted>0</tilted></_>
    <_>
      <rects>
        <_>
          11 2 6 5 -1.</_>
        <_>
          14 2 3 5 2.</_></rects>
      <tilted>0</tilted></_>
    <_>
      <rects>
        <_>
          11 2 4 8 -1.</_>
        <_>
          11 6 4 4 2.</_></rects>
      <tilted>0</tilted></_>
    <_>
      <rects>
        <_>
          11 5 6 4 -1.</_>
        <_>
          11 5 3 2 2.</_>
        <_>
          14 7 3 2 2.</_></rects>
      <tilted>0</tilted></_>
    <_>
      <rects>
        <_>
          11 7 4 8 -1.</_>
        <_>
          13 7 2 8 2.</_></rects>
      <tilted>0</tilted></_>
    <_>
      <rects>
        <_>
          11 8 8 4 -1.</_>
        <_>
          15 8 4 4 2.</_></rects>
      <tilted>0</tilted></_>
    <_>
      <rects>
        <_>
          11 9 2 6 -1.</_>
        <_>
          11 9 1 3 2.</_>
        <_>
          12 12 1 3 2.</_></rects>
      <tilted>0</tilted></_>
    <_>
      <rects>
        <_>
          11 10 4 5 -1.</_>
        <_>
          13 10 2 5 2.</_></rects>
      <tilted>0</tilted></_>
    <_>
      <rects>
        <_>
          11 10 8 1 -1.</_>
        <_>
          15 10 4 1 2.</_></rects>
      <tilted>0</tilted></_>
    <_>
      <rects>
        <_>
          11 11 4 3 -1.</_>
        <_>
          13 11 2 3 2.</_></rects>
      <tilted>0</tilted></_>
    <_>
      <rects>
        <_>
          11 11 6 6 -1.</_>
        <_>
          11 11 3 3 2.</_>
        <_>
          14 14 3 3 2.</_></rects>
      <tilted>0</tilted></_>
    <_>
      <rects>
        <_>
          11 13 2 3 -1.</_>
        <_>
          12 13 1 3 2.</_></rects>
      <tilted>0</tilted></_>
    <_>
      <rects>
        <_>
          11 13 2 5 -1.</_>
        <_>
          12 13 1 5 2.</_></rects>
      <tilted>0</tilted></_>
    <_>
      <rects>
        <_>
          11 19 6 1 -1.</_>
        <_>
          14 19 3 1 2.</_></rects>
      <tilted>0</tilted></_>
    <_>
      <rects>
        <_>
          12 0 4 1 -1.</_>
        <_>
          14 0 2 1 2.</_></rects>
      <tilted>0</tilted></_>
    <_>
      <rects>
        <_>
          12 3 8 17 -1.</_>
        <_>
          16 3 4 17 2.</_></rects>
      <tilted>0</tilted></_>
    <_>
      <rects>
        <_>
          12 4 2 14 -1.</_>
        <_>
          12 4 1 7 2.</_>
        <_>
          13 11 1 7 2.</_></rects>
      <tilted>0</tilted></_>
