<?xml version="1.0"?>
<opencv_storage>
<stage10>
  <maxWeakCount>10</maxWeakCount>
  <stageThreshold>-9.7152405977249146e-01</stageThreshold>
  <weakClassifiers>
    <_>
      <internalNodes>
        0 -1 42109 -2.3533519357442856e-02</internalNodes>
      <leafValues>
        6.0000002384185791e-01 -4.2189779877662659e-01</leafValues></_>
    <_>
      <internalNodes>
        0 -1 54000 3.4580487757921219e-02</internalNodes>
      <leafValues>
        -3.2037127017974854e-01 3.2967001199722290e-01</leafValues></_>
    <_>
      <internalNodes>
        0 -1 78368 1.2693341821432114e-02</internalNodes>
      <leafValues>
        1.5771998465061188e-01 -7.9239416122436523e-01</leafValues></_>
    <_>
      <internalNodes>
        0 -1 21695 8.4448829293251038e-03</internalNodes>
      <leafValues>
        1.4756514132022858e-01 -7.1414905786514282e-01</leafValues></_>
    <_>
      <internalNodes>
        0 -1 15254 -2.3985384404659271e-01</internalNodes>
      <leafValues>
        -8.8545131683349609e-01 1.1570554971694946e-01</leafValues></_>
    <_>
      <internalNodes>
        0 -1 576 2.5589042901992798e-01</internalNodes>
      <leafValues>
        7.6761379837989807e-02 -8.9065897464752197e-01</leafValues></_>
    <_>
      <internalNodes>
        0 -1 76649 1.5815808437764645e-03</internalNodes>
      <leafValues>
        1.0987006127834320e-01 -8.1871277093887329e-01</leafValues></_>
    <_>
      <internalNodes>
        0 -1 3355 -5.0445059314370155e-03</internalNodes>
      <leafValues>
        -7.4208617210388184e-01 1.3627389073371887e-01</leafValues></_>
    <_>
      <internalNodes>
        0 -1 77668 -3.2452573068439960e-03</internalNodes>
      <leafValues>
        -7.9228276014328003e-01 1.3181404769420624e-01</leafValues></_>
    <_>
      <internalNodes>
        0 -1 78112 -3.3765817061066628e-03</internalNodes>
      <leafValues>
        -8.8574737310409546e-01 7.3467873036861420e-02</leafValues></_></weakClassifiers></stage10>
</opencv_storage>
