<?xml version="1.0"?>
<opencv_storage>
<stage11>
  <maxWeakCount>10</maxWeakCount>
  <stageThreshold>-8.6772990226745605e-01</stageThreshold>
  <weakClassifiers>
    <_>
      <internalNodes>
        0 -1 7963 -4.5336100459098816e-01</internalNodes>
      <leafValues>
        4.3283581733703613e-01 -5.0000000000000000e-01</leafValues></_>
    <_>
      <internalNodes>
        0 -1 7146 1.9758134149014950e-03</internalNodes>
      <leafValues>
        1.2092936784029007e-01 -6.7028743028640747e-01</leafValues></_>
    <_>
      <internalNodes>
        0 -1 14475 -3.1112011056393385e-03</internalNodes>
      <leafValues>
        -8.6923205852508545e-01 8.3529315888881683e-02</leafValues></_>
    <_>
      <internalNodes>
        0 -1 67398 3.2605808228254318e-02</internalNodes>
      <leafValues>
        -2.2106145322322845e-01 4.3521398305892944e-01</leafValues></_>
    <_>
      <internalNodes>
        0 -1 11439 1.8432967364788055e-02</internalNodes>
      <leafValues>
        1.1643815040588379e-01 -7.2078716754913330e-01</leafValues></_>
    <_>
      <internalNodes>
        0 -1 38480 3.0375309288501740e-02</internalNodes>
      <leafValues>
        -1.2547059357166290e-01 8.2534980773925781e-01</leafValues></_>
    <_>
      <internalNodes>
        0 -1 51926 -8.9766219258308411e-02</internalNodes>
      <leafValues>
        4.0992018580436707e-01 -2.4555061757564545e-01</leafValues></_>
    <_>
      <internalNodes>
        0 -1 30725 -3.2296210527420044e-01</internalNodes>
      <leafValues>
        -8.5047429800033569e-01 1.3627170026302338e-01</leafValues></_>
    <_>
      <internalNodes>
        0 -1 7690 -3.3006821759045124e-03</internalNodes>
      <leafValues>
        -8.5887867212295532e-01 7.5975373387336731e-02</leafValues></_>
    <_>
      <internalNodes>
        0 -1 7729 -3.0923167243599892e-02</internalNodes>
      <leafValues>
        -6.6777598857879639e-01 1.1624225974082947e-01</leafValues></_></weakClassifiers></stage11>
</opencv_storage>
