<?xml version="1.0"?>
<opencv_storage>
<stage16>
  <maxWeakCount>15</maxWeakCount>
  <stageThreshold>-1.0259566307067871e+00</stageThreshold>
  <weakClassifiers>
    <_>
      <internalNodes>
        0 -1 24892 3.1771302223205566e-02</internalNodes>
      <leafValues>
        -4.0401145815849304e-01 6.1538463830947876e-01</leafValues></_>
    <_>
      <internalNodes>
        0 -1 5878 -2.7293501421809196e-02</internalNodes>
      <leafValues>
        2.6665920019149780e-01 -3.7069806456565857e-01</leafValues></_>
    <_>
      <internalNodes>
        0 -1 73751 -3.5677566193044186e-03</internalNodes>
      <leafValues>
        -5.8228415250778198e-01 1.4954040944576263e-01</leafValues></_>
    <_>
      <internalNodes>
        0 -1 7616 -2.0624954253435135e-02</internalNodes>
      <leafValues>
        -8.7970721721649170e-01 1.0316660255193710e-01</leafValues></_>
    <_>
      <internalNodes>
        0 -1 61032 6.5466854721307755e-03</internalNodes>
      <leafValues>
        -1.1279089003801346e-01 5.7931190729141235e-01</leafValues></_>
    <_>
      <internalNodes>
        0 -1 64023 -3.5974681377410889e-02</internalNodes>
      <leafValues>
        3.4309720993041992e-01 -2.6336365938186646e-01</leafValues></_>
    <_>
      <internalNodes>
        0 -1 1139 1.5739458799362183e-01</internalNodes>
      <leafValues>
        7.5245082378387451e-02 -1.</leafValues></_>
    <_>
      <internalNodes>
        0 -1 65267 -5.5849179625511169e-03</internalNodes>
      <leafValues>
        3.2757017016410828e-01 -2.0088057219982147e-01</leafValues></_>
    <_>
      <internalNodes>
        0 -1 38878 -9.9136158823966980e-02</internalNodes>
      <leafValues>
        -6.8760222196578979e-01 1.0954575240612030e-01</leafValues></_>
    <_>
      <internalNodes>
        0 -1 53910 -1.8854420632123947e-02</internalNodes>
      <leafValues>
        5.9848105907440186e-01 -1.4455083012580872e-01</leafValues></_>
    <_>
      <internalNodes>
        0 -1 21689 -7.0395302027463913e-03</internalNodes>
      <leafValues>
        -9.2692607641220093e-01 8.9143432676792145e-02</leafValues></_>
    <_>
      <internalNodes>
        0 -1 58346 1.8073327373713255e-03</internalNodes>
      <leafValues>
        -1.6077099740505219e-01 4.4406455755233765e-01</leafValues></_>
    <_>
      <internalNodes>
        0 -1 77971 6.8659810349345207e-03</internalNodes>
      <leafValues>
        1.1621128022670746e-01 -6.4867395162582397e-01</leafValues></_>
    <_>
      <internalNodes>
        0 -1 52141 9.4879614189267159e-03</internalNodes>
      <leafValues>
        7.8862398862838745e-02 -6.5496814250946045e-01</leafValues></_>
    <_>
      <internalNodes>
        0 -1 50752 -4.4891107827425003e-03</internalNodes>
      <leafValues>
        3.6766636371612549e-01 -1.7154289782047272e-01</leafValues></_></weakClassifiers></stage16>
</opencv_storage>
