<?xml version="1.0"?>
<opencv_storage>
<stage9>
  <maxWeakCount>8</maxWeakCount>
  <stageThreshold>-1.2976882457733154e+00</stageThreshold>
  <weakClassifiers>
    <_>
      <internalNodes>
        0 -1 60420 -5.0331652164459229e-01</internalNodes>
      <leafValues>
        4.2446044087409973e-01 -5.0572830438613892e-01</leafValues></_>
    <_>
      <internalNodes>
        0 -1 75169 -2.6537531521171331e-03</internalNodes>
      <leafValues>
        -8.4090769290924072e-01 1.0830020159482956e-01</leafValues></_>
    <_>
      <internalNodes>
        0 -1 1465 1.3665126636624336e-02</internalNodes>
      <leafValues>
        1.5380606055259705e-01 -8.7114936113357544e-01</leafValues></_>
    <_>
      <internalNodes>
        0 -1 6410 2.2532232105731964e-03</internalNodes>
      <leafValues>
        1.4404736459255219e-01 -7.6095366477966309e-01</leafValues></_>
    <_>
      <internalNodes>
        0 -1 76 -4.0463460609316826e-03</internalNodes>
      <leafValues>
        -6.5889960527420044e-01 1.1254975944757462e-01</leafValues></_>
    <_>
      <internalNodes>
        0 -1 77776 -2.3183356970548630e-02</internalNodes>
      <leafValues>
        -8.0658173561096191e-01 1.5303377807140350e-01</leafValues></_>
    <_>
      <internalNodes>
        0 -1 77695 1.3923620805144310e-02</internalNodes>
      <leafValues>
        1.4077351987361908e-01 -7.2622025012969971e-01</leafValues></_>
    <_>
      <internalNodes>
        0 -1 78391 -1.2372929602861404e-02</internalNodes>
      <leafValues>
        -7.7850729227066040e-01 1.2659421563148499e-01</leafValues></_></weakClassifiers></stage9>
</opencv_storage>
