<?xml version="1.0"?>
<opencv_storage>
<stage7>
  <maxWeakCount>6</maxWeakCount>
  <stageThreshold>-9.3274253606796265e-01</stageThreshold>
  <weakClassifiers>
    <_>
      <internalNodes>
        0 -1 124841 -2.8741013258695602e-02</internalNodes>
      <leafValues>
        4.4444444775581360e-01 -3.6363637447357178e-01</leafValues></_>
    <_>
      <internalNodes>
        0 -1 119604 -2.6075318455696106e-03</internalNodes>
      <leafValues>
        7.9143273830413818e-01 -2.2637192904949188e-01</leafValues></_>
    <_>
      <internalNodes>
        0 -1 85843 -7.1118324995040894e-03</internalNodes>
      <leafValues>
        8.2308447360992432e-01 -2.4802292883396149e-01</leafValues></_>
    <_>
      <internalNodes>
        0 -1 124823 -2.4806328117847443e-02</internalNodes>
      <leafValues>
        6.0560810565948486e-01 -2.5475001335144043e-01</leafValues></_>
    <_>
      <internalNodes>
        0 -1 118272 6.1925267800688744e-03</internalNodes>
      <leafValues>
        -2.2418269515037537e-01 7.8696197271347046e-01</leafValues></_>
    <_>
      <internalNodes>
        0 -1 157974 -8.8658055756241083e-04</internalNodes>
      <leafValues>
        -4.7613674402236938e-01 3.7392327189445496e-01</leafValues></_></weakClassifiers></stage7>
</opencv_storage>
