<?xml version="1.0"?>
<opencv_storage>
<stage3>
  <maxWeakCount>7</maxWeakCount>
  <stageThreshold>-8.4839898347854614e-01</stageThreshold>
  <weakClassifiers>
    <_>
      <internalNodes>
        0 -1 36670 -1.0068204998970032e-01</internalNodes>
      <leafValues>
        -9.1489362716674805e-01 -6.7961163818836212e-02</leafValues></_>
    <_>
      <internalNodes>
        0 -1 41200 -1.1867308616638184e-01</internalNodes>
      <leafValues>
        6.1076855659484863e-01 -3.2521909475326538e-01</leafValues></_>
    <_>
      <internalNodes>
        0 -1 77673 -2.8986283577978611e-03</internalNodes>
      <leafValues>
        -7.8141611814498901e-01 2.2301568090915680e-01</leafValues></_>
    <_>
      <internalNodes>
        0 -1 77727 1.3513659359887242e-03</internalNodes>
      <leafValues>
        2.1694839000701904e-01 -6.8058878183364868e-01</leafValues></_>
    <_>
      <internalNodes>
        0 -1 29596 -2.8479581698775291e-02</internalNodes>
      <leafValues>
        6.7615145444869995e-01 -2.3726944625377655e-01</leafValues></_>
    <_>
      <internalNodes>
        0 -1 12600 -2.0112209022045135e-03</internalNodes>
      <leafValues>
        -8.0133545398712158e-01 1.9462814927101135e-01</leafValues></_>
    <_>
      <internalNodes>
        0 -1 12186 3.3212190028280020e-03</internalNodes>
      <leafValues>
        1.5189032256603241e-01 -8.4893500804901123e-01</leafValues></_></weakClassifiers></stage3>
</opencv_storage>
