<?xml version="1.0"?>
<opencv_storage>
<stage13>
  <maxWeakCount>12</maxWeakCount>
  <stageThreshold>-1.0048984289169312e+00</stageThreshold>
  <weakClassifiers>
    <_>
      <internalNodes>
        0 -1 43887 -3.4560978412628174e-02</internalNodes>
      <leafValues>
        6.0655736923217773e-01 -4.1654571890830994e-01</leafValues></_>
    <_>
      <internalNodes>
        0 -1 2593 -2.5193682312965393e-01</internalNodes>
      <leafValues>
        -9.2528951168060303e-01 6.3868477940559387e-02</leafValues></_>
    <_>
      <internalNodes>
        0 -1 34189 1.3454249128699303e-02</internalNodes>
      <leafValues>
        1.8897743523120880e-01 -7.5172692537307739e-01</leafValues></_>
    <_>
      <internalNodes>
        0 -1 21750 -4.9617304466664791e-03</internalNodes>
      <leafValues>
        -5.0957357883453369e-01 1.3967017829418182e-01</leafValues></_>
    <_>
      <internalNodes>
        0 -1 554 1.7609018087387085e-01</internalNodes>
      <leafValues>
        1.2526553869247437e-01 -9.4212448596954346e-01</leafValues></_>
    <_>
      <internalNodes>
        0 -1 4893 -3.6694242153316736e-03</internalNodes>
      <leafValues>
        -8.0922687053680420e-01 8.1885978579521179e-02</leafValues></_>
    <_>
      <internalNodes>
        0 -1 38319 5.8961227536201477e-02</internalNodes>
      <leafValues>
        -1.5972392261028290e-01 7.6412749290466309e-01</leafValues></_>
    <_>
      <internalNodes>
        0 -1 77540 -1.1382391676306725e-03</internalNodes>
      <leafValues>
        -6.0001820325851440e-01 2.0224861800670624e-01</leafValues></_>
    <_>
      <internalNodes>
        0 -1 2037 -1.0128051973879337e-02</internalNodes>
      <leafValues>
        3.7766909599304199e-01 -2.4313005805015564e-01</leafValues></_>
    <_>
      <internalNodes>
        0 -1 73750 -3.9367317222058773e-03</internalNodes>
      <leafValues>
        -7.6759320497512817e-01 1.2797653675079346e-01</leafValues></_>
    <_>
      <internalNodes>
        0 -1 63242 7.6745636761188507e-02</internalNodes>
      <leafValues>
        -1.9626662135124207e-01 5.6091320514678955e-01</leafValues></_>
    <_>
      <internalNodes>
        0 -1 25465 3.7775388918817043e-03</internalNodes>
      <leafValues>
        1.5996940433979034e-01 -5.8382755517959595e-01</leafValues></_></weakClassifiers></stage13>
</opencv_storage>
