<?xml version="1.0"?>
<opencv_storage>
<stage10>
  <maxWeakCount>8</maxWeakCount>
  <stageThreshold>-1.6159847378730774e-01</stageThreshold>
  <weakClassifiers>
    <_>
      <internalNodes>
        0 -1 43699 1.7162057338282466e-03</internalNodes>
      <leafValues>
        1.2994350492954254e-01 -1.</leafValues></_>
    <_>
      <internalNodes>
        0 -1 111489 1.4866229146718979e-02</internalNodes>
      <leafValues>
        -1.5570029616355896e-01 9.1147261857986450e-01</leafValues></_>
    <_>
      <internalNodes>
        0 -1 88471 6.7951241508126259e-03</internalNodes>
      <leafValues>
        -1.3666950166225433e-01 9.1974622011184692e-01</leafValues></_>
    <_>
      <internalNodes>
        0 -1 159484 1.7899911850690842e-02</internalNodes>
      <leafValues>
        1.8302915990352631e-01 -8.4294110536575317e-01</leafValues></_>
    <_>
      <internalNodes>
        0 -1 117051 -1.0522074066102505e-02</internalNodes>
      <leafValues>
        7.0215582847595215e-01 -2.3625977337360382e-01</leafValues></_>
    <_>
      <internalNodes>
        0 -1 120768 2.3194304667413235e-03</internalNodes>
      <leafValues>
        -2.1766385436058044e-01 7.2222000360488892e-01</leafValues></_>
    <_>
      <internalNodes>
        0 -1 159151 -1.6254846006631851e-02</internalNodes>
      <leafValues>
        2.0091463625431061e-01 -8.6249428987503052e-01</leafValues></_>
    <_>
      <internalNodes>
        0 -1 151851 -2.2282963618636131e-03</internalNodes>
      <leafValues>
        -7.4896955490112305e-01 1.9580098986625671e-01</leafValues></_></weakClassifiers></stage10>
</opencv_storage>
