<?xml version="1.0"?>
<opencv_storage>
<stage2>
  <maxWeakCount>6</maxWeakCount>
  <stageThreshold>-3.3108499646186829e-01</stageThreshold>
  <weakClassifiers>
    <_>
      <internalNodes>
        0 -1 103383 1.0414794087409973e-02</internalNodes>
      <leafValues>
        -3.0000001192092896e-01 6.9999998807907104e-01</leafValues></_>
    <_>
      <internalNodes>
        0 -1 111667 1.9562533125281334e-02</internalNodes>
      <leafValues>
        -2.8183266520500183e-01 8.2389426231384277e-01</leafValues></_>
    <_>
      <internalNodes>
        0 -1 32544 1.9621178507804871e-03</internalNodes>
      <leafValues>
        2.6824641227722168e-01 -1.</leafValues></_>
    <_>
      <internalNodes>
        0 -1 77980 1.7270343378186226e-02</internalNodes>
      <leafValues>
        -2.6336124539375305e-01 8.3730614185333252e-01</leafValues></_>
    <_>
      <internalNodes>
        0 -1 11030 3.8572587072849274e-02</internalNodes>
      <leafValues>
        -2.6837220788002014e-01 8.0862140655517578e-01</leafValues></_>
    <_>
      <internalNodes>
        0 -1 102995 -1.3265820220112801e-02</internalNodes>
      <leafValues>
        6.1874568462371826e-01 -4.8576527833938599e-01</leafValues></_></weakClassifiers></stage2>
</opencv_storage>
