<?xml version="1.0"?>
<opencv_storage>
<stage14>
  <maxWeakCount>10</maxWeakCount>
  <stageThreshold>-4.9039027094841003e-01</stageThreshold>
  <weakClassifiers>
    <_>
      <internalNodes>
        0 -1 144557 5.1079210825264454e-03</internalNodes>
      <leafValues>
        2.9411765933036804e-01 -4.3209877610206604e-01</leafValues></_>
    <_>
      <internalNodes>
        0 -1 133590 1.1799001367762685e-04</internalNodes>
      <leafValues>
        -3.0622515082359314e-01 4.0816286206245422e-01</leafValues></_>
    <_>
      <internalNodes>
        0 -1 14795 5.9035106096416712e-04</internalNodes>
      <leafValues>
        -3.5726308822631836e-01 4.5873552560806274e-01</leafValues></_>
    <_>
      <internalNodes>
        0 -1 48507 6.4683915115892887e-04</internalNodes>
      <leafValues>
        -3.6844718456268311e-01 4.8523691296577454e-01</leafValues></_>
    <_>
      <internalNodes>
        0 -1 2185 2.1967291831970215e-03</internalNodes>
      <leafValues>
        3.9089593291282654e-01 -4.7929486632347107e-01</leafValues></_>
    <_>
      <internalNodes>
        0 -1 133006 -4.0937610901892185e-04</internalNodes>
      <leafValues>
        4.5006349682807922e-01 -3.7433102726936340e-01</leafValues></_>
    <_>
      <internalNodes>
        0 -1 84813 2.3905685171484947e-02</internalNodes>
      <leafValues>
        -2.0289219915866852e-01 7.7339434623718262e-01</leafValues></_>
    <_>
      <internalNodes>
        0 -1 27769 4.8048005555756390e-04</internalNodes>
      <leafValues>
        4.5770794153213501e-01 -3.4054261445999146e-01</leafValues></_>
    <_>
      <internalNodes>
        0 -1 148185 -7.5235596159473062e-04</internalNodes>
      <leafValues>
        5.6159293651580811e-01 -3.3650919795036316e-01</leafValues></_>
    <_>
      <internalNodes>
        0 -1 128959 1.9179491209797561e-04</internalNodes>
      <leafValues>
        -3.8085278868675232e-01 3.9641860127449036e-01</leafValues></_></weakClassifiers></stage14>
</opencv_storage>
