<?xml version="1.0"?>
<opencv_storage>
<stage8>
  <maxWeakCount>6</maxWeakCount>
  <stageThreshold>-8.6840748786926270e-01</stageThreshold>
  <weakClassifiers>
    <_>
      <internalNodes>
        0 -1 48439 -6.6016459465026855e-01</internalNodes>
      <leafValues>
        6.4444446563720703e-01 -5.4796749353408813e-01</leafValues></_>
    <_>
      <internalNodes>
        0 -1 41200 -9.5042273402214050e-02</internalNodes>
      <leafValues>
        5.6964391469955444e-01 -3.4038951992988586e-01</leafValues></_>
    <_>
      <internalNodes>
        0 -1 78294 -2.6497109793126583e-03</internalNodes>
      <leafValues>
        -9.5368468761444092e-01 1.1007885634899139e-01</leafValues></_>
    <_>
      <internalNodes>
        0 -1 41449 -1.1763080954551697e-01</internalNodes>
      <leafValues>
        1.7396588623523712e-01 -7.8379362821578979e-01</leafValues></_>
    <_>
      <internalNodes>
        0 -1 21738 -2.6840833015739918e-03</internalNodes>
      <leafValues>
        -8.5009223222732544e-01 1.4393828809261322e-01</leafValues></_>
    <_>
      <internalNodes>
        0 -1 29663 -1.4996525831520557e-02</internalNodes>
      <leafValues>
        5.4972600936889648e-01 -2.6264330744743347e-01</leafValues></_></weakClassifiers></stage8>
</opencv_storage>
