<?xml version="1.0"?>
<opencv_storage>
<stage8>
  <maxWeakCount>7</maxWeakCount>
  <stageThreshold>-8.0432027578353882e-01</stageThreshold>
  <weakClassifiers>
    <_>
      <internalNodes>
        0 -1 157575 2.1513900719583035e-03</internalNodes>
      <leafValues>
        1.9745223224163055e-01 -7.2093021869659424e-01</leafValues></_>
    <_>
      <internalNodes>
        0 -1 146213 -2.2188469301909208e-03</internalNodes>
      <leafValues>
        -7.7954858541488647e-01 1.6172544658184052e-01</leafValues></_>
    <_>
      <internalNodes>
        0 -1 8836 -4.4662766158580780e-03</internalNodes>
      <leafValues>
        -8.9468687772750854e-01 1.3821099698543549e-01</leafValues></_>
    <_>
      <internalNodes>
        0 -1 57883 -2.7207359671592712e-02</internalNodes>
      <leafValues>
        7.5933110713958740e-01 -2.1810176968574524e-01</leafValues></_>
    <_>
      <internalNodes>
        0 -1 116134 3.4622892737388611e-02</internalNodes>
      <leafValues>
        -2.2829537093639374e-01 6.9401437044143677e-01</leafValues></_>
    <_>
      <internalNodes>
        0 -1 161122 -7.1715959347784519e-04</internalNodes>
      <leafValues>
        -6.9621503353118896e-01 2.5206807255744934e-01</leafValues></_>
    <_>
      <internalNodes>
        0 -1 87063 -1.9085861742496490e-02</internalNodes>
      <leafValues>
        8.4591263532638550e-01 -1.8899743258953094e-01</leafValues></_></weakClassifiers></stage8>
</opencv_storage>
