<?xml version="1.0"?>
<opencv_storage>
<stage24>
  <maxWeakCount>24</maxWeakCount>
  <stageThreshold>-1.0458217859268188e+00</stageThreshold>
  <weakClassifiers>
    <_>
      <internalNodes>
        0 -1 35101 -1.2097843922674656e-02</internalNodes>
      <leafValues>
        -8.3333335816860199e-02 -4.8917749524116516e-01</leafValues></_>
    <_>
      <internalNodes>
        0 -1 8141 4.6144381165504456e-02</internalNodes>
      <leafValues>
        -1.8769545853137970e-01 2.9236319661140442e-01</leafValues></_>
    <_>
      <internalNodes>
        0 -1 12201 5.3560594096779823e-03</internalNodes>
      <leafValues>
        7.7787503600120544e-02 -6.6122454404830933e-01</leafValues></_>
    <_>
      <internalNodes>
        0 -1 68256 -9.3869189731776714e-04</internalNodes>
      <leafValues>
        3.3467999100685120e-01 -1.5957167744636536e-01</leafValues></_>
    <_>
      <internalNodes>
        0 -1 21749 1.7505649477243423e-02</internalNodes>
      <leafValues>
        5.3264845162630081e-02 -8.0424714088439941e-01</leafValues></_>
    <_>
      <internalNodes>
        0 -1 31452 1.2000555545091629e-01</internalNodes>
      <leafValues>
        -9.9514827132225037e-02 6.7448461055755615e-01</leafValues></_>
    <_>
      <internalNodes>
        0 -1 49560 -2.3368168622255325e-03</internalNodes>
      <leafValues>
        2.8782027959823608e-01 -1.7770722508430481e-01</leafValues></_>
    <_>
      <internalNodes>
        0 -1 31389 -8.5208147764205933e-02</internalNodes>
      <leafValues>
        -4.9338915944099426e-01 8.0706089735031128e-02</leafValues></_>
    <_>
      <internalNodes>
        0 -1 8705 -4.8017777502536774e-02</internalNodes>
      <leafValues>
        3.0158007144927979e-01 -1.6312101483345032e-01</leafValues></_>
    <_>
      <internalNodes>
        0 -1 68253 -3.3808066509664059e-03</internalNodes>
      <leafValues>
        4.1596522927284241e-01 -1.3025525212287903e-01</leafValues></_>
    <_>
      <internalNodes>
        0 -1 66575 5.3624440915882587e-03</internalNodes>
      <leafValues>
        -1.3881596922874451e-01 3.6147445440292358e-01</leafValues></_>
    <_>
      <internalNodes>
        0 -1 78175 2.0198053680360317e-03</internalNodes>
      <leafValues>
        9.2579938471317291e-02 -5.5142867565155029e-01</leafValues></_>
    <_>
      <internalNodes>
        0 -1 35680 -1.3880592584609985e-01</internalNodes>
      <leafValues>
        3.4240812063217163e-01 -1.6967906057834625e-01</leafValues></_>
    <_>
      <internalNodes>
        0 -1 47103 -1.3740509748458862e-01</internalNodes>
      <leafValues>
        -6.2642204761505127e-01 9.4640716910362244e-02</leafValues></_>
    <_>
      <internalNodes>
        0 -1 77986 -7.2381837526336312e-04</internalNodes>
      <leafValues>
        -4.7559297084808350e-01 1.0525456070899963e-01</leafValues></_>
    <_>
      <internalNodes>
        0 -1 49969 -2.4320263415575027e-02</internalNodes>
      <leafValues>
        2.8847941756248474e-01 -1.7595781385898590e-01</leafValues></_>
    <_>
      <internalNodes>
        0 -1 70908 -1.0083505883812904e-02</internalNodes>
      <leafValues>
        6.2636655569076538e-01 -8.7253116071224213e-02</leafValues></_>
    <_>
      <internalNodes>
        0 -1 75385 2.0786416716873646e-03</internalNodes>
      <leafValues>
        -1.7289547622203827e-01 2.9773730039596558e-01</leafValues></_>
    <_>
      <internalNodes>
        0 -1 47399 1.1323671787977219e-02</internalNodes>
      <leafValues>
        1.1264356970787048e-01 -5.1425647735595703e-01</leafValues></_>
    <_>
      <internalNodes>
        0 -1 48015 2.6422787457704544e-02</internalNodes>
      <leafValues>
        -8.2974538207054138e-02 7.9375487565994263e-01</leafValues></_>
    <_>
      <internalNodes>
        0 -1 24746 -1.4826131984591484e-02</internalNodes>
      <leafValues>
        -5.3482490777969360e-01 1.0762931406497955e-01</leafValues></_>
    <_>
      <internalNodes>
        0 -1 33804 -2.6786644011735916e-03</internalNodes>
      <leafValues>
        -8.2248038053512573e-01 5.1763776689767838e-02</leafValues></_>
    <_>
      <internalNodes>
        0 -1 74194 1.2676568701863289e-02</internalNodes>
      <leafValues>
        -1.4762458205223083e-01 3.8838315010070801e-01</leafValues></_>
    <_>
      <internalNodes>
        0 -1 74898 -1.3289944035932422e-04</internalNodes>
      <leafValues>
        2.4146521091461182e-01 -2.7028951048851013e-01</leafValues></_></weakClassifiers></stage24>
</opencv_storage>
